{"learner":{"attributes":{"scikit_learn":"{\"_estimator_type\": \"regressor\"}"},"feature_names":[],"feature_types":[],"gradient_booster":{"model":{"cats":{"enc":[],"feature_segments":[],"sorted_idx":[]},"gbtree_model_param":{"num_parallel_tree":"1","num_trees":"200"},"iteration_indptr":[0,1,2,3,4,5,6,7,8,9,10,11,12,13,14,15,16,17,18,19,20,21,22,23,24,25,26,27,28,29,30,31,32,33,34,35,36,37,38,39,40,41,42,43,44,45,46,47,48,49,50,51,52,53,54,55,56,57,58,59,60,61,62,63,64,65,66,67,68,69,70,71,72,73,74,75,76,77,78,79,80,81,82,83,84,85,86,87,88,89,90,91,92,93,94,95,96,97,98,99,100,101,102,103,104,105,106,107,108,109,110,111,112,113,114,115,116,117,118,119,120,121,122,123,124,125,126,127,128,129,130,131,132,133,134,135,136,137,138,139,140,141,142,143,144,145,146,147,148,149,150,151,152,153,154,155,156,157,158,159,160,161,162,163,164,165,166,167,168,169,170,171,172,173,174,175,176,177,178,179,180,181,182,183,184,185,186,187,188,189,190,191,192,193,194,195,196,197,198,199,200],"tree_info":[0,0,0,0,0,0,0,0,0,0,0,0,0,0,0,0,0,0,0,0,0,0,0,0,0,0,0,0,0,0,0,0,0,0,0,0,0,0,0,0,0,0,0,0,0,0,0,0,0,0,0,0,0,0,0,0,0,0,0,0,0,0,0,0,0,0,0,0,0,0,0,0,0,0,0,0,0,0,0,0,0,0,0,0,0,0,0,0,0,0,0,0,0,0,0,0,0,0,0,0,0,0,0,0,0,0,0,0,0,0,0,0,0,0,0,0,0,0,0,0,0,0,0,0,0,0,0,0,0,0,0,0,0,0,0,0,0,0,0,0,0,0,0,0,0,0,0,0,0,0,0,0,0,0,0,0,0,0,0,0,0,0,0,0,0,0,0,0,0,0,0,0,0,0,0,0,0,0,0,0,0,0,0,0,0,0,0,0,0,0,0,0,0,0,0,0,0,0,0,0],"trees":[{"base_weights":[-1.0285686E-3,-4.2281103E-1,4.7157395E-1,-5.2391344E-1,-1.9842185E-1,3.363601E-1,8.4608436E-1,-7.5012016E-1,-4.612965E-1,-4.5546126E-1,-1.549662E-1,5.9221476E-1,2.2983164E-1,7.145009E-1,1.1783988E0,-8.38766E-2,-6.862861E-2,-6.218279E-2,-3.3747505E-2,-5.609938E-2,4.6047814E-2,-2.779735E-2,-1.2948148E-2,2.5178254E-2,7.141949E-2,1.1363334E-2,3.6699306E-2,1.05677955E-1,6.432823E-2,1.099986E-1,1.7931347E-1],"categories":[],"categories_nodes":[],"categories_segments":[],"categories_sizes":[],"default_left":[0,0,0,0,0,0,0,0,0,0,0,0,0,0,0,0,0,0,0,0,0,0,0,0,0,0,0,0,0,0,0],"id":0,"left_children":[1,3,5,7,9,11,13,15,17,19,21,23,25,27,29,-1,-1,-1,-1,-1,-1,-1,-1,-1,-1,-1,-1,-1,-1,-1,-1],"loss_changes":[1.2801123E4,7.697329E2,1.5333174E3,3.3100098E2,1.1768158E2,6.063872E2,3.5041797E2,2.8113281E1,3.6402002E2,1.4757031E2,2.8236832E1,2.714414E2,2.5039093E2,1.3965625E2,1.0778613E2,0E0,0E0,0E0,0E0,0E0,0E0,0E0,0E0,0E0,0E0,0E0,0E0,0E0,0E0,0E0,0E0],"parents":[2147483647,0,0,1,1,2,2,3,3,4,4,5,5,6,6,7,7,8,8,9,9,10,10,11,11,12,12,13,13,14,14],"right_children":[2,4,6,8,10,12,14,16,18,20,22,24,26,28,30,-1,-1,-1,-1,-1,-1,-1,-1,-1,-1,-1,-1,-1,-1,-1,-1],"split_conditions":[4.183155E0,-2.1543863E1,7.674641E1,1.2E1,4E0,1.2E1,1.3626479E2,5E0,-7.362203E1,4.5549187E-1,-1.7080265E1,1.5815875E1,3.856927E1,2.1E1,2.2913414E2,-8.38766E-2,-6.862861E-2,-6.218279E-2,-3.3747505E-2,-5.609938E-2,4.6047814E-2,-2.779735E-2,-1.2948148E-2,2.5178254E-2,7.141949E-2,1.1363334E-2,3.6699306E-2,1.05677955E-1,6.432823E-2,1.099986E-1,1.7931347E-1],"split_indices":[2,2,2,13,13,13,2,13,2,2,2,2,2,13,2,0,0,0,0,0,0,0,0,0,0,0,0,0,0,0,0],"split_type":[0,0,0,0,0,0,0,0,0,0,0,0,0,0,0,0,0,0,0,0,0,0,0,0,0,0,0,0,0,0,0],"sum_hessian":[6.4217E4,3.3933E4,3.0284E4,2.3392E4,1.0541E4,2.2252E4,8.032E3,5.069E3,1.8323E4,1.523E3,9.018E3,6.54E3,1.5712E4,5.756E3,2.276E3,2.117E3,2.952E3,7.977E3,1.0346E4,1.366E3,1.57E2,1.546E3,7.472E3,1.726E3,4.814E3,8.507E3,7.205E3,9.89E2,4.767E3,2.021E3,2.55E2],"tree_param":{"num_deleted":"0","num_feature":"17","num_nodes":"31","size_leaf_vector":"1"}},{"base_weights":[7.6853426E-4,-3.8063297E-1,4.2411917E-1,-5.1252717E-1,-2.3948607E-1,3.0797914E-1,7.506965E-1,-6.0689914E-1,-4.122542E-1,-5.6772447E-1,-1.7599262E-1,6.4772606E-1,1.7163017E-1,6.814674E-1,1.2315292E0,-7.412147E-2,-5.4623988E-2,-6.7577116E-2,-3.4833673E-2,-6.612888E-2,2.6606058E-4,5.3608246E-2,-1.8459113E-2,3.0047253E-2,7.616045E-2,7.1921176E-3,3.0588925E-2,1.01337984E-1,5.5504292E-2,1.5666144E-1,1.06882095E-1],"categories":[],"categories_nodes":[],"categories_segments":[],"categories_sizes":[],"default_left":[0,0,0,0,0,0,0,0,0,0,0,0,0,0,0,0,0,0,0,0,0,0,0,0,0,0,0,0,0,0,0],"id":1,"left_children":[1,3,5,7,9,11,13,15,17,19,21,23,25,27,29,-1,-1,-1,-1,-1,-1,-1,-1,-1,-1,-1,-1,-1,-1,-1,-1],"loss_changes":[1.0404744E4,6.3095654E2,1.1581113E3,1.6556934E2,3.412129E2,1.0435718E3,2.6582715E2,7.312622E1,1.4291614E2,1.4163953E2,8.412799E1,2.5491357E2,2.1522495E2,2.9338037E2,5.3228394E1,0E0,0E0,0E0,0E0,0E0,0E0,0E0,0E0,0E0,0E0,0E0,0E0,0E0,0E0,0E0,0E0],"parents":[2147483647,0,0,1,1,2,2,3,3,4,4,5,5,6,6,7,7,8,8,9,9,10,10,11,11,12,12,13,13,14,14],"right_children":[2,4,6,8,10,12,14,16,18,20,22,24,26,28,30,-1,-1,-1,-1,-1,-1,-1,-1,-1,-1,-1,-1,-1,-1,-1,-1],"split_conditions":[4.183155E0,-3.6620087E1,7.674641E1,3.2E1,4E0,1.1E1,1.7274947E2,-8.673745E1,-1.3289363E2,-3.2653675E0,2E0,1.5815875E1,4.009906E1,2.3E1,3.5E1,-7.412147E-2,-5.4623988E-2,-6.7577116E-2,-3.4833673E-2,-6.612888E-2,2.6606058E-4,5.3608246E-2,-1.8459113E-2,3.0047253E-2,7.616045E-2,7.1921176E-3,3.0588925E-2,1.01337984E-1,5.5504292E-2,1.5666144E-1,1.06882095E-1],"split_indices":[2,2,2,13,13,14,2,2,2,2,14,2,2,14,14,0,0,0,0,0,0,0,0,0,0,0,0,0,0,0,0],"split_type":[0,0,0,0,0,0,0,0,0,0,0,0,0,0,0,0,0,0,0,0,0,0,0,0,0,0,0,0,0,0,0],"sum_hessian":[6.4437E4,3.3898E4,3.0539E4,1.7522E4,1.6376E4,2.2529E4,8.01E3,9.024E3,8.498E3,2.653E3,1.3723E4,6.451E3,1.6078E4,7.004E3,1.006E3,2.804E3,6.22E3,1.657E3,6.841E3,2.279E3,3.74E2,1.63E2,1.356E4,1.594E3,4.857E3,9.227E3,6.851E3,1.93E3,5.074E3,3.26E2,6.8E2],"tree_param":{"num_deleted":"0","num_feature":"17","num_nodes":"31","size_leaf_vector":"1"}},{"base_weights":[-9.3967014E-4,-2.9460984E-1,2.6290405E-1,-1.1430553E-2,-4.6450493E-1,5.2967167E-1,3.163757E-3,7.4510074E-1,-5.0822023E-2,-3.3079585E-1,-5.1469314E-1,8.011676E-1,4.2229617E-1,-1.03680566E-1,2.5228718E-1,1.5146418E-1,4.8623037E-2,1.9484E-2,-1.1222462E-2,-4.7735136E-2,-2.9310409E-2,-7.21041E-2,-4.721792E-2,7.040155E-2,1.1874037E-1,3.475238E-2,8.037398E-2,4.960539E-3,-2.317732E-2,3.8928732E-2,2.323246E-3],"categories":[],"categories_nodes":[],"categories_segments":[],"categories_sizes":[],"default_left":[0,0,0,0,0,0,0,0,0,0,0,0,0,0,0,0,0,0,0,0,0,0,0,0,0,0,0,0,0,0,0],"id":2,"left_children":[1,3,5,7,9,11,13,15,17,19,21,23,25,27,29,-1,-1,-1,-1,-1,-1,-1,-1,-1,-1,-1,-1,-1,-1,-1,-1],"loss_changes":[4.992308E3,1.4669883E3,2.3516418E3,3.4081094E2,1.277207E2,4.877539E2,4.57766E2,1.1201718E2,1.6398807E2,2.8606628E1,1.21204834E2,1.7717627E2,3.4197778E2,2.3633597E2,1.619773E2,0E0,0E0,0E0,0E0,0E0,0E0,0E0,0E0,0E0,0E0,0E0,0E0,0E0,0E0,0E0,0E0],"parents":[2147483647,0,0,1,1,2,2,3,3,4,4,5,5,6,6,7,7,8,8,9,9,10,10,11,11,12,12,13,13,14,14],"right_children":[2,4,6,8,10,12,14,16,18,20,22,24,26,28,30,-1,-1,-1,-1,-1,-1,-1,-1,-1,-1,-1,-1,-1,-1,-1,-1],"split_conditions":[1.6002101E3,1.5923169E3,1.6019879E3,4E0,1.6097164E3,1.1E1,1.6680438E3,2E0,1.5396991E3,1.5554781E3,8E0,1.635635E3,1.6877808E3,1.6302007E3,1.678548E3,1.5146418E-1,4.8623037E-2,1.9484E-2,-1.1222462E-2,-4.7735136E-2,-2.9310409E-2,-7.21041E-2,-4.721792E-2,7.040155E-2,1.1874037E-1,3.475238E-2,8.037398E-2,4.960539E-3,-2.317732E-2,3.8928732E-2,2.323246E-3],"split_indices":[0,1,1,14,1,14,0,14,1,0,14,0,0,1,1,0,0,0,0,0,0,0,0,0,0,0,0,0,0,0,0],"split_type":[0,0,0,0,0,0,0,0,0,0,0,0,0,0,0,0,0,0,0,0,0,0,0,0,0,0,0,0,0,0,0],"sum_hessian":[6.4429E4,3.0491E4,3.3938E4,1.1434E4,1.9057E4,1.6742E4,1.7196E4,5.65E2,1.0869E4,5.203E3,1.3854E4,4.743E3,1.1999E4,1.2035E4,5.161E3,1.41E2,4.24E2,2.173E3,8.696E3,1.062E3,4.141E3,2.364E3,1.149E4,3.792E3,9.51E2,1.0034E4,1.965E3,5.479E3,6.556E3,3.229E3,1.932E3],"tree_param":{"num_deleted":"0","num_feature":"17","num_nodes":"31","size_leaf_vector":"1"}},{"base_weights":[-4.3133805E-3,-3.3219638E-1,3.3088973E-1,-4.7926417E-1,-2.7063042E-1,2.5036883E-1,6.958378E-1,-5.5965054E-1,-4.1064382E-1,-4.5528063E-1,-2.0398505E-1,5.5909824E-1,1.586596E-1,6.2810564E-1,1.141575E0,-6.9386475E-2,-5.153901E-2,-6.2400777E-2,-3.6807355E-2,-5.5093665E-2,-2.4237448E-2,-2.9016891E-2,-1.4703298E-2,2.3673763E-2,6.9784746E-2,6.706485E-3,3.2937013E-2,9.163471E-2,5.0707538E-2,1.9793878E-1,1.0731148E-1],"categories":[],"categories_nodes":[],"categories_segments":[],"categories_sizes":[],"default_left":[0,0,0,0,0,0,0,0,0,0,0,0,0,0,0,0,0,0,0,0,0,0,0,0,0,0,0,0,0,0,0],"id":3,"left_children":[1,3,5,7,9,11,13,15,17,19,21,23,25,27,29,-1,-1,-1,-1,-1,-1,-1,-1,-1,-1,-1,-1,-1,-1,-1,-1],"loss_changes":[7.068804E3,2.9425513E2,9.343872E2,5.2686523E1,2.8197485E2,7.376438E2,1.7281934E2,2.586914E1,4.6811035E1,1.23649536E2,8.2633606E1,2.6672253E2,3.1410883E2,1.7368604E2,4.1294983E1,0E0,0E0,0E0,0E0,0E0,0E0,0E0,0E0,0E0,0E0,0E0,0E0,0E0,0E0,0E0,0E0],"parents":[2147483647,0,0,1,1,2,2,3,3,4,4,5,5,6,6,7,7,8,8,9,9,10,10,11,11,12,12,13,13,14,14],"right_children":[2,4,6,8,10,12,14,16,18,20,22,24,26,28,30,-1,-1,-1,-1,-1,-1,-1,-1,-1,-1,-1,-1,-1,-1,-1,-1],"split_conditions":[4.5549187E-1,-6.9159744E1,9.283873E1,3.3E1,9E0,9E0,1.8601346E2,-1.24534615E2,-1.6332005E2,-1.255022E1,-3.6620087E1,1.6024128E1,4.987979E1,2.6E1,1.9E1,-6.9386475E-2,-5.153901E-2,-6.2400777E-2,-3.6807355E-2,-5.5093665E-2,-2.4237448E-2,-2.9016891E-2,-1.4703298E-2,2.3673763E-2,6.9784746E-2,6.706485E-3,3.2937013E-2,9.163471E-2,5.0707538E-2,1.9793878E-1,1.0731148E-1],"split_indices":[2,2,2,13,13,14,2,2,2,2,2,2,2,14,14,0,0,0,0,0,0,0,0,0,0,0,0,0,0,0,0],"split_type":[0,0,0,0,0,0,0,0,0,0,0,0,0,0,0,0,0,0,0,0,0,0,0,0,0,0,0,0,0,0,0],"sum_hessian":[6.4314E4,3.2512E4,3.1802E4,9.592E3,2.292E4,2.6055E4,5.747E3,4.414E3,5.178E3,6.077E3,1.6843E4,5.966E3,2.0089E4,4.991E3,7.56E2,1.091E3,3.323E3,8.59E2,4.319E3,4.192E3,1.885E3,6.7E3,1.0143E4,1.796E3,4.17E3,1.3075E4,7.014E3,1.474E3,3.517E3,5.5E1,7.01E2],"tree_param":{"num_deleted":"0","num_feature":"17","num_nodes":"31","size_leaf_vector":"1"}},{"base_weights":[1.4469515E-3,-2.396006E-1,2.164391E-1,-8.240432E-3,-3.788288E-1,4.433325E-1,2.83359E-3,6.152193E-1,-4.114417E-2,-4.8825952E-1,-3.2072082E-1,7.417105E-1,3.8207373E-1,-4.036134E-2,3.7587485E-1,3.4042176E-2,1.0908704E-1,4.9697566E-3,-1.8137317E-2,-3.557652E-2,-5.6273844E-2,-2.2594415E-2,-4.279726E-2,5.968147E-2,1.0191462E-1,2.9537568E-2,6.1847266E-2,5.531763E-3,-1.5197905E-2,2.828885E-2,7.298521E-2],"categories":[],"categories_nodes":[],"categories_segments":[],"categories_sizes":[],"default_left":[0,0,0,0,0,0,0,0,0,0,0,0,0,0,0,0,0,0,0,0,0,0,0,0,0,0,0,0,0,0,0],"id":4,"left_children":[1,3,5,7,9,11,13,15,17,19,21,23,25,27,29,-1,-1,-1,-1,-1,-1,-1,-1,-1,-1,-1,-1,-1,-1,-1,-1],"loss_changes":[3.337941E3,9.7810986E2,1.6500131E3,2.3407132E2,1.2038696E2,3.014724E2,2.8259747E2,7.439348E1,1.3807045E2,6.4662476E1,1.2579639E2,1.12391846E2,2.80583E2,1.6786829E2,5.9698883E1,0E0,0E0,0E0,0E0,0E0,0E0,0E0,0E0,0E0,0E0,0E0,0E0,0E0,0E0,0E0,0E0],"parents":[2147483647,0,0,1,1,2,2,3,3,4,4,5,5,6,6,7,7,8,8,9,9,10,10,11,11,12,12,13,13,14,14],"right_children":[2,4,6,8,10,12,14,16,18,20,22,24,26,28,30,-1,-1,-1,-1,-1,-1,-1,-1,-1,-1,-1,-1,-1,-1,-1,-1],"split_conditions":[1.6002101E3,1.5923169E3,1.6013319E3,4E0,1.3E1,6E0,1.7166825E3,5E0,1.5729053E3,1.6097164E3,1.6366914E3,1.6189698E3,1.6624022E3,1.6404216E3,1.7936824E3,3.4042176E-2,1.0908704E-1,4.9697566E-3,-1.8137317E-2,-3.557652E-2,-5.6273844E-2,-2.2594415E-2,-4.279726E-2,5.968147E-2,1.0191462E-1,2.9537568E-2,6.1847266E-2,5.531763E-3,-1.5197905E-2,2.828885E-2,7.298521E-2],"split_indices":[0,1,1,14,13,14,0,13,1,1,1,0,0,1,0,0,0,0,0,0,0,0,0,0,0,0,0,0,0,0,0],"split_type":[0,0,0,0,0,0,0,0,0,0,0,0,0,0,0,0,0,0,0,0,0,0,0,0,0,0,0,0,0,0,0],"sum_hessian":[6.4408E4,3.0364E4,3.4044E4,1.1408E4,1.8956E4,1.6508E4,1.7536E4,5.71E2,1.0837E4,6.572E3,1.2384E4,2.81E3,1.3698E4,1.5717E4,1.819E3,3.63E2,2.08E2,6.577E3,4.26E3,2.367E3,4.205E3,6.576E3,5.808E3,1.848E3,9.62E2,1.0024E4,3.674E3,8.463E3,7.254E3,1.442E3,3.77E2],"tree_param":{"num_deleted":"0","num_feature":"17","num_nodes":"31","size_leaf_vector":"1"}},{"base_weights":[8.1989996E-4,-2.3826502E-1,3.1599215E-1,-3.1836593E-1,-8.2147755E-2,2.621311E-1,6.551275E-1,-4.3152905E-1,-2.5725156E-1,-1.4943446E-1,-6.1960507E-4,4.5577654E-1,1.4929992E-1,8.55539E-1,4.957741E-1,-4.5688387E-2,-1.7218588E-2,-4.049937E-2,-1.9516164E-2,-3.7343923E-2,-9.470687E-3,2.1258807E-2,-5.643675E-3,3.8373515E-2,6.674178E-2,8.011599E-3,2.848799E-2,1.3194321E-1,7.604925E-2,4.116452E-2,8.996174E-2],"categories":[],"categories_nodes":[],"categories_segments":[],"categories_sizes":[],"default_left":[0,0,0,0,0,0,0,0,0,0,0,0,0,0,0,0,0,0,0,0,0,0,0,0,0,0,0,0,0,0,0],"id":5,"left_children":[1,3,5,7,9,11,13,15,17,19,21,23,25,27,29,-1,-1,-1,-1,-1,-1,-1,-1,-1,-1,-1,-1,-1,-1,-1,-1],"loss_changes":[4.850694E3,4.5772437E2,5.0704346E2,1.6719824E2,6.810013E1,5.235272E2,1.2109326E2,5.5695435E1,1.4404272E2,8.333974E1,6.682221E1,1.3425232E2,1.4201782E2,7.324646E1,7.172443E1,0E0,0E0,0E0,0E0,0E0,0E0,0E0,0E0,0E0,0E0,0E0,0E0,0E0,0E0,0E0,0E0],"parents":[2147483647,0,0,1,1,2,2,3,3,4,4,5,5,6,6,7,7,8,8,9,9,10,10,11,11,12,12,13,13,14,14],"right_children":[2,4,6,8,10,12,14,16,18,20,22,24,26,28,30,-1,-1,-1,-1,-1,-1,-1,-1,-1,-1,-1,-1,-1,-1,-1,-1],"split_conditions":[1.0109031E1,-1.9666775E1,1.129124E2,1.9E1,-3.2653675E0,1.7E1,3.6E1,1.6078461E3,-9.663129E1,5E0,6E0,5.1826717E1,6.419298E1,1.5124044E3,2.0179851E2,-4.5688387E-2,-1.7218588E-2,-4.049937E-2,-1.9516164E-2,-3.7343923E-2,-9.470687E-3,2.1258807E-2,-5.643675E-3,3.8373515E-2,6.674178E-2,8.011599E-3,2.848799E-2,1.3194321E-1,7.604925E-2,4.116452E-2,8.996174E-2],"split_indices":[2,2,2,13,2,14,14,0,2,13,14,2,2,1,2,0,0,0,0,0,0,0,0,0,0,0,0,0,0,0,0],"split_type":[0,0,0,0,0,0,0,0,0,0,0,0,0,0,0,0,0,0,0,0,0,0,0,0,0,0,0,0,0,0,0],"sum_hessian":[6.4371E4,3.6604E4,2.7767E4,2.4191E4,1.2413E4,2.3963E4,3.804E3,8.481E3,1.571E4,6.8E3,5.613E3,8.821E3,1.5142E4,1.683E3,2.121E3,7.725E3,7.56E2,4.647E3,1.1063E4,1.334E3,5.466E3,1.164E3,4.449E3,6.583E3,2.238E3,1.0027E4,5.115E3,2.84E2,1.399E3,1.757E3,3.64E2],"tree_param":{"num_deleted":"0","num_feature":"17","num_nodes":"31","size_leaf_vector":"1"}},{"base_weights":[-9.601575E-4,-2.0238805E-1,3.0249816E-1,-2.9095638E-1,-5.611446E-2,2.4722606E-1,5.773709E-1,-4.360114E-1,-2.4947104E-1,-1.2096758E-1,1.7862242E-4,4.9033493E-1,1.693281E-1,9.669032E-1,5.0127786E-1,-4.5604125E-2,-1.5048548E-2,-3.317259E-2,-1.5317588E-2,-3.415732E-2,-7.878196E-3,8.3745115E-2,-1.825676E-3,3.929892E-2,6.3964106E-2,8.964358E-3,2.7131254E-2,8.341E-2,1.19118586E-1,4.331804E-2,9.673268E-2],"categories":[],"categories_nodes":[],"categories_segments":[],"categories_sizes":[],"default_left":[0,0,0,0,0,0,0,0,0,0,0,0,0,0,0,0,0,0,0,0,0,0,0,0,0,0,0,0,0,0,0],"id":6,"left_children":[1,3,5,7,9,11,13,15,17,19,21,23,25,27,29,-1,-1,-1,-1,-1,-1,-1,-1,-1,-1,-1,-1,-1,-1,-1,-1],"loss_changes":[3.9266677E3,5.0019714E2,3.892334E2,1.4460999E2,5.3166355E1,4.0404712E2,1.2667383E2,3.0511047E1,1.4809094E2,6.294941E1,1.2036541E2,7.5007324E1,1.3132559E2,1.9856201E1,1.1354779E2,0E0,0E0,0E0,0E0,0E0,0E0,0E0,0E0,0E0,0E0,0E0,0E0,0E0,0E0,0E0,0E0],"parents":[2147483647,0,0,1,1,2,2,3,3,4,4,5,5,6,6,7,7,8,8,9,9,10,10,11,11,12,12,13,13,14,14],"right_children":[2,4,6,8,10,12,14,16,18,20,22,24,26,28,30,-1,-1,-1,-1,-1,-1,-1,-1,-1,-1,-1,-1,-1,-1,-1,-1],"split_conditions":[1.5815875E1,-1.9666775E1,1.0756436E2,1.2E1,-3.2653675E0,1.1E1,2.1E1,1.6080121E3,-6.072444E1,4E0,2E0,3.7693787E1,5.495423E1,1.4143321E2,2.0179851E2,-4.5604125E-2,-1.5048548E-2,-3.317259E-2,-1.5317588E-2,-3.415732E-2,-7.878196E-3,8.3745115E-2,-1.825676E-3,3.929892E-2,6.3964106E-2,8.964358E-3,2.7131254E-2,8.341E-2,1.19118586E-1,4.331804E-2,9.673268E-2],"split_indices":[2,2,2,13,2,14,14,0,2,13,14,2,2,2,2,0,0,0,0,0,0,0,0,0,0,0,0,0,0,0,0],"split_type":[0,0,0,0,0,0,0,0,0,0,0,0,0,0,0,0,0,0,0,0,0,0,0,0,0,0,0,0,0,0,0],"sum_hessian":[6.4238E4,3.861E4,2.5628E4,2.4048E4,1.4562E4,2.1339E4,4.289E3,5.346E3,1.8702E4,6.766E3,7.796E3,5.177E3,1.6162E4,6.99E2,3.59E3,4.995E3,3.51E2,1.0085E4,8.617E3,1.085E3,5.681E3,1.67E2,7.629E3,3.136E3,2.041E3,9.074E3,7.088E3,4.42E2,2.57E2,3.134E3,4.56E2],"tree_param":{"num_deleted":"0","num_feature":"17","num_nodes":"31","size_leaf_vector":"1"}},{"base_weights":[-3.257872E-3,-1.9892767E-1,2.51446E-1,-2.6743075E-1,-7.709266E-2,2.0006435E-1,4.9984363E-1,-3.5690093E-1,-2.2249675E-1,-2.4816465E-1,-5.779567E-2,4.837605E-1,1.3531972E-1,4.5439303E-1,8.848691E-1,-5.0400686E-2,-3.2851513E-2,-3.6664136E-2,-1.6599819E-2,-3.9628517E-2,2.7412409E-2,2.626783E-2,-6.665462E-3,3.990193E-2,6.3819036E-2,6.276107E-3,2.561224E-2,5.908836E-2,3.1223455E-2,1.7105794E-1,7.9239026E-2],"categories":[],"categories_nodes":[],"categories_segments":[],"categories_sizes":[],"default_left":[0,0,0,0,0,0,0,0,0,0,0,0,0,0,0,0,0,0,0,0,0,0,0,0,0,0,0,0,0,0,0],"id":7,"left_children":[1,3,5,7,9,11,13,15,17,19,21,23,25,27,29,-1,-1,-1,-1,-1,-1,-1,-1,-1,-1,-1,-1,-1,-1,-1,-1],"loss_changes":[3.2082622E3,3.0382666E2,3.568578E2,9.360437E1,4.3244263E1,4.256267E2,8.3473755E1,3.235913E1,1.26292786E2,1.0284495E2,3.345316E1,5.6096252E1,1.6539352E2,8.3036194E1,3.7206757E1,0E0,0E0,0E0,0E0,0E0,0E0,0E0,0E0,0E0,0E0,0E0,0E0,0E0,0E0,0E0,0E0],"parents":[2147483647,0,0,1,1,2,2,3,3,4,4,5,5,6,6,7,7,8,8,9,9,10,10,11,11,12,12,13,13,14,14],"right_children":[2,4,6,8,10,12,14,16,18,20,22,24,26,28,30,-1,-1,-1,-1,-1,-1,-1,-1,-1,-1,-1,-1,-1,-1,-1,-1],"split_conditions":[1.0109031E1,-2.1543863E1,1.02223885E2,-7.9758896E1,3E0,8E0,2.0179851E2,-1.6332005E2,1.2E1,1.59998E3,3E0,3.3920227E1,5.495423E1,3.8E1,2.1E1,-5.0400686E-2,-3.2851513E-2,-3.6664136E-2,-1.6599819E-2,-3.9628517E-2,2.7412409E-2,2.626783E-2,-6.665462E-3,3.990193E-2,6.3819036E-2,6.276107E-3,2.561224E-2,5.908836E-2,3.1223455E-2,1.7105794E-1,7.9239026E-2],"split_indices":[2,2,2,2,13,14,2,2,13,0,14,2,2,14,14,0,0,0,0,0,0,0,0,0,0,0,0,0,0,0,0],"split_type":[0,0,0,0,0,0,0,0,0,0,0,0,0,0,0,0,0,0,0,0,0,0,0,0,0,0,0,0,0,0,0],"sum_hessian":[6.4372E4,3.6405E4,2.7967E4,2.3302E4,1.3103E4,2.3175E4,4.792E3,7.788E3,1.5514E4,1.327E3,1.1776E4,4.305E3,1.887E4,4.288E3,5.04E2,1.257E3,6.531E3,4.367E3,1.1147E4,1.034E3,2.93E2,3.16E2,1.146E4,2.782E3,1.523E3,1.179E4,7.08E3,2.186E3,2.102E3,4.9E1,4.55E2],"tree_param":{"num_deleted":"0","num_feature":"17","num_nodes":"31","size_leaf_vector":"1"}},{"base_weights":[2.0169714E-3,-1.6588177E-1,2.5136483E-1,-2.3231769E-1,-4.0577345E-2,2.0719044E-1,5.099891E-1,-3.069522E-1,-1.6568832E-1,-8.606576E-2,1.4966626E-2,3.649635E-1,1.1961405E-1,6.7172736E-1,3.483231E-1,-3.751684E-2,-2.561735E-2,-2.789697E-2,-9.905551E-3,-2.203972E-2,-4.483918E-3,4.6138328E-2,-1.9794728E-3,3.1506497E-2,5.7880867E-2,6.562353E-3,2.0838294E-2,9.331363E-2,5.8885336E-2,2.8110204E-2,6.741931E-2],"categories":[],"categories_nodes":[],"categories_segments":[],"categories_sizes":[],"default_left":[0,0,0,0,0,0,0,0,0,0,0,0,0,0,0,0,0,0,0,0,0,0,0,0,0,0,0,0,0,0,0],"id":8,"left_children":[1,3,5,7,9,11,13,15,17,19,21,23,25,27,29,-1,-1,-1,-1,-1,-1,-1,-1,-1,-1,-1,-1,-1,-1,-1,-1],"loss_changes":[2.6969136E3,3.204673E2,2.960421E2,1.2505603E2,3.370623E1,3.0589667E2,9.8629944E1,4.1003418E1,1.0031888E2,4.0606007E1,9.3226036E1,8.4147095E1,6.8234055E1,4.037384E1,4.1277283E1,0E0,0E0,0E0,0E0,0E0,0E0,0E0,0E0,0E0,0E0,0E0,0E0,0E0,0E0,0E0,0E0],"parents":[2147483647,0,0,1,1,2,2,3,3,4,4,5,5,6,6,7,7,8,8,9,9,10,10,11,11,12,12,13,13,14,14],"right_children":[2,4,6,8,10,12,14,16,18,20,22,24,26,28,30,-1,-1,-1,-1,-1,-1,-1,-1,-1,-1,-1,-1,-1,-1,-1,-1],"split_conditions":[1.5184357E1,-1.7080265E1,1.129124E2,2.6E1,4.5549187E-1,1.7E1,3.9E1,-5.095517E1,-8.4958015E1,6E0,3E0,6.287445E1,6.287445E1,1.8E1,2.0179851E2,-3.751684E-2,-2.561735E-2,-2.789697E-2,-9.905551E-3,-2.203972E-2,-4.483918E-3,4.6138328E-2,-1.9794728E-3,3.1506497E-2,5.7880867E-2,6.562353E-3,2.0838294E-2,9.331363E-2,5.8885336E-2,2.8110204E-2,6.741931E-2],"split_indices":[2,2,2,13,2,14,14,2,2,13,14,2,2,14,2,0,0,0,0,0,0,0,0,0,0,0,0,0,0,0,0],"split_type":[0,0,0,0,0,0,0,0,0,0,0,0,0,0,0,0,0,0,0,0,0,0,0,0,0,0,0,0,0,0,0],"sum_hessian":[6.4417E4,3.8496E4,2.5921E4,2.5157E4,1.3339E4,2.2141E4,3.78E3,1.1864E4,1.3293E4,7.333E3,6.006E3,7.902E3,1.4239E4,1.888E3,1.892E3,5.06E3,6.804E3,4.922E3,8.371E3,1.721E3,5.612E3,4.33E2,5.573E3,6.409E3,1.493E3,8.855E3,5.384E3,4.52E2,1.436E3,1.57E3,3.22E2],"tree_param":{"num_deleted":"0","num_feature":"17","num_nodes":"31","size_leaf_vector":"1"}},{"base_weights":[-2.1152094E-3,-1.4995259E-1,2.2104497E-1,-2.0734441E-1,-4.2871438E-2,1.8509662E-1,5.2063423E-1,-2.7627352E-1,-1.4624684E-1,-8.218221E-2,2.5628416E-3,3.9888874E-1,1.5782107E-1,4.850457E-1,8.613187E-1,-3.885575E-2,-2.4730727E-2,-3.4836333E-2,-1.1499994E-2,-2.2448152E-2,-5.481695E-3,3.2917585E-2,-1.1770336E-3,-4.451776E-2,4.8628386E-2,9.669739E-3,2.488926E-2,6.0600877E-2,3.7021477E-2,2.2178474E-1,7.922072E-2],"categories":[],"categories_nodes":[],"categories_segments":[],"categories_sizes":[],"default_left":[0,0,0,0,0,0,0,0,0,0,0,0,0,0,0,0,0,0,0,0,0,0,0,0,0,0,0,0,0,0,0],"id":9,"left_children":[1,3,5,7,9,11,13,15,17,19,21,23,25,27,29,-1,-1,-1,-1,-1,-1,-1,-1,-1,-1,-1,-1,-1,-1,-1,-1],"loss_changes":[2.1270884E3,2.3832916E2,2.7659973E2,1.0629321E2,2.4172699E1,1.3371283E2,3.294873E1,3.848761E1,8.450574E1,2.8242985E1,2.93984E1,1.9164255E2,1.1324014E2,3.441809E1,2.252472E1,0E0,0E0,0E0,0E0,0E0,0E0,0E0,0E0,0E0,0E0,0E0,0E0,0E0,0E0,0E0,0E0],"parents":[2147483647,0,0,1,1,2,2,3,3,4,4,5,5,6,6,7,7,8,8,9,9,10,10,11,11,12,12,13,13,14,14],"right_children":[2,4,6,8,10,12,14,16,18,20,22,24,26,28,30,-1,-1,-1,-1,-1,-1,-1,-1,-1,-1,-1,-1,-1,-1,-1,-1],"split_conditions":[1.5815875E1,-1.7080265E1,1.2715633E2,2.6E1,4.5549187E-1,6E0,2.2913414E2,5E0,-1.3753297E2,4E0,9.684657E-1,1.5973949E3,6.0536884E1,4.9E1,3.2E1,-3.885575E-2,-2.4730727E-2,-3.4836333E-2,-1.1499994E-2,-2.2448152E-2,-5.481695E-3,3.2917585E-2,-1.1770336E-3,-4.451776E-2,4.8628386E-2,9.669739E-3,2.488926E-2,6.0600877E-2,3.7021477E-2,2.2178474E-1,7.922072E-2],"split_indices":[2,2,2,13,2,13,2,13,2,13,2,0,2,13,13,0,0,0,0,0,0,0,0,0,0,0,0,0,0,0,0],"split_type":[0,0,0,0,0,0,0,0,0,0,0,0,0,0,0,0,0,0,0,0,0,0,0,0,0,0,0,0,0,0,0],"sum_hessian":[6.4472E4,3.8781E4,2.5691E4,2.5248E4,1.3533E4,2.294E4,2.751E3,1.1862E4,1.3386E4,7.255E3,6.278E3,2.594E3,2.0346E4,2.493E3,2.58E2,2.43E3,9.432E3,1.791E3,1.1595E4,1.169E3,6.086E3,2.63E2,6.015E3,2.43E2,2.351E3,1.2176E4,8.17E3,1.212E3,1.281E3,1.1E1,2.47E2],"tree_param":{"num_deleted":"0","num_feature":"17","num_nodes":"31","size_leaf_vector":"1"}},{"base_weights":[-6.959249E-4,-1.3421693E-1,2.0053655E-1,-2.2151937E-1,-7.7257134E-2,4.3485513E-1,1.6418357E-1,-2.9349828E-1,-1.7020224E-1,-1.0959397E-1,2.1126242E-3,4.055084E-1,1.0543902E0,7.196916E-2,2.725678E-1,-4.6809565E-2,-2.7671447E-2,-3.7276458E-2,-1.4106822E-2,-2.1627259E-2,-7.992568E-3,2.6165644E-2,-3.2876532E-3,4.9627528E-2,2.8787429E-2,3.8022146E-1,9.936198E-2,2.4176904E-3,1.3518433E-2,4.3491255E-2,1.9680662E-2],"categories":[],"categories_nodes":[],"categories_segments":[],"categories_sizes":[],"default_left":[0,0,0,0,0,0,0,0,0,0,0,0,0,0,0,0,0,0,0,0,0,0,0,0,0,0,0,0,0,0,0],"id":10,"left_children":[1,3,5,7,9,11,13,15,17,19,21,23,25,27,29,-1,-1,-1,-1,-1,-1,-1,-1,-1,-1,-1,-1,-1,-1,-1,-1],"loss_changes":[1.726184E3,1.9202972E2,2.1820691E2,5.6272278E1,5.9988586E1,6.21344E1,2.2171033E2,1.8463928E1,5.2493958E1,5.254338E1,6.146121E1,3.495337E1,2.210492E1,3.6214832E1,1.2534393E2,0E0,0E0,0E0,0E0,0E0,0E0,0E0,0E0,0E0,0E0,0E0,0E0,0E0,0E0,0E0,0E0],"parents":[2147483647,0,0,1,1,2,2,3,3,4,4,5,5,6,6,7,7,8,8,9,9,10,10,11,11,12,12,13,13,14,14],"right_children":[2,4,6,8,10,12,14,16,18,20,22,24,26,28,30,-1,-1,-1,-1,-1,-1,-1,-1,-1,-1,-1,-1,-1,-1,-1,-1],"split_conditions":[1.5815875E1,-4.4170994E1,7E0,3.2E1,-6.766321E-1,8.887088E1,6.287445E1,-1.24534615E2,-1.6332005E2,6E0,4E0,4E0,1.550043E3,4.009906E1,2.6E1,-4.6809565E-2,-2.7671447E-2,-3.7276458E-2,-1.4106822E-2,-2.1627259E-2,-7.992568E-3,2.6165644E-2,-3.2876532E-3,4.9627528E-2,2.8787429E-2,3.8022146E-1,9.936198E-2,2.4176904E-3,1.3518433E-2,4.3491255E-2,1.9680662E-2],"split_indices":[2,2,14,14,2,2,2,2,2,14,14,14,1,2,14,0,0,0,0,0,0,0,0,0,0,0,0,0,0,0,0],"split_type":[0,0,0,0,0,0,0,0,0,0,0,0,0,0,0,0,0,0,0,0,0,0,0,0,0,0,0,0,0,0,0],"sum_hessian":[6.4243E4,3.8619E4,2.5624E4,1.5247E4,2.3372E4,3.44E3,2.2184E4,6.344E3,8.903E3,1.6606E4,6.766E3,3.286E3,1.54E2,1.1987E4,1.0197E4,5.54E2,5.79E3,1.118E3,7.785E3,3.612E3,1.2994E4,8.03E2,5.963E3,1.853E3,1.433E3,2E0,1.52E2,6.827E3,5.16E3,3.243E3,6.954E3],"tree_param":{"num_deleted":"0","num_feature":"17","num_nodes":"31","size_leaf_vector":"1"}},{"base_weights":[5.5868905E-3,-1.350703E-1,1.6522832E-1,-1.9427879E-1,-8.6616024E-2,1.2769179E-1,3.6571854E-1,-2.5229475E-1,-1.3332911E-1,-2.1958514E-1,-5.5492874E-2,2.8329742E-1,1.0349075E-1,3.4174055E-1,7.78783E-1,-4.0869545E-2,-2.370366E-2,-2.5509372E-2,-1.0441615E-2,-2.897956E-2,1.3882875E-2,-7.827405E-3,3.9784317E-3,-6.482365E-2,3.2853886E-2,2.0935452E-3,1.5475846E-2,4.1873414E-2,2.3574423E-2,2.0817058E-1,7.014672E-2],"categories":[],"categories_nodes":[],"categories_segments":[],"categories_sizes":[],"default_left":[0,0,0,0,0,0,0,0,0,0,0,0,0,0,0,0,0,0,0,0,0,0,0,0,0,0,0,0,0,0,0],"id":11,"left_children":[1,3,5,7,9,11,13,15,17,19,21,23,25,27,29,-1,-1,-1,-1,-1,-1,-1,-1,-1,-1,-1,-1,-1,-1,-1,-1],"loss_changes":[1.4395939E3,9.776117E1,2.2594275E2,5.420233E1,7.756247E1,9.522705E1,4.663147E1,1.8652954E1,2.6314316E1,8.9499695E1,3.2975582E1,1.4367102E2,9.265289E1,3.6438232E1,2.4630539E1,0E0,0E0,0E0,0E0,0E0,0E0,0E0,0E0,0E0,0E0,0E0,0E0,0E0,0E0,0E0,0E0],"parents":[2147483647,0,0,1,1,2,2,3,3,4,4,5,5,6,6,7,7,8,8,9,9,10,10,11,11,12,12,13,13,14,14],"right_children":[2,4,6,8,10,12,14,16,18,20,22,24,26,28,30,-1,-1,-1,-1,-1,-1,-1,-1,-1,-1,-1,-1,-1,-1,-1,-1],"split_conditions":[4.8022766E0,-4.4170994E1,1.02223885E2,3.3E1,5E0,6E0,2.2913414E2,1.5215366E3,-1.3753297E2,1.6002101E3,4.7E1,1.587546E3,3.1502405E1,5E1,3.5E1,-4.0869545E-2,-2.370366E-2,-2.5509372E-2,-1.0441615E-2,-2.897956E-2,1.3882875E-2,-7.827405E-3,3.9784317E-3,-6.482365E-2,3.2853886E-2,2.0935452E-3,1.5475846E-2,4.1873414E-2,2.3574423E-2,2.0817058E-1,7.014672E-2],"split_indices":[2,2,2,13,13,13,2,0,2,0,13,0,2,13,13,0,0,0,0,0,0,0,0,0,0,0,0,0,0,0,0],"split_type":[0,0,0,0,0,0,0,0,0,0,0,0,0,0,0,0,0,0,0,0,0,0,0,0,0,0,0,0,0,0,0],"sum_hessian":[6.4109E4,3.4081E4,3.0028E4,1.5337E4,1.8744E4,2.5294E4,4.734E3,7.856E3,7.481E3,3.554E3,1.519E4,3.403E3,2.1891E4,4.476E3,2.58E2,6.96E2,7.16E3,1.434E3,6.047E3,2.972E3,5.82E2,1.2259E4,2.931E3,1.57E2,3.246E3,8.387E3,1.3504E4,2.591E3,1.885E3,1.3E1,2.45E2],"tree_param":{"num_deleted":"0","num_feature":"17","num_nodes":"31","size_leaf_vector":"1"}},{"base_weights":[2.0324076E-3,-1.0509514E-1,1.6425608E-1,-1.4763364E-1,-2.622073E-2,2.875979E-1,9.664247E-2,-2.0994787E-1,-1.05537646E-1,1.3180237E-1,-3.3678032E-2,2.2852392E-1,4.6807724E-1,5.4491676E-2,3.3606556E-1,-2.4160063E-2,-1.3821627E-2,-1.5943943E-2,-3.1520945E-3,1.18191384E-1,-1.7929152E-2,-7.4683847E-3,8.00974E-5,3.8879797E-2,1.50949275E-2,1.3402605E-1,4.4379067E-2,-4.0272415E-2,6.1925636E-3,6.0140766E-2,2.8807541E-2],"categories":[],"categories_nodes":[],"categories_segments":[],"categories_sizes":[],"default_left":[0,0,0,0,0,0,0,0,0,0,0,0,0,0,0,0,0,0,0,0,0,0,0,0,0,0,0,0,0,0,0],"id":12,"left_children":[1,3,5,7,9,11,13,15,17,19,21,23,25,27,29,-1,-1,-1,-1,-1,-1,-1,-1,-1,-1,-1,-1,-1,-1,-1,-1],"loss_changes":[1.1179843E3,1.2999329E2,2.1334882E2,6.6003296E1,1.600275E1,9.647681E1,1.6678017E2,2.3005432E1,5.993521E1,2.0014207E2,1.8330492E1,8.4822784E1,4.6705444E1,4.7796803E1,3.133017E1,0E0,0E0,0E0,0E0,0E0,0E0,0E0,0E0,0E0,0E0,0E0,0E0,0E0,0E0,0E0,0E0],"parents":[2147483647,0,0,1,1,2,2,3,3,4,4,5,5,6,6,7,7,8,8,9,9,10,10,11,11,12,12,13,13,14,14],"right_children":[2,4,6,8,10,12,14,16,18,20,22,24,26,28,30,-1,-1,-1,-1,-1,-1,-1,-1,-1,-1,-1,-1,-1,-1,-1,-1],"split_conditions":[1.5815875E1,-1.7080265E1,1.9E1,2.2E1,2E0,6.287445E1,1.2715633E2,1.5892047E3,-5.727784E1,1.5919879E3,1.5982498E3,5E0,1.5124044E3,5E0,1.4961266E3,-2.4160063E-2,-1.3821627E-2,-1.5943943E-2,-3.1520945E-3,1.18191384E-1,-1.7929152E-2,-7.4683847E-3,8.00974E-5,3.8879797E-2,1.50949275E-2,1.3402605E-1,4.4379067E-2,-4.0272415E-2,6.1925636E-3,6.0140766E-2,2.8807541E-2],"split_indices":[2,2,14,13,14,2,2,0,2,1,0,14,1,13,1,0,0,0,0,0,0,0,0,0,0,0,0,0,0,0,0],"split_type":[0,0,0,0,0,0,0,0,0,0,0,0,0,0,0,0,0,0,0,0,0,0,0,0,0,0,0,0,0,0,0],"sum_hessian":[6.4329E4,3.8744E4,2.5585E4,2.5169E4,1.3575E4,9.058E3,1.6527E4,1.0146E4,1.5023E4,6.11E2,1.2964E4,6.826E3,2.232E3,1.4054E4,2.473E3,7.038E3,3.108E3,8.692E3,6.331E3,1.39E2,4.72E2,5.921E3,7.043E3,2.225E3,4.601E3,5.9E1,2.173E3,2.24E2,1.383E4,3.77E2,2.096E3],"tree_param":{"num_deleted":"0","num_feature":"17","num_nodes":"31","size_leaf_vector":"1"}},{"base_weights":[3.0865085E-3,-1.08508326E-1,1.295905E-1,-1.4370549E-1,-5.2687135E-2,8.181361E-2,2.1925746E-1,-1.8362759E-1,-7.897924E-2,-1.3215989E-1,-7.916793E-3,2.140709E-1,5.4563593E-2,4.5604977E-1,1.98273E-1,-3.0490002E-2,-1.5706228E-2,-1.0315168E-2,2.1542897E-3,-4.0275212E-2,-1.20239295E-2,-2.1840527E-3,1.0011244E-2,-1.2643185E-2,2.8868316E-2,1.6080674E-3,9.594615E-3,-7.0786126E-2,4.90725E-2,3.41721E-2,1.5335222E-2],"categories":[],"categories_nodes":[],"categories_segments":[],"categories_sizes":[],"default_left":[0,0,0,0,0,0,0,0,0,0,0,0,0,0,0,0,0,0,0,0,0,0,0,0,0,0,0,0,0,0,0],"id":13,"left_children":[1,3,5,7,9,11,13,15,17,19,21,23,25,27,29,-1,-1,-1,-1,-1,-1,-1,-1,-1,-1,-1,-1,-1,-1,-1,-1],"loss_changes":[9.056318E2,6.695892E1,1.2878934E2,5.3998993E1,4.6900803E1,7.068826E1,5.184015E1,4.160147E1,1.9382828E1,1.527327E1,1.2686855E1,8.517091E1,2.5903996E1,3.465239E1,6.1820953E1,0E0,0E0,0E0,0E0,0E0,0E0,0E0,0E0,0E0,0E0,0E0,0E0,0E0,0E0,0E0,0E0],"parents":[2147483647,0,0,1,1,2,2,3,3,4,4,5,5,6,6,7,7,8,8,9,9,10,10,11,11,12,12,13,13,14,14],"right_children":[2,4,6,8,10,12,14,16,18,20,22,24,26,28,30,-1,-1,-1,-1,-1,-1,-1,-1,-1,-1,-1,-1,-1,-1,-1,-1],"split_conditions":[4.8022766E0,3.3E1,6.287445E1,1.5908633E3,-7.362203E1,6E0,1.5028187E3,5E0,-3.2653675E0,-2.2689818E2,6.9E1,1.5997013E3,3.1502405E1,1E1,2.5E1,-3.0490002E-2,-1.5706228E-2,-1.0315168E-2,2.1542897E-3,-4.0275212E-2,-1.20239295E-2,-2.1840527E-3,1.0011244E-2,-1.2643185E-2,2.8868316E-2,1.6080674E-3,9.594615E-3,-7.0786126E-2,4.90725E-2,3.41721E-2,1.5335222E-2],"split_indices":[2,13,2,0,2,13,1,13,2,2,13,0,2,13,13,0,0,0,0,0,0,0,0,0,0,0,0,0,0,0,0],"split_type":[0,0,0,0,0,0,0,0,0,0,0,0,0,0,0,0,0,0,0,0,0,0,0,0,0,0,0,0,0,0,0],"sum_hessian":[6.4149E4,3.4083E4,3.0066E4,2.0902E4,1.3181E4,1.9616E4,1.045E4,1.2927E4,7.975E3,4.749E3,8.432E3,3.35E3,1.6266E4,8.49E2,9.601E3,2.321E3,1.0606E4,6.429E3,1.546E3,1.99E2,4.55E3,7.47E3,9.62E2,6.02E2,2.748E3,8.429E3,7.837E3,2.4E1,8.25E2,2.288E3,7.313E3],"tree_param":{"num_deleted":"0","num_feature":"17","num_nodes":"31","size_leaf_vector":"1"}},{"base_weights":[3.6258204E-3,-1.0445242E-1,1.1379161E-1,-1.4305547E-1,-5.538494E-2,3.0544734E-1,9.052868E-2,-2.3980235E-1,-1.2742034E-1,-1.5527295E-1,-3.5791006E-2,2.1809852E-1,5.062998E-1,1.2846857E-2,1.7381519E-1,-3.5043903E-2,-1.8424377E-2,-1.7621852E-2,-7.999197E-3,6.942008E-2,-2.2222443E-2,-6.163291E-3,-8.8018144E-4,6.0775783E-2,1.727387E-2,5.469296E-2,-9.388063E-2,6.2640915E-3,-1.3039777E-3,2.9623477E-2,1.1648273E-2],"categories":[],"categories_nodes":[],"categories_segments":[],"categories_sizes":[],"default_left":[0,0,0,0,0,0,0,0,0,0,0,0,0,0,0,0,0,0,0,0,0,0,0,0,0,0,0,0,0,0,0],"id":14,"left_children":[1,3,5,7,9,11,13,15,17,19,21,23,25,27,29,-1,-1,-1,-1,-1,-1,-1,-1,-1,-1,-1,-1,-1,-1,-1,-1],"loss_changes":[7.679826E2,6.166388E1,1.4238489E2,2.7532928E1,2.8056763E1,6.0539978E1,1.8429788E2,1.5511475E1,3.6296814E1,1.3386389E2,8.360514E0,4.2509132E1,6.1987396E1,1.9000685E1,9.645038E1,0E0,0E0,0E0,0E0,0E0,0E0,0E0,0E0,0E0,0E0,0E0,0E0,0E0,0E0,0E0,0E0],"parents":[2147483647,0,0,1,1,2,2,3,3,4,4,5,5,6,6,7,7,8,8,9,9,10,10,11,11,12,12,13,13,14,14],"right_children":[2,4,6,8,10,12,14,16,18,20,22,24,26,28,30,-1,-1,-1,-1,-1,-1,-1,-1,-1,-1,-1,-1,-1,-1,-1,-1],"split_conditions":[4.5549187E-1,-3.508283E1,5E0,-1.3289363E2,4E0,2.8612309E1,4.783769E1,4.2E1,3.2E1,1.5916296E3,2.4E1,1.5969823E3,1.6126439E3,1.7E1,2.4E1,-3.5043903E-2,-1.8424377E-2,-1.7621852E-2,-7.999197E-3,6.942008E-2,-2.2222443E-2,-6.163291E-3,-8.8018144E-4,6.0775783E-2,1.727387E-2,5.469296E-2,-9.388063E-2,6.2640915E-3,-1.3039777E-3,2.9623477E-2,1.1648273E-2],"split_indices":[2,2,14,2,14,2,2,14,14,1,14,0,1,14,14,0,0,0,0,0,0,0,0,0,0,0,0,0,0,0,0],"split_type":[0,0,0,0,0,0,0,0,0,0,0,0,0,0,0,0,0,0,0,0,0,0,0,0,0,0,0,0,0,0,0],"sum_hessian":[6.4499E4,3.2558E4,3.1941E4,1.8221E4,1.4337E4,3.456E3,2.8485E4,2.533E3,1.5688E4,2.35E3,1.1987E4,2.41E3,1.046E3,1.4739E4,1.3746E4,8.45E2,1.688E3,7.731E3,7.957E3,1.71E2,2.179E3,6.123E3,5.864E3,2.5E2,2.16E3,1.018E3,2.8E1,5.041E3,9.698E3,4.383E3,9.363E3],"tree_param":{"num_deleted":"0","num_feature":"17","num_nodes":"31","size_leaf_vector":"1"}},{"base_weights":[-7.098655E-3,-8.0098145E-2,1.0344672E-1,-1.3438895E-1,-3.5948712E-2,8.428423E-2,3.0515823E-1,-2.3057741E-1,-1.1651612E-1,-1.14408925E-1,-1.3901788E-2,1.1021675E-1,-2.6555548E-3,2.6649553E-1,5.43654E-1,-2.4851145E-2,1.6995299E-3,-1.5969029E-2,-7.1400725E-3,-2.601456E-2,-2.7897693E-3,-2.0446025E-3,1.7797293E-2,8.3674695E-3,2.0373603E-2,-7.9436525E-4,4.998556E-2,2.905686E-2,-2.3040235E-2,1.3621043E-1,3.531232E-2],"categories":[],"categories_nodes":[],"categories_segments":[],"categories_sizes":[],"default_left":[0,0,0,0,0,0,0,0,0,0,0,0,0,0,0,0,0,0,0,0,0,0,0,0,0,0,0,0,0,0,0],"id":15,"left_children":[1,3,5,7,9,11,13,15,17,19,21,23,25,27,29,-1,-1,-1,-1,-1,-1,-1,-1,-1,-1,-1,-1,-1,-1,-1,-1],"loss_changes":[5.19749E2,9.297362E1,9.898764E1,2.9881348E1,3.7007607E1,5.274591E1,2.0343933E1,1.2103149E1,2.8568954E1,5.9161427E1,2.0977158E1,4.4712112E1,1.4289767E1,2.296193E1,4.770446E1,0E0,0E0,0E0,0E0,0E0,0E0,0E0,0E0,0E0,0E0,0E0,0E0,0E0,0E0,0E0,0E0],"parents":[2147483647,0,0,1,1,2,2,3,3,4,4,5,5,6,6,7,7,8,8,9,9,10,10,11,11,12,12,13,13,14,14],"right_children":[2,4,6,8,10,12,14,16,18,20,22,24,26,28,30,-1,-1,-1,-1,-1,-1,-1,-1,-1,-1,-1,-1,-1,-1,-1,-1],"split_conditions":[1.5815875E1,-3.748168E1,1.3626479E2,1.2E1,6E0,4.8E1,1.7936824E3,1.6063021E3,1.5687013E3,1.5888441E3,7.3E1,7.5208115E1,1.822237E3,8.7E1,6.5E1,-2.4851145E-2,1.6995299E-3,-1.5969029E-2,-7.1400725E-3,-2.601456E-2,-2.7897693E-3,-2.0446025E-3,1.7797293E-2,8.3674695E-3,2.0373603E-2,-7.9436525E-4,4.998556E-2,2.905686E-2,-2.3040235E-2,1.3621043E-1,3.531232E-2],"split_indices":[2,2,2,13,13,13,0,0,0,0,13,2,0,13,13,0,0,0,0,0,0,0,0,0,0,0,0,0,0,0,0],"split_type":[0,0,0,0,0,0,0,0,0,0,0,0,0,0,0,0,0,0,0,0,0,0,0,0,0,0,0,0,0,0,0],"sum_hessian":[6.4405E4,3.879E4,2.5615E4,1.7396E4,2.1394E4,2.3394E4,2.221E3,2.724E3,1.4672E4,4.692E3,1.6702E4,1.8019E4,5.375E3,1.913E3,3.08E2,2.54E3,1.84E2,7.496E3,7.176E3,1.747E3,2.945E3,1.6152E4,5.5E2,1.4037E4,3.982E3,5.32E3,5.5E1,1.825E3,8.8E1,5.7E1,2.51E2],"tree_param":{"num_deleted":"0","num_feature":"17","num_nodes":"31","size_leaf_vector":"1"}},{"base_weights":[-1.6924673E-3,-7.117837E-2,7.850243E-2,-1.2025182E-2,-1.1935067E-1,1.5681516E-1,2.6282283E-2,-9.348607E-2,2.5311552E-2,-1.1142672E-1,-2.2054462E-1,3.96997E-1,1.3960521E-1,1.8908052E-2,3.61054E-1,4.272492E-2,-9.9096205E-3,2.0981336E-2,1.4285735E-3,-1.4197381E-2,-9.604721E-3,-3.9864536E-2,-2.0416636E-2,3.4893025E-2,6.325747E-2,1.2507175E-2,3.049216E-2,2.9229596E-3,-1.2634647E-2,1.2871616E-1,2.8781706E-2],"categories":[],"categories_nodes":[],"categories_segments":[],"categories_sizes":[],"default_left":[0,0,0,0,0,0,0,0,0,0,0,0,0,0,0,0,0,0,0,0,0,0,0,0,0,0,0,0,0,0,0],"id":16,"left_children":[1,3,5,7,9,11,13,15,17,19,21,23,25,27,29,-1,-1,-1,-1,-1,-1,-1,-1,-1,-1,-1,-1,-1,-1,-1,-1],"loss_changes":[3.5835648E2,9.817963E1,1.2208386E2,4.7041946E1,1.5202698E1,4.9311127E1,4.421225E1,1.4243237E1,2.1572609E1,8.26091E0,3.9382095E0,8.815392E0,2.6741455E1,2.6281067E1,2.58101E1,0E0,0E0,0E0,0E0,0E0,0E0,0E0,0E0,0E0,0E0,0E0,0E0,0E0,0E0,0E0,0E0],"parents":[2147483647,0,0,1,1,2,2,3,3,4,4,5,5,6,6,7,7,8,8,9,9,10,10,11,11,12,12,13,13,14,14],"right_children":[2,4,6,8,10,12,14,16,18,20,22,24,26,28,30,-1,-1,-1,-1,-1,-1,-1,-1,-1,-1,-1,-1,-1,-1,-1,-1],"split_conditions":[1.6075653E3,1.6E3,1.5925679E3,1.5636108E3,1.7064467E3,1.51626E3,1.7936824E3,1.4729222E3,1.567295E3,1.5680608E3,1.5114318E3,1.7066437E3,1.5919879E3,1.7287341E3,1.6019879E3,4.272492E-2,-9.9096205E-3,2.0981336E-2,1.4285735E-3,-1.4197381E-2,-9.604721E-3,-3.9864536E-2,-2.0416636E-2,3.4893025E-2,6.325747E-2,1.2507175E-2,3.049216E-2,2.9229596E-3,-1.2634647E-2,1.2871616E-1,2.8781706E-2],"split_indices":[0,1,1,0,1,1,0,1,0,0,0,0,1,1,1,0,0,0,0,0,0,0,0,0,0,0,0,0,0,0,0],"split_type":[0,0,0,0,0,0,0,0,0,0,0,0,0,0,0,0,0,0,0,0,0,0,0,0,0,0,0,0,0,0,0],"sum_hessian":[6.4307E4,3.4454E4,2.9853E4,1.5465E4,1.8989E4,1.1942E4,1.7911E4,4.86E3,1.0605E4,1.7612E4,1.377E3,7.97E2,1.1145E4,1.7526E4,3.85E2,5.1E1,4.809E3,5.97E2,1.0008E4,5.895E3,1.1717E4,1.14E2,1.263E3,6.64E2,1.33E2,1.0246E4,8.99E2,1.6364E4,1.162E3,2.7E1,3.58E2],"tree_param":{"num_deleted":"0","num_feature":"17","num_nodes":"31","size_leaf_vector":"1"}},{"base_weights":[-7.284442E-4,-7.627254E-2,8.4859096E-2,-1.4587037E-1,-5.7458706E-2,6.680043E-2,2.6748917E-1,-1.6676162E-1,-1.7459424E-2,-1.0280318E-1,-2.4875302E-2,1.1613026E-1,1.7045954E-2,2.163974E-1,4.0150326E-1,-2.6383037E-2,-1.51856495E-2,-1.1342479E-2,5.6339097E-3,-1.0573987E-2,8.124664E-2,-1.44119905E-2,-1.4209347E-3,1.251717E-3,1.6704194E-2,-2.0733548E-4,9.806327E-3,2.8964339E-2,5.850657E-3,4.2843767E-2,-7.7870905E-2],"categories":[],"categories_nodes":[],"categories_segments":[],"categories_sizes":[],"default_left":[0,0,0,0,0,0,0,0,0,0,0,0,0,0,0,0,0,0,0,0,0,0,0,0,0,0,0,0,0,0,0],"id":17,"left_children":[1,3,5,7,9,11,13,15,17,19,21,23,25,27,29,-1,-1,-1,-1,-1,-1,-1,-1,-1,-1,-1,-1,-1,-1,-1,-1],"loss_changes":[4.149256E2,4.46252E1,9.921071E1,1.9454453E1,3.9645554E1,6.7201416E1,1.8447983E1,8.9852295E0,7.2018056E0,3.0243736E1,1.985928E1,7.252548E1,2.1117653E1,2.2673317E1,2.4047707E1,0E0,0E0,0E0,0E0,0E0,0E0,0E0,0E0,0E0,0E0,0E0,0E0,0E0,0E0,0E0,0E0],"parents":[2147483647,0,0,1,1,2,2,3,3,4,4,5,5,6,6,7,7,8,8,9,9,10,10,11,11,12,12,13,13,14,14],"right_children":[2,4,6,8,10,12,14,16,18,20,22,24,26,28,30,-1,-1,-1,-1,-1,-1,-1,-1,-1,-1,-1,-1,-1,-1,-1,-1],"split_conditions":[4.8022766E0,-8.311226E1,1.2715633E2,5.9E1,1.7E1,2.7E1,1.8601346E2,-1.7307906E2,1.567295E3,1.6560433E3,1.5325706E3,1.6078461E3,8.887088E1,5.9E1,1.41E2,-2.6383037E-2,-1.51856495E-2,-1.1342479E-2,5.6339097E-3,-1.0573987E-2,8.124664E-2,-1.44119905E-2,-1.4209347E-3,1.251717E-3,1.6704194E-2,-2.0733548E-4,9.806327E-3,2.8964339E-2,5.850657E-3,4.2843767E-2,-7.7870905E-2],"split_indices":[2,2,2,13,13,13,2,2,0,0,0,0,2,13,13,0,0,0,0,0,0,0,0,0,0,0,0,0,0,0,0],"split_type":[0,0,0,0,0,0,0,0,0,0,0,0,0,0,0,0,0,0,0,0,0,0,0,0,0,0,0,0,0,0,0],"sum_hessian":[6.4172E4,3.4086E4,3.0086E4,7.252E3,2.6834E4,2.738E4,2.706E3,6.237E3,1.015E3,1.1219E4,1.5615E4,1.3748E4,1.3632E4,1.961E3,7.45E2,8.28E2,5.409E3,4.41E2,5.74E2,1.1184E4,3.5E1,1.281E3,1.4334E4,4.53E3,9.218E3,1.103E4,2.602E3,1.339E3,6.22E2,7.29E2,1.6E1],"tree_param":{"num_deleted":"0","num_feature":"17","num_nodes":"31","size_leaf_vector":"1"}},{"base_weights":[-4.42533E-3,-8.068787E-2,4.2097744E-2,-2.4276854E-1,-6.1691575E-2,3.7364114E-2,4.1421473E-1,-1.9180784E-1,-4.2432612E-1,3.0859327E-1,-6.820484E-2,8.828901E-2,4.064361E-3,9.7898114E-1,2.6670867E-1,-2.8697882E-2,-1.4955416E-2,-5.7612885E-2,-2.2412367E-2,2.1887174E-2,5.8610637E-2,-1.0762545E-2,-2.9768383E-3,3.022378E-3,1.6482E-2,-1.5625872E-3,7.350012E-3,7.967651E-2,3.0659783E-1,3.4696523E-2,-1.2448181E-2],"categories":[],"categories_nodes":[],"categories_segments":[],"categories_sizes":[],"default_left":[0,0,0,0,0,0,0,0,0,0,0,0,0,0,0,0,0,0,0,0,0,0,0,0,0,0,0,0,0,0,0],"id":18,"left_children":[1,3,5,7,9,11,13,15,17,19,21,23,25,27,29,-1,-1,-1,-1,-1,-1,-1,-1,-1,-1,-1,-1,-1,-1,-1,-1],"loss_changes":[2.2924823E2,7.536345E1,7.0675606E1,2.3678528E1,5.2874878E1,6.720196E1,4.172535E1,8.027878E0,1.6950768E1,9.308403E0,3.262941E1,6.962029E1,3.2762146E1,3.710672E1,1.2632828E1,0E0,0E0,0E0,0E0,0E0,0E0,0E0,0E0,0E0,0E0,0E0,0E0,0E0,0E0,0E0,0E0],"parents":[2147483647,0,0,1,1,2,2,3,3,4,4,5,5,6,6,7,7,8,8,9,9,10,10,11,11,12,12,13,13,14,14],"right_children":[2,4,6,8,10,12,14,16,18,20,22,24,26,28,30,-1,-1,-1,-1,-1,-1,-1,-1,-1,-1,-1,-1,-1,-1,-1,-1],"split_conditions":[1.5908633E3,5E0,1.7936824E3,9E0,4E0,2E1,6.6E1,1.5805929E3,1.587546E3,3.9E1,1.5643578E3,1.6180078E3,1.6804231E3,1.02E2,9.3E1,-2.8697882E-2,-1.4955416E-2,-5.7612885E-2,-2.2412367E-2,2.1887174E-2,5.8610637E-2,-1.0762545E-2,-2.9768383E-3,3.022378E-3,1.6482E-2,-1.5625872E-3,7.350012E-3,7.967651E-2,3.0659783E-1,3.4696523E-2,-1.2448181E-2],"split_indices":[0,13,0,14,14,14,13,0,0,13,0,0,0,14,14,0,0,0,0,0,0,0,0,0,0,0,0,0,0,0,0],"split_type":[0,0,0,0,0,0,0,0,0,0,0,0,0,0,0,0,0,0,0,0,0,0,0,0,0,0,0,0,0,0,0],"sum_hessian":[6.4612E4,2.4481E4,4.0131E4,2.567E3,2.1914E4,3.9628E4,5.03E2,2.006E3,5.61E2,3.78E2,2.1536E4,1.5667E4,2.3961E4,1.03E2,4E2,6.15E2,1.391E3,3.18E2,2.43E2,2.87E2,9.1E1,1.0631E4,1.0905E4,8.909E3,6.758E3,1.8668E4,5.293E3,9.6E1,7E0,3.32E2,6.8E1],"tree_param":{"num_deleted":"0","num_feature":"17","num_nodes":"31","size_leaf_vector":"1"}},{"base_weights":[-8.5804734E-4,-5.1358208E-2,8.7764226E-2,-7.588107E-2,7.7154796E-4,3.1152532E-1,6.702635E-2,-1.5000036E-1,-5.262115E-2,1.01287745E-1,-3.9269652E-2,2.97552E-1,1.0361401E0,4.8611365E-2,2.2840698E-1,-2.1829994E-2,-1.1804184E-2,1.7039992E-2,-6.0309335E-3,1.2697662E-2,-2.2309922E-2,-2.6285887E-2,-3.2245063E-3,2.3564659E-2,3.7656635E-2,1.7616431E-1,7.400269E-2,9.15195E-3,-3.946641E-4,1.00707605E-1,2.0177852E-2],"categories":[],"categories_nodes":[],"categories_segments":[],"categories_sizes":[],"default_left":[0,0,0,0,0,0,0,0,0,0,0,0,0,0,0,0,0,0,0,0,0,0,0,0,0,0,0,0,0,0,0],"id":19,"left_children":[1,3,5,7,9,11,13,15,17,19,21,23,25,27,29,-1,-1,-1,-1,-1,-1,-1,-1,-1,-1,-1,-1,-1,-1,-1,-1],"loss_changes":[2.8742172E2,5.2298203E1,1.0815451E2,4.7957504E1,5.268444E1,1.9709412E1,6.3395683E1,1.4478622E1,3.6322666E1,3.1102585E1,1.4694119E1,9.405487E0,6.6450806E0,4.319129E1,4.510225E1,0E0,0E0,0E0,0E0,0E0,0E0,0E0,0E0,0E0,0E0,0E0,0E0,0E0,0E0,0E0,0E0],"parents":[2147483647,0,0,1,1,2,2,3,3,4,4,5,5,6,6,7,7,8,8,9,9,10,10,11,11,12,12,13,13,14,14],"right_children":[2,4,6,8,10,12,14,16,18,20,22,24,26,28,30,-1,-1,-1,-1,-1,-1,-1,-1,-1,-1,-1,-1,-1,-1,-1,-1],"split_conditions":[1.9780684E1,-9.945672E0,6E0,1.2E1,7E0,1.4143321E2,1.3626479E2,5E0,1.1E1,1.6752188E1,5E0,3.685444E1,4.6E1,3.3E1,1.4E1,-2.1829994E-2,-1.1804184E-2,1.7039992E-2,-6.0309335E-3,1.2697662E-2,-2.2309922E-2,-2.6285887E-2,-3.2245063E-3,2.3564659E-2,3.7656635E-2,1.7616431E-1,7.400269E-2,9.15195E-3,-3.946641E-4,1.00707605E-1,2.0177852E-2],"split_indices":[2,2,14,13,14,2,2,14,14,2,13,2,13,14,14,0,0,0,0,0,0,0,0,0,0,0,0,0,0,0,0],"split_type":[0,0,0,0,0,0,0,0,0,0,0,0,0,0,0,0,0,0,0,0,0,0,0,0,0,0,0,0,0,0,0],"sum_hessian":[6.422E4,4.0909E4,2.3311E4,2.7821E4,1.3088E4,1.976E3,2.1335E4,6.644E3,2.1177E4,3.728E3,9.36E3,1.94E3,3.6E1,1.9151E4,2.184E3,2.116E3,4.528E3,7.05E2,2.0472E4,3.455E3,2.73E2,2.84E2,9.076E3,1.09E3,8.5E2,9E0,2.7E1,1.0543E4,8.608E3,7.1E1,2.113E3],"tree_param":{"num_deleted":"0","num_feature":"17","num_nodes":"31","size_leaf_vector":"1"}},{"base_weights":[4.198551E-3,-5.4062437E-2,7.008702E-2,-1.1047036E-1,-3.2098062E-2,1.591512E-1,3.4393635E-2,-1.373462E-1,-4.0486865E-2,-4.6187375E-2,3.5513606E-2,1.40667E-1,4.9587587E-1,-6.276617E-3,1.14802375E-1,-3.4643896E-2,-1.2889259E-2,6.6817574E-2,-4.5846277E-3,-6.957654E-3,-5.3810957E-4,7.6081745E-2,1.9056654E-3,2.6380718E-2,1.0821701E-2,6.477626E-2,1.8879669E-2,-3.535553E-2,-1.5324213E-5,1.01155145E-2,5.0896984E-2],"categories":[],"categories_nodes":[],"categories_segments":[],"categories_sizes":[],"default_left":[0,0,0,0,0,0,0,0,0,0,0,0,0,0,0,0,0,0,0,0,0,0,0,0,0,0,0,0,0,0,0],"id":20,"left_children":[1,3,5,7,9,11,13,15,17,19,21,23,25,27,29,-1,-1,-1,-1,-1,-1,-1,-1,-1,-1,-1,-1,-1,-1,-1,-1],"loss_changes":[2.4692227E2,4.2292244E1,9.595589E1,1.7988678E1,2.3408974E1,5.3681442E1,7.047774E1,1.2172897E1,1.0118158E1,1.9407852E1,5.0571507E1,3.2689865E1,2.0819626E1,3.0436789E1,3.888923E1,0E0,0E0,0E0,0E0,0E0,0E0,0E0,0E0,0E0,0E0,0E0,0E0,0E0,0E0,0E0,0E0],"parents":[2147483647,0,0,1,1,2,2,3,3,4,4,5,5,6,6,7,7,8,8,9,9,10,10,11,11,12,12,13,13,14,14],"right_children":[2,4,6,8,10,12,14,16,18,20,22,24,26,28,30,-1,-1,-1,-1,-1,-1,-1,-1,-1,-1,-1,-1,-1,-1,-1,-1],"split_conditions":[4.8022766E0,-6.9159744E1,1.4E1,4.8E1,4.7E1,9.516795E1,7.674641E1,-1.9930272E2,1E1,-1.6404694E1,8E0,3E0,4.4E1,4E0,2.2913414E2,-3.4643896E-2,-1.2889259E-2,6.6817574E-2,-4.5846277E-3,-6.957654E-3,-5.3810957E-4,7.6081745E-2,1.9056654E-3,2.6380718E-2,1.0821701E-2,6.477626E-2,1.8879669E-2,-3.535553E-2,-1.5324213E-5,1.01155145E-2,5.0896984E-2],"split_indices":[2,2,14,13,13,2,2,2,14,2,14,14,13,13,2,0,0,0,0,0,0,0,0,0,0,0,0,0,0,0,0],"split_type":[0,0,0,0,0,0,0,0,0,0,0,0,0,0,0,0,0,0,0,0,0,0,0,0,0,0,0,0,0,0,0],"sum_hessian":[6.4322E4,3.4137E4,3.0185E4,9.566E3,2.4571E4,8.635E3,2.155E4,6.911E3,2.655E3,2.0334E4,4.237E3,8.187E3,4.48E2,1.4312E4,7.238E3,2.67E2,6.644E3,1.9E1,2.636E3,1.2925E4,7.409E3,9.3E1,4.144E3,1.706E3,6.481E3,2.99E2,1.49E2,2.47E2,1.4065E4,6.997E3,2.41E2],"tree_param":{"num_deleted":"0","num_feature":"17","num_nodes":"31","size_leaf_vector":"1"}},{"base_weights":[-6.5386365E-4,-4.652198E-2,6.8430305E-2,-8.586736E-2,-2.2470005E-2,1.2130985E-1,3.3107782E-3,-1.6682178E-1,-6.359551E-2,-8.5128486E-2,-5.648083E-3,4.3720114E-1,1.09591894E-1,-5.5452096E-1,1.0321996E-2,-4.3129217E-2,-1.5779348E-2,-1.6484551E-2,-5.22525E-3,-1.60285E-2,-3.8717072E-3,3.0551163E-2,-1.9618978E-3,2.3469098E-2,6.045031E-2,1.789287E-2,6.4408868E-3,-8.669247E-2,1.6809007E-2,2.1595268E-4,4.6187367E-2],"categories":[],"categories_nodes":[],"categories_segments":[],"categories_sizes":[],"default_left":[0,0,0,0,0,0,0,0,0,0,0,0,0,0,0,0,0,0,0,0,0,0,0,0,0,0,0,0,0,0,0],"id":21,"left_children":[1,3,5,7,9,11,13,15,17,19,21,23,25,27,29,-1,-1,-1,-1,-1,-1,-1,-1,-1,-1,-1,-1,-1,-1,-1,-1],"loss_changes":[2.041094E2,3.66316E1,8.8504196E1,2.646833E1,2.5323795E1,5.245558E1,4.5057457E1,7.4962387E0,1.3220726E1,1.773088E1,8.235027E1,1.7035461E1,4.283954E1,3.2427452E1,4.1932083E1,0E0,0E0,0E0,0E0,0E0,0E0,0E0,0E0,0E0,0E0,0E0,0E0,0E0,0E0,0E0,0E0],"parents":[2147483647,0,0,1,1,2,2,3,3,4,4,5,5,6,6,7,7,8,8,9,9,10,10,11,11,12,12,13,13,14,14],"right_children":[2,4,6,8,10,12,14,16,18,20,22,24,26,28,30,-1,-1,-1,-1,-1,-1,-1,-1,-1,-1,-1,-1,-1,-1,-1,-1],"split_conditions":[1.5815875E1,-4.7028984E1,3.1E1,1.7E1,6E0,1.51626E3,4E0,1.5240082E3,-1.6332005E2,1.5884907E3,6E0,2.7E1,1.1E1,1.6013658E3,1.822237E3,-4.3129217E-2,-1.5779348E-2,-1.6484551E-2,-5.22525E-3,-1.60285E-2,-3.8717072E-3,3.0551163E-2,-1.9618978E-3,2.3469098E-2,6.045031E-2,1.789287E-2,6.4408868E-3,-8.669247E-2,1.6809007E-2,2.1595268E-4,4.6187367E-2],"split_indices":[2,2,14,13,13,1,13,0,2,0,14,13,14,0,0,0,0,0,0,0,0,0,0,0,0,0,0,0,0,0,0],"split_type":[0,0,0,0,0,0,0,0,0,0,0,0,0,0,0,0,0,0,0,0,0,0,0,0,0,0,0,0,0,0,0],"sum_hessian":[6.4411E4,3.871E4,2.5701E4,1.4685E4,2.4025E4,1.4183E4,1.1518E4,3.167E3,1.1518E4,5.084E3,1.8941E4,5.06E2,1.3677E4,1.42E2,1.1376E4,1.03E2,3.064E3,1.159E3,1.0359E4,1.94E3,3.144E3,8.13E2,1.8128E4,2.3E2,2.76E2,5.395E3,8.282E3,9.9E1,4.3E1,1.1175E4,2.01E2],"tree_param":{"num_deleted":"0","num_feature":"17","num_nodes":"31","size_leaf_vector":"1"}},{"base_weights":[-8.101715E-4,-3.5589892E-2,7.2823584E-2,1.1157148E-1,-4.240915E-2,1.3826108E-1,3.3833822E-3,6.219992E-2,5.923244E-1,-1.09954074E-1,-3.1529147E-2,4.1724735E-1,1.2552881E-1,-9.550977E-3,3.092758E-1,-6.6218874E-3,2.343694E-2,-2.6263634E-2,7.8604095E-2,-1.7400375E-2,-6.3894647E-3,-4.551574E-3,2.6410664E-3,-2.4749784E-2,4.415951E-2,1.133392E-2,3.715528E-2,-4.4519607E-2,-4.8266613E-4,2.4319986E-2,9.816343E-2],"categories":[],"categories_nodes":[],"categories_segments":[],"categories_sizes":[],"default_left":[0,0,0,0,0,0,0,0,0,0,0,0,0,0,0,0,0,0,0,0,0,0,0,0,0,0,0,0,0,0,0],"id":22,"left_children":[1,3,5,7,9,11,13,15,17,19,21,23,25,27,29,-1,-1,-1,-1,-1,-1,-1,-1,-1,-1,-1,-1,-1,-1,-1,-1],"loss_changes":[1.6463913E2,4.3822926E1,9.3714836E1,4.5867657E1,3.0664185E1,3.766411E1,3.9595875E1,3.8818214E1,3.0018055E1,1.706697E1,2.91287E1,7.602951E0,3.0415085E1,1.9759964E1,1.779852E1,0E0,0E0,0E0,0E0,0E0,0E0,0E0,0E0,0E0,0E0,0E0,0E0,0E0,0E0,0E0,0E0],"parents":[2147483647,0,0,1,1,2,2,3,3,4,4,5,5,6,6,7,7,8,8,9,9,10,10,11,11,12,12,13,13,14,14],"right_children":[2,4,6,8,10,12,14,16,18,20,22,24,26,28,30,-1,-1,-1,-1,-1,-1,-1,-1,-1,-1,-1,-1,-1,-1,-1,-1],"split_conditions":[2.7292511E1,2E0,3.1E1,1.1E1,-9.45306E1,3E0,2.0179851E2,4.183155E0,-4.6142387E1,3.3E1,4.6E1,2E0,1.4712793E2,4E0,7.3E1,-6.6218874E-3,2.343694E-2,-2.6263634E-2,7.8604095E-2,-1.7400375E-2,-6.3894647E-3,-4.551574E-3,2.6410664E-3,-2.4749784E-2,4.415951E-2,1.133392E-2,3.715528E-2,-4.4519607E-2,-4.8266613E-4,2.4319986E-2,9.816343E-2],"split_indices":[2,14,14,13,2,14,2,2,2,13,13,13,2,13,14,0,0,0,0,0,0,0,0,0,0,0,0,0,0,0,0],"split_type":[0,0,0,0,0,0,0,0,0,0,0,0,0,0,0,0,0,0,0,0,0,0,0,0,0,0,0,0,0,0,0],"sum_hessian":[6.4286E4,4.3663E4,2.0623E4,1.933E3,4.173E4,1.0617E4,1.0006E4,1.754E3,1.79E2,5.788E3,3.5942E4,4.62E2,1.0155E4,9.601E3,4.05E2,1.005E3,7.49E2,3.3E1,1.46E2,2.42E3,3.368E3,2.8953E4,6.989E3,1.6E1,4.46E2,9.677E3,4.78E2,1.02E2,9.499E3,3.7E2,3.5E1],"tree_param":{"num_deleted":"0","num_feature":"17","num_nodes":"31","size_leaf_vector":"1"}},{"base_weights":[1.4688317E-3,-2.8628586E-2,8.466122E-2,-5.1513467E-2,4.4853594E-3,1.2193838E-1,3.0380975E-2,-1.1328474E-1,-3.1923816E-2,-7.872115E-4,7.012299E-2,9.857953E-2,2.6291573E-1,1.0953508E-2,3.2894394E-1,-1.2187625E-2,1.7344335E-2,-1.146198E-2,-1.8997024E-3,4.089137E-3,-1.173629E-3,7.931751E-3,-3.229085E-2,2.2102617E-2,7.972475E-3,7.537232E-2,2.5050208E-2,2.6048962E-2,-5.366967E-6,8.6955294E-2,2.1061474E-2],"categories":[],"categories_nodes":[],"categories_segments":[],"categories_sizes":[],"default_left":[0,0,0,0,0,0,0,0,0,0,0,0,0,0,0,0,0,0,0,0,0,0,0,0,0,0,0,0,0,0,0],"id":23,"left_children":[1,3,5,7,9,11,13,15,17,19,21,23,25,27,29,-1,-1,-1,-1,-1,-1,-1,-1,-1,-1,-1,-1,-1,-1,-1,-1],"loss_changes":[1.6101418E2,3.5785477E1,3.4564285E1,3.378659E1,6.6790347E0,3.332628E1,4.034924E1,1.6582779E1,2.2662626E1,8.153029E0,5.2113237E0,2.0045029E1,8.578598E0,1.7944128E1,2.7004032E1,0E0,0E0,0E0,0E0,0E0,0E0,0E0,0E0,0E0,0E0,0E0,0E0,0E0,0E0,0E0,0E0],"parents":[2147483647,0,0,1,1,2,2,3,3,4,4,5,5,6,6,7,7,8,8,9,9,10,10,11,11,12,12,13,13,14,14],"right_children":[2,4,6,8,10,12,14,16,18,20,22,24,26,28,30,-1,-1,-1,-1,-1,-1,-1,-1,-1,-1,-1,-1,-1,-1,-1,-1],"split_conditions":[3.7693787E1,-9.945672E0,4.2E1,1.2E1,1.6637585E3,1.129124E2,1.7936824E3,1.6185128E3,-1.24534615E2,5E0,1.02E2,9E0,1.2E1,1.5825353E3,6.6E1,-1.2187625E-2,1.7344335E-2,-1.146198E-2,-1.8997024E-3,4.089137E-3,-1.173629E-3,7.931751E-3,-3.229085E-2,2.2102617E-2,7.972475E-3,7.537232E-2,2.5050208E-2,2.6048962E-2,-5.366967E-6,8.6955294E-2,2.1061474E-2],"split_indices":[2,2,13,13,0,2,0,0,2,13,13,13,13,0,13,0,0,0,0,0,0,0,0,0,0,0,0,0,0,0,0],"split_type":[0,0,0,0,0,0,0,0,0,0,0,0,0,0,0,0,0,0,0,0,0,0,0,0,0,0,0,0,0,0,0],"sum_hessian":[6.4304E4,4.7221E4,1.7083E4,2.7923E4,1.9298E4,1.0127E4,6.956E3,6.722E3,2.1201E4,1.7864E4,1.434E3,8.689E3,1.438E3,6.532E3,4.24E2,6.527E3,1.95E2,2.865E3,1.8336E4,3.716E3,1.4148E4,1.402E3,3.2E1,1.158E3,7.531E3,3.4E1,1.404E3,2.75E2,6.257E3,7.5E1,3.49E2],"tree_param":{"num_deleted":"0","num_feature":"17","num_nodes":"31","size_leaf_vector":"1"}},{"base_weights":[-6.014116E-4,-3.0404536E-2,6.32073E-2,-6.2384523E-2,-1.3149533E-2,2.337882E-1,4.329378E-2,-1.0711409E-1,-3.0008908E-2,6.978597E-2,-1.8984402E-2,2.7614814E-1,-2.0374963E-1,2.8879669E-2,2.0938991E-1,-1.1522171E-2,2.0720325E-2,-2.2260444E-2,-2.4532482E-3,9.207009E-2,-2.2680454E-3,-3.154585E-3,2.0013114E-3,2.3470478E-2,7.498001E-2,-1.6124348E-1,-3.7799606E-3,7.195628E-3,-1.2492479E-5,3.259974E-2,1.1268175E-2],"categories":[],"categories_nodes":[],"categories_segments":[],"categories_sizes":[],"default_left":[0,0,0,0,0,0,0,0,0,0,0,0,0,0,0,0,0,0,0,0,0,0,0,0,0,0,0,0,0,0,0],"id":24,"left_children":[1,3,5,7,9,11,13,15,17,19,21,23,25,27,29,-1,-1,-1,-1,-1,-1,-1,-1,-1,-1,-1,-1,-1,-1,-1,-1],"loss_changes":[1.2263678E2,2.4255302E1,6.973091E1,2.23055E1,1.3818627E1,3.98304E1,4.4012398E1,1.6506683E1,9.421762E0,1.4770522E2,1.3068766E1,3.823941E1,4.4355606E1,2.1138939E1,1.6517746E1,0E0,0E0,0E0,0E0,0E0,0E0,0E0,0E0,0E0,0E0,0E0,0E0,0E0,0E0,0E0,0E0],"parents":[2147483647,0,0,1,1,2,2,3,3,4,4,5,5,6,6,7,7,8,8,9,9,10,10,11,11,12,12,13,13,14,14],"right_children":[2,4,6,8,10,12,14,16,18,20,22,24,26,28,30,-1,-1,-1,-1,-1,-1,-1,-1,-1,-1,-1,-1,-1,-1,-1,-1],"split_conditions":[2.7292511E1,-4.4170994E1,8E0,3.2E1,2E0,1.60305E3,1.544885E2,4.8E1,-2.2689818E2,1.5919879E3,1.6189698E3,9.085565E1,2E0,2.7E1,4.1E1,-1.1522171E-2,2.0720325E-2,-2.2260444E-2,-2.4532482E-3,9.207009E-2,-2.2680454E-3,-3.154585E-3,2.0013114E-3,2.3470478E-2,7.498001E-2,-1.6124348E-1,-3.7799606E-3,7.195628E-3,-1.2492479E-5,3.259974E-2,1.1268175E-2],"split_indices":[2,2,14,14,14,1,2,13,2,1,0,2,14,14,14,0,0,0,0,0,0,0,0,0,0,0,0,0,0,0,0],"split_type":[0,0,0,0,0,0,0,0,0,0,0,0,0,0,0,0,0,0,0,0,0,0,0,0,0,0,0,0,0,0,0],"sum_hessian":[6.4486E4,4.3956E4,2.053E4,1.5404E4,2.8552E4,2.145E3,1.8385E4,6.467E3,8.937E3,1.876E3,2.6676E4,1.956E3,1.89E2,1.6918E4,1.467E3,6.305E3,1.62E2,2.46E2,8.691E3,1.83E2,1.693E3,2.0177E4,6.499E3,1.8E3,1.56E2,1.9E1,1.7E2,6.807E3,1.0111E4,6.64E2,8.03E2],"tree_param":{"num_deleted":"0","num_feature":"17","num_nodes":"31","size_leaf_vector":"1"}},{"base_weights":[2.2537378E-3,-2.323796E-2,7.2472245E-2,-6.2081166E-2,-4.4578435E-3,1.2053374E-1,-1.3979805E-2,-1.1051427E-1,-3.623341E-2,2.1265446E-1,-6.186151E-3,1.0221767E-1,2.846745E-1,-3.0763693E-2,2.6803005E-1,-1.15478225E-2,6.0768533E-2,-1.2232772E-2,-2.4920504E-3,2.7663011E-2,-9.60629E-3,6.5782107E-3,-1.0884526E-3,1.8749882E-2,6.4897784E-3,9.39052E-2,2.423252E-2,-1.8580303E-4,-7.945662E-3,1.21460974E-1,1.9979673E-2],"categories":[],"categories_nodes":[],"categories_segments":[],"categories_sizes":[],"default_left":[0,0,0,0,0,0,0,0,0,0,0,0,0,0,0,0,0,0,0,0,0,0,0,0,0,0,0,0,0,0,0],"id":25,"left_children":[1,3,5,7,9,11,13,15,17,19,21,23,25,27,29,-1,-1,-1,-1,-1,-1,-1,-1,-1,-1,-1,-1,-1,-1,-1,-1],"loss_changes":[1.1547387E2,3.4525276E1,7.139316E1,1.930635E1,1.1973246E1,3.3170715E1,2.9070229E1,1.9204147E1,9.794185E0,5.0036716E0,1.0704006E1,3.1610962E1,3.0477814E1,8.15773E0,2.204028E1,0E0,0E0,0E0,0E0,0E0,0E0,0E0,0E0,0E0,0E0,0E0,0E0,0E0,0E0,0E0,0E0],"parents":[2147483647,0,0,1,1,2,2,3,3,4,4,5,5,6,6,7,7,8,8,9,9,10,10,11,11,12,12,13,13,14,14],"right_children":[2,4,6,8,10,12,14,16,18,20,22,24,26,28,30,-1,-1,-1,-1,-1,-1,-1,-1,-1,-1,-1,-1,-1,-1,-1,-1],"split_conditions":[3.7693787E1,-4.4170994E1,4E1,2.8E1,-4.327303E1,1.3626479E2,1.7936824E3,6.1E1,-1.6332005E2,4.8E1,2E0,1.4E1,1E1,5.6E1,5.8E1,-1.15478225E-2,6.0768533E-2,-1.2232772E-2,-2.4920504E-3,2.7663011E-2,-9.60629E-3,6.5782107E-3,-1.0884526E-3,1.8749882E-2,6.4897784E-3,9.39052E-2,2.423252E-2,-1.8580303E-4,-7.945662E-3,1.21460974E-1,1.9979673E-2],"split_indices":[2,2,14,14,2,2,0,13,2,14,14,14,14,14,13,0,0,0,0,0,0,0,0,0,0,0,0,0,0,0,0],"split_type":[0,0,0,0,0,0,0,0,0,0,0,0,0,0,0,0,0,0,0,0,0,0,0,0,0,0,0,0,0,0,0],"sum_hessian":[6.4509E4,4.7328E4,1.7181E4,1.5424E4,3.1904E4,1.1042E4,6.139E3,5.366E3,1.0058E4,2.51E2,3.1653E4,9.935E3,1.107E3,5.795E3,3.44E2,5.33E3,3.6E1,1.167E3,8.891E3,2.08E2,4.3E1,1.939E3,2.9714E4,3.023E3,6.912E3,6.6E1,1.041E3,3.637E3,2.158E3,2.2E1,3.22E2],"tree_param":{"num_deleted":"0","num_feature":"17","num_nodes":"31","size_leaf_vector":"1"}},{"base_weights":[3.1735583E-3,-1.0489493E-2,9.853939E-2,-3.805454E-2,1.1742724E-2,3.021076E-1,8.096431E-2,-4.7456786E-2,6.726911E-2,8.292459E-2,-7.2682137E-3,3.1396106E-1,-1.2636994E-1,1.8766999E-1,4.2106256E-2,-1.0816555E-2,-3.8809727E-3,1.2627705E-2,-2.9348063E-3,1.589218E-2,-6.6561513E-3,-2.3442318E-3,4.050977E-3,9.571093E-2,2.8603349E-2,7.5755574E-2,1.7581081E-2,2.3668425E-3,2.2469694E-2],"categories":[],"categories_nodes":[],"categories_segments":[],"categories_sizes":[],"default_left":[0,0,0,0,0,0,0,0,0,0,0,0,0,0,0,0,0,0,0,0,0,0,0,0,0,0,0,0,0],"id":26,"left_children":[1,3,5,7,9,11,13,15,17,19,21,23,-1,25,27,-1,-1,-1,-1,-1,-1,-1,-1,-1,-1,-1,-1,-1,-1],"loss_changes":[8.3648964E1,3.4412804E1,2.875837E1,2.4829483E1,4.206453E1,1.2256706E1,3.0704308E1,1.20780945E1,1.1719631E1,7.444474E1,1.8959219E1,1.1131828E1,0E0,1.3228127E1,1.8278557E1,0E0,0E0,0E0,0E0,0E0,0E0,0E0,0E0,0E0,0E0,0E0,0E0,0E0,0E0],"parents":[2147483647,0,0,1,1,2,2,3,3,4,4,5,5,6,6,7,7,8,8,9,9,10,10,11,11,13,13,14,14],"right_children":[2,4,6,8,10,12,14,16,18,20,22,24,-1,26,28,-1,-1,-1,-1,-1,-1,-1,-1,-1,-1,-1,-1,-1,-1],"split_conditions":[7.674641E1,-1.7080265E1,1.4961266E3,1.6334778E3,7E0,8.8E1,2.3E1,7E0,1.7287341E3,1.600268E3,1.6170425E3,1.5536277E3,-1.2636994E-1,1.5081869E3,1.7758491E3,-1.0816555E-2,-3.8809727E-3,1.2627705E-2,-2.9348063E-3,1.589218E-2,-6.6561513E-3,-2.3442318E-3,4.050977E-3,9.571093E-2,2.8603349E-2,7.5755574E-2,1.7581081E-2,2.3668425E-3,2.2469694E-2],"split_indices":[2,2,1,0,14,14,14,14,1,1,1,0,0,1,0,0,0,0,0,0,0,0,0,0,0,0,0,0,0],"split_type":[0,0,0,0,0,0,0,0,0,0,0,0,0,0,0,0,0,0,0,0,0,0,0,0,0,0,0,0,0],"sum_hessian":[6.4196E4,5.6152E4,8.044E3,2.5069E4,3.1083E4,6.38E2,7.406E3,2.3015E4,2.054E3,6.551E3,2.4532E4,6.34E2,4E0,1.976E3,5.43E3,2.868E3,2.0147E4,1.275E3,7.79E2,4.343E3,2.208E3,1.8328E4,6.204E3,2.5E1,6.09E2,3.9E1,1.937E3,4.933E3,4.97E2],"tree_param":{"num_deleted":"0","num_feature":"17","num_nodes":"29","size_leaf_vector":"1"}},{"base_weights":[-1.3786152E-3,-3.490424E-2,2.4147583E-2,-1.1844651E-1,-2.5442075E-2,6.723425E-2,-2.6611844E-3,-1.5719159E-1,-9.99888E-3,-6.799455E-2,-1.0825731E-2,9.8004997E-1,6.3829996E-2,1.8909657E-1,-1.1383391E-2,-1.3711958E-2,-2.747863E-2,-3.165235E-2,2.6266754E-3,-1.9785319E-2,-5.464962E-3,-1.4401186E-3,1.818378E-2,-2.9151697E-2,1.4561935E-1,8.961481E-3,-8.002109E-5,4.5022275E-2,3.3387158E-3,-2.2372033E-2,-4.9139274E-4],"categories":[],"categories_nodes":[],"categories_segments":[],"categories_sizes":[],"default_left":[0,0,0,0,0,0,0,0,0,0,0,0,0,0,0,0,0,0,0,0,0,0,0,0,0,0,0,0,0,0,0],"id":27,"left_children":[1,3,5,7,9,11,13,15,17,19,21,23,25,27,29,-1,-1,-1,-1,-1,-1,-1,-1,-1,-1,-1,-1,-1,-1,-1,-1],"loss_changes":[5.507468E1,2.1987648E1,4.220408E1,1.1889557E1,1.5542084E1,4.3485394E1,3.7674686E1,4.8836746E0,8.301081E0,1.1061035E1,1.2816791E1,3.1907818E1,2.3269096E1,3.9831577E1,2.9595402E1,0E0,0E0,0E0,0E0,0E0,0E0,0E0,0E0,0E0,0E0,0E0,0E0,0E0,0E0,0E0,0E0],"parents":[2147483647,0,0,1,1,2,2,3,3,4,4,5,5,6,6,7,7,8,8,9,9,10,10,11,11,12,12,13,13,14,14],"right_children":[2,4,6,8,10,12,14,16,18,20,22,24,26,28,30,-1,-1,-1,-1,-1,-1,-1,-1,-1,-1,-1,-1,-1,-1,-1,-1],"split_conditions":[-9.945672E0,5E0,1.8E1,6E0,-8.861897E1,1.5124044E3,1.5028187E3,1.6234172E3,1.6089249E3,1.9E1,8.7E1,1.4961266E3,1.600268E3,3.6E1,1E1,-1.3711958E-2,-2.747863E-2,-3.165235E-2,2.6266754E-3,-1.9785319E-2,-5.464962E-3,-1.4401186E-3,1.818378E-2,-2.9151697E-2,1.4561935E-1,8.961481E-3,-8.002109E-5,4.5022275E-2,3.3387158E-3,-2.2372033E-2,-4.9139274E-4],"split_indices":[2,13,14,14,2,1,1,1,1,14,14,1,1,14,13,0,0,0,0,0,0,0,0,0,0,0,0,0,0,0,0],"split_type":[0,0,0,0,0,0,0,0,0,0,0,0,0,0,0,0,0,0,0,0,0,0,0,0,0,0,0,0,0,0,0],"sum_hessian":[6.4354E4,2.7818E4,3.6536E4,2.829E3,2.4989E4,1.4013E4,2.2523E4,2.084E3,7.45E2,6.388E3,1.8601E4,5.1E1,1.3962E4,9.79E2,2.1544E4,1.782E3,3.02E2,7.8E1,6.67E2,5.94E2,5.794E3,1.8263E4,3.38E2,1.4E1,3.7E1,9.98E3,3.982E3,3.65E2,6.14E2,6.36E2,2.0908E4],"tree_param":{"num_deleted":"0","num_feature":"17","num_nodes":"31","size_leaf_vector":"1"}},{"base_weights":[-3.6168497E-3,-2.3981014E-2,1.9860817E-2,-7.542281E-2,-1.483156E-4,1.5153645E-1,6.2458487E-3,-1.6414568E-1,-6.2060528E-2,1.6649028E-2,-4.106836E-2,1.10846534E-1,6.3020515E-1,3.0546734E-1,2.3251446E-3,-7.2118886E-2,-1.2113999E-2,-1.32827535E-2,-4.2122887E-3,3.240962E-2,1.408333E-3,-7.6504475E-3,-1.7437165E-3,2.7659914E-2,4.849769E-3,7.931815E-2,3.7381362E-2,-9.398836E-3,4.4204034E-2,3.2793058E-4,-8.7574795E-2],"categories":[],"categories_nodes":[],"categories_segments":[],"categories_sizes":[],"default_left":[0,0,0,0,0,0,0,0,0,0,0,0,0,0,0,0,0,0,0,0,0,0,0,0,0,0,0,0,0,0,0],"id":28,"left_children":[1,3,5,7,9,11,13,15,17,19,21,23,25,27,29,-1,-1,-1,-1,-1,-1,-1,-1,-1,-1,-1,-1,-1,-1,-1,-1],"loss_changes":[3.0733898E1,4.2203705E1,5.3529064E1,1.2911011E1,1.6171236E1,5.442675E1,3.1747314E1,3.407393E1,1.3361534E1,1.31529045E1,5.7323275E0,2.6649553E1,8.854576E0,1.913575E1,2.2383648E1,0E0,0E0,0E0,0E0,0E0,0E0,0E0,0E0,0E0,0E0,0E0,0E0,0E0,0E0,0E0,0E0],"parents":[2147483647,0,0,1,1,2,2,3,3,4,4,5,5,6,6,7,7,8,8,9,9,10,10,11,11,12,12,13,13,14,14],"right_children":[2,4,6,8,10,12,14,16,18,20,22,24,26,28,30,-1,-1,-1,-1,-1,-1,-1,-1,-1,-1,-1,-1,-1,-1,-1,-1],"split_conditions":[1.6075653E3,1.3E1,6E0,2E0,1.633628E3,1.629923E3,1.4961266E3,1.587546E3,1.5733862E3,1.4729222E3,1.5621787E3,2E0,1.6005546E3,1.6252345E3,1.47E2,-7.2118886E-2,-1.2113999E-2,-1.32827535E-2,-4.2122887E-3,3.240962E-2,1.408333E-3,-7.6504475E-3,-1.7437165E-3,2.7659914E-2,4.849769E-3,7.931815E-2,3.7381362E-2,-9.398836E-3,4.4204034E-2,3.2793058E-4,-8.7574795E-2],"split_indices":[0,13,13,13,1,0,1,0,0,1,0,13,1,0,13,0,0,0,0,0,0,0,0,0,0,0,0,0,0,0,0],"split_type":[0,0,0,0,0,0,0,0,0,0,0,0,0,0,0,0,0,0,0,0,0,0,0,0,0,0,0,0,0,0,0],"sum_hessian":[6.4281E4,3.4423E4,2.9858E4,1.0898E4,2.3525E4,2.797E3,2.7061E4,1.425E3,9.473E3,1.6679E4,6.846E3,2.579E3,2.18E2,3.49E2,2.6712E4,1.01E2,1.324E3,2.081E3,7.392E3,1.37E2,1.6542E4,2.738E3,4.108E3,7.04E2,1.875E3,1.32E2,8.6E1,8.9E1,2.6E2,2.6684E4,2.8E1],"tree_param":{"num_deleted":"0","num_feature":"17","num_nodes":"31","size_leaf_vector":"1"}},{"base_weights":[2.5405672E-3,-1.3977665E-2,6.0225923E-2,8.330838E-2,-1.8023467E-2,1.8056287E-1,3.7729263E-2,3.6033016E-1,-1.5256998E-1,-2.8693361E-2,1.8725904E-2,5.24384E-1,1.5289213E-1,1.6027239E-1,2.0394621E-2,8.6332954E-2,2.2049611E-2,-1.0161281E-2,-9.751692E-2,-7.943358E-3,-2.1566858E-3,6.0628016E-2,7.5600034E-4,4.135968E-2,2.2334623E-1,1.6392277E-1,1.456901E-2,3.0608613E-2,1.071035E-2,1.8513333E-3,1.01457655E-1],"categories":[],"categories_nodes":[],"categories_segments":[],"categories_sizes":[],"default_left":[0,0,0,0,0,0,0,0,0,0,0,0,0,0,0,0,0,0,0,0,0,0,0,0,0,0,0,0,0,0,0],"id":29,"left_children":[1,3,5,7,9,11,13,15,17,19,21,23,25,27,29,-1,-1,-1,-1,-1,-1,-1,-1,-1,-1,-1,-1,-1,-1,-1,-1],"loss_changes":[6.1454605E1,1.9735813E1,3.886015E1,1.3087256E2,1.8875628E1,2.1430496E1,2.5693676E1,6.4589516E1,4.5255463E1,1.348815E1,7.105954E1,3.0886044E1,2.2176708E1,1.1588596E1,1.9804981E1,0E0,0E0,0E0,0E0,0E0,0E0,0E0,0E0,0E0,0E0,0E0,0E0,0E0,0E0,0E0,0E0],"parents":[2147483647,0,0,1,1,2,2,3,3,4,4,5,5,6,6,7,7,8,8,9,9,10,10,11,11,12,12,13,13,14,14],"right_children":[2,4,6,8,10,12,14,16,18,20,22,24,26,28,30,-1,-1,-1,-1,-1,-1,-1,-1,-1,-1,-1,-1,-1,-1,-1,-1],"split_conditions":[4.693813E1,2E0,1.4E1,1.600268E3,4.5E1,6E0,1.51626E3,1.6075653E3,-2.5789063E0,-8.4958015E1,9E0,1.5912474E3,1.5124044E3,3E1,1.7748068E3,8.6332954E-2,2.2049611E-2,-1.0161281E-2,-9.751692E-2,-7.943358E-3,-2.1566858E-3,6.0628016E-2,7.5600034E-4,4.135968E-2,2.2334623E-1,1.6392277E-1,1.456901E-2,3.0608613E-2,1.071035E-2,1.8513333E-3,1.01457655E-1],"split_indices":[2,14,14,1,13,13,1,0,2,2,14,1,1,14,1,0,0,0,0,0,0,0,0,0,0,0,0,0,0,0,0],"split_type":[0,0,0,0,0,0,0,0,0,0,0,0,0,0,0,0,0,0,0,0,0,0,0,0,0,0,0,0,0,0,0],"sum_hessian":[6.4493E4,5.0137E4,1.4356E4,2.001E3,4.8136E4,2.26E3,1.2096E4,9.2E2,1.081E3,3.7305E4,1.0831E4,1.67E2,2.093E3,1.498E3,1.0598E4,1.99E2,7.21E2,1.019E3,6.2E1,4.593E3,3.2712E4,2.01E2,1.063E4,1.58E2,9E0,9E0,2.084E3,3.99E2,1.099E3,1.0579E4,1.9E1],"tree_param":{"num_deleted":"0","num_feature":"17","num_nodes":"31","size_leaf_vector":"1"}},{"base_weights":[6.467342E-4,-6.0123336E-3,7.497158E-2,-1.831099E-2,1.1212632E-2,1.6486477E0,7.0482455E-2,-7.819016E-2,-1.4147261E-4,1.3698825E-1,1.4043547E-3,-9.631362E-2,1.9039991E0,2.908272E-1,5.312339E-2,-5.019454E-3,-1.9377658E-2,3.3372346E-2,-8.2952477E-4,7.5333454E-3,5.3203583E-2,2.7450908E-3,-1.9884882E-3,2.4218991E-1,1.0401137E-1,2.49681E-2,1.2891214E-1,4.3859445E-3,2.1795979E-2],"categories":[],"categories_nodes":[],"categories_segments":[],"categories_sizes":[],"default_left":[0,0,0,0,0,0,0,0,0,0,0,0,0,0,0,0,0,0,0,0,0,0,0,0,0,0,0,0,0],"id":30,"left_children":[1,3,5,7,9,11,13,15,17,19,21,-1,23,25,27,-1,-1,-1,-1,-1,-1,-1,-1,-1,-1,-1,-1,-1,-1],"loss_changes":[3.1835114E1,1.250599E1,3.7247528E1,3.7472046E1,3.0337538E1,1.1837654E1,2.0161322E1,2.5935833E1,7.193848E1,4.329028E1,1.2651164E1,0E0,3.7446365E0,1.5492397E1,7.4591684E0,0E0,0E0,0E0,0E0,0E0,0E0,0E0,0E0,0E0,0E0,0E0,0E0,0E0,0E0],"parents":[2147483647,0,0,1,1,2,2,3,3,4,4,5,5,6,6,7,7,8,8,9,9,10,10,12,12,13,13,14,14],"right_children":[2,4,6,8,10,12,14,16,18,20,22,-1,24,26,28,-1,-1,-1,-1,-1,-1,-1,-1,-1,-1,-1,-1,-1,-1],"split_conditions":[1.6897124E3,1.6075653E3,1.3E1,9E0,4E0,2E0,2.7E1,1E1,6E0,1.6198904E3,2.7E1,-9.631362E-2,1.6966891E3,1.7415217E3,1.822237E3,-5.019454E-3,-1.9377658E-2,3.3372346E-2,-8.2952477E-4,7.5333454E-3,5.3203583E-2,2.7450908E-3,-1.9884882E-3,2.4218991E-1,1.0401137E-1,2.49681E-2,1.2891214E-1,4.3859445E-3,2.1795979E-2],"split_indices":[0,0,13,13,13,14,13,14,14,0,13,0,0,0,0,0,0,0,0,0,0,0,0,0,0,0,0,0,0],"split_type":[0,0,0,0,0,0,0,0,0,0,0,0,0,0,0,0,0,0,0,0,0,0,0,0,0,0,0,0,0],"sum_hessian":[6.432E4,5.9032E4,5.288E3,3.4441E4,2.4591E4,1.4E1,5.274E3,8.017E3,2.6424E4,1.778E3,2.2813E4,1E0,1.3E1,3.84E2,4.89E3,6.455E3,1.562E3,6.29E2,2.5795E4,1.539E3,2.39E2,1.026E4,1.2553E4,7E0,6E0,3.7E2,1.4E1,4.631E3,2.59E2],"tree_param":{"num_deleted":"0","num_feature":"17","num_nodes":"29","size_leaf_vector":"1"}},{"base_weights":[4.216415E-4,-1.9732438E-2,4.0111303E-2,-2.3504209E-2,5.4795295E-2,1.5468857E-1,2.0128116E-2,-6.279477E-2,-1.6325155E-2,1.3025161E0,3.3170655E-2,1.5583233E0,1.4718811E-1,1.3708924E-1,8.634754E-3,4.8555788E-2,-6.453778E-3,-1.0598806E-2,-1.2726958E-3,9.639908E-2,2.5189045E-1,-8.229116E-3,6.1429506E-3,8.21987E-2,4.7205636E-1,1.3630139E-2,6.055307E-2,3.361835E-2,5.3015854E-3,-1.2265358E-4,1.3059566E-2],"categories":[],"categories_nodes":[],"categories_segments":[],"categories_sizes":[],"default_left":[0,0,0,0,0,0,0,0,0,0,0,0,0,0,0,0,0,0,0,0,0,0,0,0,0,0,0,0,0,0,0],"id":31,"left_children":[1,3,5,7,9,11,13,15,17,19,21,23,25,27,29,-1,-1,-1,-1,-1,-1,-1,-1,-1,-1,-1,-1,-1,-1,-1,-1],"loss_changes":[5.147011E1,1.199729E1,4.9612926E1,1.1456619E1,5.5430786E1,3.3649437E1,2.4804749E1,6.0288754E0,1.1079521E1,1.19840355E1,6.602473E0,3.5703777E1,1.58949585E1,2.7617483E1,2.020899E1,0E0,0E0,0E0,0E0,0E0,0E0,0E0,0E0,0E0,0E0,0E0,0E0,0E0,0E0,0E0,0E0],"parents":[2147483647,0,0,1,1,2,2,3,3,4,4,5,5,6,6,7,7,8,8,9,9,10,10,11,11,12,12,13,13,14,14],"right_children":[2,4,6,8,10,12,14,16,18,20,22,24,26,28,30,-1,-1,-1,-1,-1,-1,-1,-1,-1,-1,-1,-1,-1,-1,-1,-1],"split_conditions":[2.4568687E1,6.7E1,1E1,-8.673745E1,1.5E1,1.5350642E3,1.51626E3,4E0,1.5306976E3,7E0,1.5657998E3,1.2715633E2,1.3626479E2,3.1E1,1.6455524E3,4.8555788E-2,-6.453778E-3,-1.0598806E-2,-1.2726958E-3,9.639908E-2,2.5189045E-1,-8.229116E-3,6.1429506E-3,8.21987E-2,4.7205636E-1,1.3630139E-2,6.055307E-2,3.361835E-2,5.3015854E-3,-1.2265358E-4,1.3059566E-2],"split_indices":[2,13,14,2,14,1,1,14,0,14,0,2,2,14,1,0,0,0,0,0,0,0,0,0,0,0,0,0,0,0,0],"split_type":[0,0,0,0,0,0,0,0,0,0,0,0,0,0,0,0,0,0,0,0,0,0,0,0,0,0,0,0,0,0,0],"sum_hessian":[6.4343E4,4.2674E4,2.1669E4,4.0619E4,2.055E3,3.217E3,1.8452E4,6.274E3,3.4345E4,3.4E1,2.021E3,1.6E1,3.201E3,1.65E3,1.6802E4,1.9E1,6.255E3,1.324E3,3.3021E4,2.8E1,6E0,3.97E2,1.624E3,1.4E1,2E0,3.128E3,7.3E1,4.89E2,1.161E3,1.5546E4,1.256E3],"tree_param":{"num_deleted":"0","num_feature":"17","num_nodes":"31","size_leaf_vector":"1"}},{"base_weights":[-6.384024E-4,-6.9925436E-3,7.735428E-2,-8.0459915E-2,-3.7325732E-3,-5.271223E-1,8.250355E-2,-7.530868E-2,-7.213716E-1,-3.462181E-3,-7.354296E-1,-1.492519E0,-2.4785888E-1,9.94808E-1,7.7324435E-2,-1.8429937E-2,-6.2326626E-3,-8.6622365E-2,-2.39013E-2,2.8008542E-3,-8.7485084E-4,-1.5810216E-2,-8.619712E-2,-3.0072123E-2,-1.6039036E-1,4.1227993E-2,-4.755945E-2,5.5296626E-2,4.3452206E-1,1.0843814E-2,-1.2067172E-3],"categories":[],"categories_nodes":[],"categories_segments":[],"categories_sizes":[],"default_left":[0,0,0,0,0,0,0,0,0,0,0,0,0,0,0,0,0,0,0,0,0,0,0,0,0,0,0,0,0,0,0],"id":32,"left_children":[1,3,5,7,9,11,13,15,17,19,21,23,25,27,29,-1,-1,-1,-1,-1,-1,-1,-1,-1,-1,-1,-1,-1,-1,-1,-1],"loss_changes":[3.1826468E1,1.4222014E1,1.5102308E1,8.275326E0,1.1247131E1,1.0683664E1,2.2593277E1,3.5314827E0,1.1903734E0,9.456572E0,1.3978958E0,7.1240425E-1,5.157202E0,3.7566757E1,1.3273695E1,0E0,0E0,0E0,0E0,0E0,0E0,0E0,0E0,0E0,0E0,0E0,0E0,0E0,0E0,0E0,0E0],"parents":[2147483647,0,0,1,1,2,2,3,3,4,4,5,5,6,6,7,7,8,8,9,9,10,10,11,11,12,12,13,13,14,14],"right_children":[2,4,6,8,10,12,14,16,18,20,22,24,26,28,30,-1,-1,-1,-1,-1,-1,-1,-1,-1,-1,-1,-1,-1,-1,-1,-1],"split_conditions":[1.02223885E2,-1.3289363E2,1E1,1.6989703E3,1.51E2,1.6013658E3,1.2E1,1.8E1,1.7252854E3,1.5657473E3,1.567295E3,1.0756436E2,3E0,1.691878E3,6.2E1,-1.8429937E-2,-6.2326626E-3,-8.6622365E-2,-2.39013E-2,2.8008542E-3,-8.7485084E-4,-1.5810216E-2,-8.619712E-2,-3.0072123E-2,-1.6039036E-1,4.1227993E-2,-4.755945E-2,5.5296626E-2,4.3452206E-1,1.0843814E-2,-1.2067172E-3],"split_indices":[2,2,13,0,13,0,13,13,0,1,0,2,13,0,13,0,0,0,0,0,0,0,0,0,0,0,0,0,0,0,0],"split_type":[0,0,0,0,0,0,0,0,0,0,0,0,0,0,0,0,0,0,0,0,0,0,0,0,0,0,0,0,0,0,0],"sum_hessian":[6.4219E4,5.9382E4,4.837E3,2.522E3,5.686E4,4E1,4.797E3,2.503E3,1.9E1,5.684E4,2E1,8E0,3.2E1,2.6E1,4.771E3,2.65E2,2.238E3,1.4E1,5E0,8.174E3,4.8666E4,4E0,1.6E1,1E0,7E0,8E0,2.4E1,2.4E1,2E0,3.539E3,1.232E3],"tree_param":{"num_deleted":"0","num_feature":"17","num_nodes":"31","size_leaf_vector":"1"}},{"base_weights":[2.088929E-3,-3.3455715E-3,4.9936365E-2,1.6886206E-2,-1.49123855E-2,1.3665192E0,4.8123293E-2,-4.3192497E-3,1.2869808E-1,-1.5180352E-2,1.0824916E0,1.7644002E0,4.2806774E-2,7.881318E-2,-2.0153692E-2,-2.1675066E-3,6.296204E-3,1.0400388E-2,4.516721E-2,-1.3467095E-2,-1.3276713E-3,1.2759086E-1,-2.3242189E-2,6.0557503E-2,2.192419E-1,1.9890334E-2,6.4224675E-3,-4.5823795E-3,2.692976E-2],"categories":[],"categories_nodes":[],"categories_segments":[],"categories_sizes":[],"default_left":[0,0,0,0,0,0,0,0,0,0,0,0,0,0,0,0,0,0,0,0,0,0,0,0,0,0,0,0,0],"id":33,"left_children":[1,3,5,7,9,11,13,15,17,19,21,23,-1,25,27,-1,-1,-1,-1,-1,-1,-1,-1,-1,-1,-1,-1,-1,-1],"loss_changes":[1.675214E1,1.35390835E1,1.5619591E1,4.9898712E1,1.084108E1,2.6052456E0,1.3753784E1,2.0659529E1,2.6711113E1,8.369452E0,2.5854874E0,1.6483192E0,0E0,7.9199944E0,1.5140317E1,0E0,0E0,0E0,0E0,0E0,0E0,0E0,0E0,0E0,0E0,0E0,0E0,0E0,0E0],"parents":[2147483647,0,0,1,1,2,2,3,3,4,4,5,5,6,6,7,7,8,8,9,9,10,10,11,11,13,13,14,14],"right_children":[2,4,6,8,10,12,14,16,18,20,22,24,-1,26,28,-1,-1,-1,-1,-1,-1,-1,-1,-1,-1,-1,-1,-1,-1],"split_conditions":[1.6804231E3,1.7E1,1.1E1,1.6E1,2.05E2,1E1,5.6E1,1.6189698E3,5.4E1,3E0,8.2E1,1.6858828E3,4.2806774E-2,2.5E1,1.822237E3,-2.1675066E-3,6.296204E-3,1.0400388E-2,4.516721E-2,-1.3467095E-2,-1.3276713E-3,1.2759086E-1,-2.3242189E-2,6.0557503E-2,2.192419E-1,1.9890334E-2,6.4224675E-3,-4.5823795E-3,2.692976E-2],"split_indices":[0,14,13,13,14,14,14,0,13,13,13,0,0,13,0,0,0,0,0,0,0,0,0,0,0,0,0,0,0],"split_type":[0,0,0,0,0,0,0,0,0,0,0,0,0,0,0,0,0,0,0,0,0,0,0,0,0,0,0,0,0],"sum_hessian":[6.4423E4,5.7853E4,6.57E3,2.1044E4,3.6809E4,8E0,6.562E3,1.769E4,3.354E3,3.6801E4,8E0,5E0,3E0,4.527E3,2.035E3,1.4063E4,3.627E3,3.117E3,2.37E2,5.76E2,3.6225E4,7E0,1E0,2E0,3E0,4.89E2,4.038E3,1.87E3,1.65E2],"tree_param":{"num_deleted":"0","num_feature":"17","num_nodes":"29","size_leaf_vector":"1"}},{"base_weights":[1.974772E-3,-1.0848754E-2,3.0168304E-2,-2.2345588E-2,1.7407345E-2,2.2548288E-1,2.5763495E-2,-6.477636E-2,-1.5568626E-2,2.607186E-1,1.1055468E-2,1.6217001E-1,6.6917783E-1,4.5774713E-2,-8.431523E-3,-1.5310297E-2,-5.0311107E-3,-1.7875644E-3,1.5714586E-2,1.3848315E-2,1.0182174E-1,-1.9381523E-2,1.4143992E-3,2.2280922E-2,-5.7090607E-2,5.7618436E-3,1.3012536E-1,2.9356938E-3,1.1386084E-2,-9.154132E-4,1.7414047E-1],"categories":[],"categories_nodes":[],"categories_segments":[],"categories_sizes":[],"default_left":[0,0,0,0,0,0,0,0,0,0,0,0,0,0,0,0,0,0,0,0,0,0,0,0,0,0,0,0,0,0,0],"id":34,"left_children":[1,3,5,7,9,11,13,15,17,19,21,23,25,27,29,-1,-1,-1,-1,-1,-1,-1,-1,-1,-1,-1,-1,-1,-1,-1,-1],"loss_changes":[2.3234728E1,1.4350563E1,1.7279814E1,9.027827E0,1.9742212E1,1.233606E1,1.3446567E1,5.5169277E0,1.0791384E1,2.9951792E1,7.881723E0,1.7419476E1,2.1185373E1,1.3853189E1,9.189496E0,0E0,0E0,0E0,0E0,0E0,0E0,0E0,0E0,0E0,0E0,0E0,0E0,0E0,0E0,0E0,0E0],"parents":[2147483647,0,0,1,1,2,2,3,3,4,4,5,5,6,6,7,7,8,8,9,9,10,10,11,11,12,12,13,13,14,14],"right_children":[2,4,6,8,10,12,14,16,18,20,22,24,26,28,30,-1,-1,-1,-1,-1,-1,-1,-1,-1,-1,-1,-1,-1,-1,-1,-1],"split_conditions":[2.8612309E1,3.9E1,3E0,-7.9758896E1,9E0,8.698821E1,3.9E1,1.7E1,5.7E1,6.2E1,-2.2689818E2,6.67852E1,2E0,1.02223885E2,2.02E2,-1.5310297E-2,-5.0311107E-3,-1.7875644E-3,1.5714586E-2,1.3848315E-2,1.0182174E-1,-1.9381523E-2,1.4143992E-3,2.2280922E-2,-5.7090607E-2,5.7618436E-3,1.3012536E-1,2.9356938E-3,1.1386084E-2,-9.154132E-4,1.7414047E-1],"split_indices":[2,13,14,2,14,2,14,14,14,13,2,2,14,2,14,0,0,0,0,0,0,0,0,0,0,0,0,0,0,0,0],"split_type":[0,0,0,0,0,0,0,0,0,0,0,0,0,0,0,0,0,0,0,0,0,0,0,0,0,0,0,0,0,0,0],"sum_hessian":[6.4264E4,4.4173E4,2.0091E4,3.1398E4,1.2775E4,4.42E2,1.9649E4,4.323E3,2.7075E4,3.24E2,1.2451E4,3.88E2,5.4E1,1.2395E4,7.254E3,6.07E2,3.716E3,2.6719E4,3.56E2,2.8E2,4.4E1,1.84E2,1.2267E4,3.59E2,2.9E1,2.8E1,2.6E1,9.988E3,2.407E3,7.252E3,2E0],"tree_param":{"num_deleted":"0","num_feature":"17","num_nodes":"31","size_leaf_vector":"1"}},{"base_weights":[-1.8501149E-3,-1.46451965E-2,2.3434265E-2,-9.7548E-3,-7.955811E-2,4.612596E-2,-1.8555038E-2,-1.2964511E-2,1.18696705E-1,9.691288E-2,-9.658806E-2,4.8262805E-2,-4.6983317E-1,-2.6222976E-2,2.738314E-1,-1.6146891E-3,4.8980336E-3,1.3595581E-2,-1.7059011E-2,-1.653242E-2,6.707712E-2,-2.5460398E-2,-5.6077046E-3,4.4983E-3,4.2678732E-2,-2.1755742E-2,-7.941349E-2,-1.5696177E-2,-1.6536219E-3,3.9630197E-2,-5.6992173E-2],"categories":[],"categories_nodes":[],"categories_segments":[],"categories_sizes":[],"default_left":[0,0,0,0,0,0,0,0,0,0,0,0,0,0,0,0,0,0,0,0,0,0,0,0,0,0,0,0,0,0,0],"id":35,"left_children":[1,3,5,7,9,11,13,15,17,19,21,23,25,27,29,-1,-1,-1,-1,-1,-1,-1,-1,-1,-1,-1,-1,-1,-1,-1,-1],"loss_changes":[2.0822784E1,1.356608E1,2.0607243E1,1.6387682E1,9.007204E0,1.5502119E1,1.7019485E1,7.644781E0,4.861245E0,3.9839443E1,1.7467905E1,1.7340504E1,4.5724106E0,9.36269E0,2.0272837E1,0E0,0E0,0E0,0E0,0E0,0E0,0E0,0E0,0E0,0E0,0E0,0E0,0E0,0E0,0E0,0E0],"parents":[2147483647,0,0,1,1,2,2,3,3,4,4,5,5,6,6,7,7,8,8,9,9,10,10,11,11,12,12,13,13,14,14],"right_children":[2,4,6,8,10,12,14,16,18,20,22,24,26,28,30,-1,-1,-1,-1,-1,-1,-1,-1,-1,-1,-1,-1,-1,-1,-1,-1],"split_conditions":[2.4568687E1,1.6752188E1,3.9E1,1.5815875E1,3E0,9.8E1,1.822237E3,6.7E1,4.8E1,1.6117577E3,9E0,1.7758491E3,1.2715633E2,3.3E1,1.41E2,-1.6146891E-3,4.8980336E-3,1.3595581E-2,-1.7059011E-2,-1.653242E-2,6.707712E-2,-2.5460398E-2,-5.6077046E-3,4.4983E-3,4.2678732E-2,-2.1755742E-2,-7.941349E-2,-1.5696177E-2,-1.6536219E-3,3.9630197E-2,-5.6992173E-2],"split_indices":[2,2,14,2,13,13,0,13,14,0,13,0,2,13,13,0,0,0,0,0,0,0,0,0,0,0,0,0,0,0,0],"split_type":[0,0,0,0,0,0,0,0,0,0,0,0,0,0,0,0,0,0,0,0,0,0,0,0,0,0,0,0,0,0,0],"sum_hessian":[6.4362E4,4.2736E4,2.1626E4,3.9743E4,2.993E3,1.4039E4,7.587E3,3.8775E4,9.68E2,2.63E2,2.73E3,1.3982E4,5.7E1,7.394E3,1.93E2,3.6881E4,1.894E3,9.14E2,5.4E1,1.81E2,8.2E1,5.56E2,2.174E3,1.3863E4,1.19E2,3.3E1,2.4E1,5.09E2,6.885E3,1.69E2,2.4E1],"tree_param":{"num_deleted":"0","num_feature":"17","num_nodes":"31","size_leaf_vector":"1"}},{"base_weights":[-4.7753047E-4,-1.4314634E-2,3.0027611E-2,-5.7701297E-2,-1.0293767E-2,4.579105E-2,-4.0038355E-2,-1.259213E-1,-2.1427225E-2,-1.3104129E-2,5.3341128E-2,5.172259E-2,-1.3916506E-1,-8.170975E-2,7.564285E-2,4.3876868E-2,-1.3283295E-2,-2.6009768E-2,-1.1177801E-3,-1.3432921E-3,1.5840818E-1,8.862365E-2,3.6978151E-3,4.9126777E-3,6.930538E-2,7.658198E-2,-1.6813597E-2,-2.4411066E-2,-6.2629106E-3,1.0908333E-1,6.50881E-3],"categories":[],"categories_nodes":[],"categories_segments":[],"categories_sizes":[],"default_left":[0,0,0,0,0,0,0,0,0,0,0,0,0,0,0,0,0,0,0,0,0,0,0,0,0,0,0,0,0,0,0],"id":36,"left_children":[1,3,5,7,9,11,13,15,17,19,21,23,25,27,29,-1,-1,-1,-1,-1,-1,-1,-1,-1,-1,-1,-1,-1,-1,-1,-1],"loss_changes":[2.7180473E1,7.727454E0,2.2195265E1,9.294438E0,7.251292E0,1.8003613E1,1.7799004E1,5.1477184E0,6.0001535E0,2.0412046E1,2.3340357E1,2.6427563E1,1.35000515E1,8.394623E0,1.0408344E1,0E0,0E0,0E0,0E0,0E0,0E0,0E0,0E0,0E0,0E0,0E0,0E0,0E0,0E0,0E0,0E0],"parents":[2147483647,0,0,1,1,2,2,3,3,4,4,5,5,6,6,7,7,8,8,9,9,10,10,11,11,12,12,13,13,14,14],"right_children":[2,4,6,8,10,12,14,16,18,20,22,24,26,28,30,-1,-1,-1,-1,-1,-1,-1,-1,-1,-1,-1,-1,-1,-1,-1,-1],"split_conditions":[2.8612309E1,-1.1445182E2,5.1E1,4E1,6.8E1,6.7E1,1.7166825E3,7E0,1.4726157E3,1.822237E3,1E1,1.7936824E3,1.6102805E3,4.4E1,3.7E1,4.3876868E-2,-1.3283295E-2,-2.6009768E-2,-1.1177801E-3,-1.3432921E-3,1.5840818E-1,8.862365E-2,3.6978151E-3,4.9126777E-3,6.930538E-2,7.658198E-2,-1.6813597E-2,-2.4411066E-2,-6.2629106E-3,1.0908333E-1,6.50881E-3],"split_indices":[2,2,14,14,13,13,0,14,0,0,14,0,0,13,13,0,0,0,0,0,0,0,0,0,0,0,0,0,0,0,0],"split_type":[0,0,0,0,0,0,0,0,0,0,0,0,0,0,0,0,0,0,0,0,0,0,0,0,0,0,0,0,0,0,0],"sum_hessian":[6.4391E4,4.4298E4,2.0093E4,3.756E3,4.0542E4,1.6403E4,3.69E3,1.303E3,2.453E3,3.8828E4,1.714E3,1.5894E4,5.09E2,2.713E3,9.77E2,1.5E1,1.288E3,1E2,2.353E3,3.8821E4,7E0,3.2E1,1.682E3,1.5831E4,6.3E1,1.5E1,4.94E2,2.84E2,2.429E3,9E0,9.68E2],"tree_param":{"num_deleted":"0","num_feature":"17","num_nodes":"31","size_leaf_vector":"1"}},{"base_weights":[-2.3878627E-3,-4.230232E-2,4.1650967E-3,-1.3903536E-1,-2.6830995E-2,3.355928E-2,-1.4911061E-3,-2.2554295E-1,-5.8435943E-2,2.0253797E-1,-3.3699498E-2,1.9010536E-1,8.846742E-3,-2.6512544E-3,3.5887343E-1,9.775365E-2,-2.3317484E-2,1.20578E-2,-1.1473441E-2,6.520642E-2,-1.7974263E-2,3.6490746E-2,-3.6755966E-3,7.460385E-3,6.729283E-2,-3.2063723E-2,2.1294793E-3,-2.2833658E-5,-6.4086444E-3,4.4431273E-2,-7.533932E-2],"categories":[],"categories_nodes":[],"categories_segments":[],"categories_sizes":[],"default_left":[0,0,0,0,0,0,0,0,0,0,0,0,0,0,0,0,0,0,0,0,0,0,0,0,0,0,0,0,0,0,0],"id":37,"left_children":[1,3,5,7,9,11,13,15,17,19,21,23,25,27,29,-1,-1,-1,-1,-1,-1,-1,-1,-1,-1,-1,-1,-1,-1,-1,-1],"loss_changes":[1.6857576E1,1.3598761E1,9.204507E0,8.723314E0,1.2353399E1,3.456085E1,1.9411818E1,5.773735E0,6.56467E0,3.92979E1,9.2849E0,6.787373E1,3.1657589E1,6.889024E0,1.4494396E1,0E0,0E0,0E0,0E0,0E0,0E0,0E0,0E0,0E0,0E0,0E0,0E0,0E0,0E0,0E0,0E0],"parents":[2147483647,0,0,1,1,2,2,3,3,4,4,5,5,6,6,7,7,8,8,9,9,10,10,11,11,12,12,13,13,14,14],"right_children":[2,4,6,8,10,12,14,16,18,20,22,24,26,28,30,-1,-1,-1,-1,-1,-1,-1,-1,-1,-1,-1,-1,-1,-1,-1,-1],"split_conditions":[1.5590392E3,1.6E1,1.5650906E3,1.6058092E3,8E0,1.4E1,2.0179851E2,1.4870782E3,1.6170425E3,1.5923169E3,1.4729222E3,1.6E1,9E0,1.7287341E3,1.41E2,9.775365E-2,-2.3317484E-2,1.20578E-2,-1.1473441E-2,6.520642E-2,-1.7974263E-2,3.6490746E-2,-3.6755966E-3,7.460385E-3,6.729283E-2,-3.2063723E-2,2.1294793E-3,-2.2833658E-5,-6.4086444E-3,4.4431273E-2,-7.533932E-2],"split_indices":[0,13,1,1,14,14,2,1,1,1,1,13,13,1,13,0,0,0,0,0,0,0,0,0,0,0,0,0,0,0,0],"split_type":[0,0,0,0,0,0,0,0,0,0,0,0,0,0,0,0,0,0,0,0,0,0,0,0,0,0,0,0,0,0,0],"sum_hessian":[6.4449E4,9.088E3,5.5361E4,1.252E3,7.836E3,8.933E3,4.6428E4,6.03E2,6.49E2,2.27E2,7.609E3,1.217E3,7.716E3,4.628E4,1.48E2,3E0,6E2,1.55E2,4.94E2,1.04E2,1.23E2,5.7E1,7.552E3,9.83E2,2.34E2,2.8E2,7.436E3,4.4525E4,1.755E3,1.38E2,1E1],"tree_param":{"num_deleted":"0","num_feature":"17","num_nodes":"31","size_leaf_vector":"1"}},{"base_weights":[2.5170268E-3,1.492339E-1,1.5375925E-4,5.742743E-1,1.03482835E-1,5.616195E-4,-4.9662304E-1,2.8266314E-1,1.148931E0,-2.6037422E-1,1.2908167E-1,-1.454647E-3,9.870513E-2,-8.6215675E-1,-2.9444504E-1,4.216149E-2,-1.5246616E-1,-4.4819303E-2,1.3235833E-1,1.801794E-2,-4.9616933E-2,3.1545304E-2,6.482483E-3,5.52766E-3,-5.165093E-4,8.188353E-3,4.2649094E-2,-1.4642762E-2,-1.12617366E-1,-5.9916932E-2,2.6733214E-2],"categories":[],"categories_nodes":[],"categories_segments":[],"categories_sizes":[],"default_left":[0,0,0,0,0,0,0,0,0,0,0,0,0,0,0,0,0,0,0,0,0,0,0,0,0,0,0,0,0,0,0],"id":38,"left_children":[1,3,5,7,9,11,13,15,17,19,21,23,25,27,29,-1,-1,-1,-1,-1,-1,-1,-1,-1,-1,-1,-1,-1,-1,-1,-1],"loss_changes":[2.2331896E1,1.979499E1,1.2843472E1,1.6265293E1,8.630725E0,1.2533292E1,3.5890913E0,1.7468594E1,9.798279E0,6.426104E0,1.0314526E1,1.3064224E1,6.9952784E0,3.2364578E0,6.1517277E0,0E0,0E0,0E0,0E0,0E0,0E0,0E0,0E0,0E0,0E0,0E0,0E0,0E0,0E0,0E0,0E0],"parents":[2147483647,0,0,1,1,2,2,3,3,4,4,5,5,6,6,7,7,8,8,9,9,10,10,11,11,12,12,13,13,14,14],"right_children":[2,4,6,8,10,12,14,16,18,20,22,24,26,28,30,-1,-1,-1,-1,-1,-1,-1,-1,-1,-1,-1,-1,-1,-1,-1,-1],"split_conditions":[1.5028187E3,2.4E1,1.44E2,2.6E1,1.526383E3,8.5E1,1.55E2,1.659812E3,1.5606838E3,1.4729222E3,1.579527E3,3E0,1.822237E3,5E1,1.6752642E3,4.216149E-2,-1.5246616E-1,-4.4819303E-2,1.3235833E-1,1.801794E-2,-4.9616933E-2,3.1545304E-2,6.482483E-3,5.52766E-3,-5.165093E-4,8.188353E-3,4.2649094E-2,-1.4642762E-2,-1.12617366E-1,-5.9916932E-2,2.6733214E-2],"split_indices":[1,14,13,13,0,14,13,0,0,1,0,14,0,14,1,0,0,0,0,0,0,0,0,0,0,0,0,0,0,0,0],"split_type":[0,0,0,0,0,0,0,0,0,0,0,0,0,0,0,0,0,0,0,0,0,0,0,0,0,0,0,0,0,0,0],"sum_hessian":[6.4406E4,1.02E3,6.3386E4,9.8E1,9.22E2,6.3335E4,5.1E1,6.6E1,3.2E1,6E1,8.62E2,6.2061E4,1.274E3,1.7E1,3.4E1,6.2E1,4E0,3E0,2.9E1,2.1E1,3.9E1,2.2E2,6.42E2,3.809E3,5.8252E4,1.213E3,6.1E1,5E0,1.2E1,2.2E1,1.2E1],"tree_param":{"num_deleted":"0","num_feature":"17","num_nodes":"31","size_leaf_vector":"1"}},{"base_weights":[1.6733018E-3,-3.5585808E-3,5.463994E-2,-6.191686E-4,-8.6878955E-2,7.7629164E-2,-4.5250107E-2,-1.3048691E-4,-4.38569E-1,-9.7016364E-2,6.552432E-1,6.89216E-2,5.384378E-1,-1.7976603E-1,3.0213786E-2,4.7230136E-2,-5.2407308E-5,-7.700188E-2,-2.8887762E-2,-1.1411521E-2,5.303652E-3,1.4000247E-1,1.3478205E-2,-1.4931177E-1,7.0262006E-3,1.1440722E-2,9.138909E-2,5.1724803E-2,-2.3318214E-2,1.1231667E-2,-1.4030154E-2],"categories":[],"categories_nodes":[],"categories_segments":[],"categories_sizes":[],"default_left":[0,0,0,0,0,0,0,0,0,0,0,0,0,0,0,0,0,0,0,0,0,0,0,0,0,0,0,0,0,0,0],"id":39,"left_children":[1,3,5,7,9,11,13,15,17,19,21,23,25,27,29,-1,-1,-1,-1,-1,-1,-1,-1,-1,-1,-1,-1,-1,-1,-1,-1],"loss_changes":[1.7817316E1,1.4331269E1,1.3276676E1,1.2096888E1,1.5064819E1,1.8817719E1,1.0988916E1,1.04987545E1,2.9033146E0,5.055414E0,1.0277307E1,9.763397E0,1.3746159E1,1.4603771E1,9.731619E0,0E0,0E0,0E0,0E0,0E0,0E0,0E0,0E0,0E0,0E0,0E0,0E0,0E0,0E0,0E0,0E0],"parents":[2147483647,0,0,1,1,2,2,3,3,4,4,5,5,6,6,7,7,8,8,9,9,10,10,11,11,12,12,13,13,14,14],"right_children":[2,4,6,8,10,12,14,16,18,20,22,24,26,28,30,-1,-1,-1,-1,-1,-1,-1,-1,-1,-1,-1,-1,-1,-1,-1,-1],"split_conditions":[9.283873E1,1.7287341E3,6.7E1,1.19E2,5.1826717E1,1.7936824E3,1.7166825E3,1.4729222E3,1.26E2,8.7E1,6.163432E1,1.5393E3,5.3E1,1.6202878E3,1.6289601E3,4.7230136E-2,-5.2407308E-5,-7.700188E-2,-2.8887762E-2,-1.1411521E-2,5.303652E-3,1.4000247E-1,1.3478205E-2,-1.4931177E-1,7.0262006E-3,1.1440722E-2,9.138909E-2,5.1724803E-2,-2.3318214E-2,1.1231667E-2,-1.4030154E-2],"split_indices":[2,1,13,13,2,0,0,1,13,13,2,0,13,0,1,0,0,0,0,0,0,0,0,0,0,0,0,0,0,0,0],"split_type":[0,0,0,0,0,0,0,0,0,0,0,0,0,0,0,0,0,0,0,0,0,0,0,0,0,0,0,0,0,0,0],"sum_hessian":[6.4294E4,5.8515E4,5.779E3,5.6522E4,1.993E3,4.698E3,1.081E3,5.646E4,6.2E1,1.967E3,2.6E1,4.612E3,8.6E1,3.88E2,6.93E2,4.6E1,5.6414E4,1.8E1,4.4E1,1.766E3,2.01E2,1E1,1.6E1,3E0,4.609E3,4.1E1,4.5E1,2.7E1,3.61E2,4.68E2,2.25E2],"tree_param":{"num_deleted":"0","num_feature":"17","num_nodes":"31","size_leaf_vector":"1"}},{"base_weights":[1.5551507E-3,1.4410517E-1,-6.888893E-4,-6.209416E-1,1.6277015E-1,-8.471529E-3,2.2251448E-2,-9.702481E-1,6.904122E-2,-2.8080723E-1,1.9577399E-1,4.74671E-3,-2.7546765E-2,5.233764E-1,1.8259905E-2,-5.851981E-2,-1.514465E-1,-1.6115202E-2,9.5529355E-2,-1.2133676E-2,-7.520812E-2,1.9958986E-1,1.8761033E-2,-6.4963946E-4,4.380927E-3,-2.6366517E-3,-4.7471356E-2,2.6605856E-1,4.5021337E-2,6.196899E-3,2.7116487E-4],"categories":[],"categories_nodes":[],"categories_segments":[],"categories_sizes":[],"default_left":[0,0,0,0,0,0,0,0,0,0,0,0,0,0,0,0,0,0,0,0,0,0,0,0,0,0,0,0,0,0,0],"id":40,"left_children":[1,3,5,7,9,11,13,15,17,19,21,23,25,27,29,-1,-1,-1,-1,-1,-1,-1,-1,-1,-1,-1,-1,-1,-1,-1,-1],"loss_changes":[2.0619759E1,1.4366373E1,1.1330286E1,5.8513584E0,1.4343374E1,1.1948086E1,3.2146656E1,2.4665508E0,1.9900311E0,5.019235E0,1.2983849E1,1.2293496E1,1.0224053E1,1.866048E1,1.0839453E1,0E0,0E0,0E0,0E0,0E0,0E0,0E0,0E0,0E0,0E0,0E0,0E0,0E0,0E0,0E0,0E0],"parents":[2147483647,0,0,1,1,2,2,3,3,4,4,5,5,6,6,7,7,8,8,9,9,10,10,11,11,12,12,13,13,14,14],"right_children":[2,4,6,8,10,12,14,16,18,20,22,24,26,28,30,-1,-1,-1,-1,-1,-1,-1,-1,-1,-1,-1,-1,-1,-1,-1,-1],"split_conditions":[1.5028187E3,1E1,1.635635E3,1.6013658E3,1.526383E3,1.6118474E3,6E0,1.0756436E2,2.2913414E2,1.5185322E3,1.1E1,3.9E1,1.8031866E1,1.5628677E3,2.7E1,-5.851981E-2,-1.514465E-1,-1.6115202E-2,9.5529355E-2,-1.2133676E-2,-7.520812E-2,1.9958986E-1,1.8761033E-2,-6.4963946E-4,4.380927E-3,-2.6366517E-3,-4.7471356E-2,2.6605856E-1,4.5021337E-2,6.196899E-3,2.7116487E-4],"split_indices":[1,13,0,0,0,1,13,2,2,0,13,13,2,1,13,0,0,0,0,0,0,0,0,0,0,0,0,0,0,0,0],"split_type":[0,0,0,0,0,0,0,0,0,0,0,0,0,0,0,0,0,0,0,0,0,0,0,0,0,0,0,0,0,0,0],"sum_hessian":[6.4458E4,9.98E2,6.346E4,2.3E1,9.75E2,4.7385E4,1.6075E4,1.5E1,8E0,6.7E1,9.08E2,2.799E4,1.9395E4,1.26E2,1.5949E4,1E1,5E0,7E0,1E0,5.1E1,1.6E1,3E0,9.05E2,2.1735E4,6.255E3,1.9345E4,5E1,3E0,1.23E2,4.184E3,1.1765E4],"tree_param":{"num_deleted":"0","num_feature":"17","num_nodes":"31","size_leaf_vector":"1"}},{"base_weights":[1.4174678E-3,-9.536393E-3,2.0276673E-2,-4.1871384E-2,2.8890914E-3,2.3606312E-1,1.1348975E-2,-3.5776395E-2,-2.71653E-1,1.9054615E-1,-6.088607E-3,1.7456497E-1,5.996987E-1,4.272574E-2,-3.660517E-3,-6.700421E-3,2.5823985E-3,-4.2863637E-2,-1.4028381E-2,1.404457E-2,6.753265E-2,-3.7267145E-3,6.1697647E-4,9.908796E-3,3.9041016E-2,-4.788406E-2,6.61936E-2,3.3713789E-3,2.4396198E-2,-8.3805306E-4,1.3633315E-2],"categories":[],"categories_nodes":[],"categories_segments":[],"categories_sizes":[],"default_left":[0,0,0,0,0,0,0,0,0,0,0,0,0,0,0,0,0,0,0,0,0,0,0,0,0,0,0,0,0,0,0],"id":41,"left_children":[1,3,5,7,9,11,13,15,17,19,21,23,25,27,29,-1,-1,-1,-1,-1,-1,-1,-1,-1,-1,-1,-1,-1,-1,-1,-1],"loss_changes":[1.3346159E1,1.6419981E1,4.5726093E1,1.5879135E1,4.9741085E1,2.098354E1,1.0735446E1,2.1263786E1,5.9823456E0,3.2644985E1,1.0769426E1,1.3124725E1,9.446018E0,1.336838E1,1.0190247E1,0E0,0E0,0E0,0E0,0E0,0E0,0E0,0E0,0E0,0E0,0E0,0E0,0E0,0E0,0E0,0E0],"parents":[2147483647,0,0,1,1,2,2,3,3,4,4,5,5,6,6,7,7,8,8,9,9,10,10,11,11,12,12,13,13,14,14],"right_children":[2,4,6,8,10,12,14,16,18,20,22,24,26,28,30,-1,-1,-1,-1,-1,-1,-1,-1,-1,-1,-1,-1,-1,-1,-1,-1],"split_conditions":[1.6180078E3,1E1,6E0,1.6167233E3,1E1,7E0,2.7E1,1.59998E3,5E0,4.9E1,1.5574519E3,1.6292831E3,-8.311226E1,1.6942079E3,1.7936824E3,-6.700421E-3,2.5823985E-3,-4.2863637E-2,-1.4028381E-2,1.404457E-2,6.753265E-2,-3.7267145E-3,6.1697647E-4,9.908796E-3,3.9041016E-2,-4.788406E-2,6.61936E-2,3.3713789E-3,2.4396198E-2,-8.3805306E-4,1.3633315E-2],"split_indices":[0,13,13,0,14,14,13,0,13,13,0,0,2,0,0,0,0,0,0,0,0,0,0,0,0,0,0,0,0,0,0],"split_type":[0,0,0,0,0,0,0,0,0,0,0,0,0,0,0,0,0,0,0,0,0,0,0,0,0,0,0,0,0,0,0],"sum_hessian":[6.4603E4,4.0867E4,2.3736E4,1.1344E4,2.9523E4,9.42E2,2.2794E4,1.1052E4,2.92E2,1.347E3,2.8176E4,8.07E2,1.35E2,7.375E3,1.5419E4,7.334E3,3.718E3,1.32E2,1.6E2,1.222E3,1.25E2,7.951E3,2.0225E4,5.99E2,2.08E2,7E0,1.28E2,7.06E3,3.15E2,1.4917E4,5.02E2],"tree_param":{"num_deleted":"0","num_feature":"17","num_nodes":"31","size_leaf_vector":"1"}},{"base_weights":[-5.952564E-4,2.7583234E-2,-5.533633E-3,8.1935436E-2,-9.484262E-2,-1.8637571E-2,6.774836E-3,3.4918908E-2,2.7447146E-1,-6.580931E-2,-4.0622872E-1,-2.3072542E-1,-1.4909608E-2,1.1768666E-2,-5.828943E-2,3.2427073E-3,1.933692E-1,4.1456666E-2,9.032818E-3,-7.293449E-3,7.012117E-2,-6.6619486E-2,-4.4182176E-4,-5.445342E-2,3.1607755E-2,1.4345762E-3,-3.59343E-3,-2.6067749E-2,1.2934341E-3,-7.2566816E-3,3.519928E-2],"categories":[],"categories_nodes":[],"categories_segments":[],"categories_sizes":[],"default_left":[0,0,0,0,0,0,0,0,0,0,0,0,0,0,0,0,0,0,0,0,0,0,0,0,0,0,0,0,0,0,0],"id":42,"left_children":[1,3,5,7,9,11,13,15,17,19,21,23,25,27,29,-1,-1,-1,-1,-1,-1,-1,-1,-1,-1,-1,-1,-1,-1,-1,-1],"loss_changes":[8.973488E0,6.399374E1,8.849916E0,6.0279236E1,2.670623E1,2.100903E1,9.193969E0,2.526936E1,3.3680008E1,1.483986E1,2.6320251E1,7.8932655E1,1.6065311E1,8.348829E0,1.184064E1,0E0,0E0,0E0,0E0,0E0,0E0,0E0,0E0,0E0,0E0,0E0,0E0,0E0,0E0,0E0,0E0],"parents":[2147483647,0,0,1,1,2,2,3,3,4,4,5,5,6,6,7,7,8,8,9,9,10,10,11,11,12,12,13,13,14,14],"right_children":[2,4,6,8,10,12,14,16,18,20,22,24,26,28,30,-1,-1,-1,-1,-1,-1,-1,-1,-1,-1,-1,-1,-1,-1,-1,-1],"split_conditions":[7E0,1.6097164E3,1.6043237E3,8E0,1.2E1,4E0,1.7287341E3,1.658575E3,1.5929567E3,1.6446455E3,5E0,1.5980121E3,1.5664243E3,1.4726157E3,1.822237E3,3.2427073E-3,1.933692E-1,4.1456666E-2,9.032818E-3,-7.293449E-3,7.012117E-2,-6.6619486E-2,-4.4182176E-4,-5.445342E-2,3.1607755E-2,1.4345762E-3,-3.59343E-3,-2.6067749E-2,1.2934341E-3,-7.2566816E-3,3.519928E-2],"split_indices":[14,1,1,13,13,13,1,0,1,0,14,0,1,0,0,0,0,0,0,0,0,0,0,0,0,0,0,0,0,0,0],"split_type":[0,0,0,0,0,0,0,0,0,0,0,0,0,0,0,0,0,0,0,0,0,0,0,0,0,0,0,0,0,0,0],"sum_hessian":[6.4483E4,9.615E3,5.4868E4,6.659E3,2.956E3,2.6575E4,2.8293E4,5.353E3,1.306E3,2.705E3,2.51E2,4.58E2,2.6117E4,2.6277E4,2.016E3,5.347E3,6E0,7.41E2,5.65E2,2.681E3,2.4E1,1.52E2,9.9E1,2.91E2,1.67E2,1.0921E4,1.5196E4,1.11E2,2.6166E4,1.949E3,6.7E1],"tree_param":{"num_deleted":"0","num_feature":"17","num_nodes":"31","size_leaf_vector":"1"}},{"base_weights":[1.4332607E-3,9.425132E-2,-1.5102857E-5,1.974029E-2,2.3065653E-1,-1.7894253E-1,6.920086E-4,9.690418E-2,-2.819975E-1,1.5001775E0,2.0415275E-1,-2.907299E-1,-1.09719805E-1,9.335188E-4,-3.810382E-1,7.312288E-3,1.08169794E-1,-4.807609E-2,-7.896144E-3,2.454363E-1,6.276309E-2,2.3557393E-2,-4.1409995E-2,-1.44435465E-2,-4.195062E-2,2.2379104E-2,-1.4678686E-2,5.104401E-5,3.0794663E-2,-6.488591E-2,1.6269054E-2],"categories":[],"categories_nodes":[],"categories_segments":[],"categories_sizes":[],"default_left":[0,0,0,0,0,0,0,0,0,0,0,0,0,0,0,0,0,0,0,0,0,0,0,0,0,0,0,0,0,0,0],"id":43,"left_children":[1,3,5,7,9,11,13,15,17,19,21,23,25,27,29,-1,-1,-1,-1,-1,-1,-1,-1,-1,-1,-1,-1,-1,-1,-1,-1],"loss_changes":[8.670879E0,1.0067666E1,8.035386E0,1.4975182E1,1.1470226E1,1.9026575E0,5.832404E0,1.1911774E1,5.2486916E0,4.287565E0,6.7801704E0,1.7291384E0,1.9613626E0,8.211661E0,5.9304395E0,0E0,0E0,0E0,0E0,0E0,0E0,0E0,0E0,0E0,0E0,0E0,0E0,0E0,0E0,0E0,0E0],"parents":[2147483647,0,0,1,1,2,2,3,3,4,4,5,5,6,6,7,7,8,8,9,9,10,10,11,11,12,12,13,13,14,14],"right_children":[2,4,6,8,10,12,14,16,18,20,22,24,26,28,30,-1,-1,-1,-1,-1,-1,-1,-1,-1,-1,-1,-1,-1,-1,-1,-1],"split_conditions":[1.5028187E3,1.6252345E3,-2.2689818E2,1.6054836E3,1.4E1,1.7748068E3,1.47E2,1.6044689E3,1.4870782E3,1.628064E3,8.4E1,1.7342239E3,2.2E1,1.29E2,1.6752642E3,7.312288E-3,1.08169794E-1,-4.807609E-2,-7.896144E-3,2.454363E-1,6.276309E-2,2.3557393E-2,-4.1409995E-2,-1.44435465E-2,-4.195062E-2,2.2379104E-2,-1.4678686E-2,5.104401E-5,3.0794663E-2,-6.488591E-2,1.6269054E-2],"split_indices":[1,0,2,0,13,1,13,0,1,0,13,1,13,13,1,0,0,0,0,0,0,0,0,0,0,0,0,0,0,0,0],"split_type":[0,0,0,0,0,0,0,0,0,0,0,0,0,0,0,0,0,0,0,0,0,0,0,0,0,0,0,0,0,0,0],"sum_hessian":[6.4498E4,9.9E2,6.3508E4,6.41E2,3.49E2,2.49E2,6.3259E4,5.11E2,1.3E2,6E0,3.43E2,9.4E1,1.55E2,6.322E4,3.9E1,5E2,1.1E1,6.5E1,6.5E1,2E0,4E0,3.27E2,1.6E1,4.5E1,4.9E1,1.5E1,1.4E2,6.3134E4,8.6E1,2.6E1,1.3E1],"tree_param":{"num_deleted":"0","num_feature":"17","num_nodes":"31","size_leaf_vector":"1"}},{"base_weights":[4.045602E-3,6.590787E-2,2.0330697E-3,-2.6200294E-1,7.501542E-2,1.2368063E-2,-6.2036877E-3,-7.060555E-1,2.2464621E-1,1.0541878E-1,9.57946E-3,7.965903E-3,1.2687668E-1,-1.3724432E-2,2.2770885E-2,-5.21167E-2,-1.1262419E-1,7.192604E-2,-6.88124E-2,9.537356E-3,6.121249E-2,-1.5325139E-2,8.126282E-3,9.163592E-4,-2.68082E-2,-1.3300856E-2,2.0627154E-2,-8.331577E-3,-8.3223125E-4,7.82892E-2,1.9778027E-3],"categories":[],"categories_nodes":[],"categories_segments":[],"categories_sizes":[],"default_left":[0,0,0,0,0,0,0,0,0,0,0,0,0,0,0,0,0,0,0,0,0,0,0,0,0,0,0,0,0,0,0],"id":44,"left_children":[1,3,5,7,9,11,13,15,17,19,21,23,25,27,29,-1,-1,-1,-1,-1,-1,-1,-1,-1,-1,-1,-1,-1,-1,-1,-1],"loss_changes":[8.009561E0,6.0732145E0,5.3042445E0,1.2043993E1,3.92422E0,1.3929385E1,7.556354E0,1.6659822E0,1.2684607E1,6.7978144E0,7.330962E0,8.8012295E0,2.1135561E1,1.0348955E1,1.6241203E1,0E0,0E0,0E0,0E0,0E0,0E0,0E0,0E0,0E0,0E0,0E0,0E0,0E0,0E0,0E0,0E0],"parents":[2147483647,0,0,1,1,2,2,3,3,4,4,5,5,6,6,7,7,8,8,9,9,10,10,11,11,12,12,13,13,14,14],"right_children":[2,4,6,8,10,12,14,16,18,20,22,24,26,28,30,-1,-1,-1,-1,-1,-1,-1,-1,-1,-1,-1,-1,-1,-1,-1,-1],"split_conditions":[1.5196656E3,1E1,1.600268E3,1.5989567E3,5E1,1.598905E3,1.650425E3,6E0,1.6146919E3,1.7252854E3,5.5E1,1.01E2,1.5805929E3,1.60305E3,8E0,-5.21167E-2,-1.1262419E-1,7.192604E-2,-6.88124E-2,9.537356E-3,6.121249E-2,-1.5325139E-2,8.126282E-3,9.163592E-4,-2.68082E-2,-1.3300856E-2,2.0627154E-2,-8.331577E-3,-8.3223125E-4,7.82892E-2,1.9778027E-3],"split_indices":[1,13,1,0,13,1,0,13,0,0,13,13,0,1,13,0,0,0,0,0,0,0,0,0,0,0,0,0,0,0,0],"split_type":[0,0,0,0,0,0,0,0,0,0,0,0,0,0,0,0,0,0,0,0,0,0,0,0,0,0,0,0,0,0,0],"sum_hessian":[6.4334E4,2.026E3,6.2308E4,5.4E1,1.972E3,2.7634E4,3.4674E4,2.8E1,2.6E1,1.346E3,6.26E2,2.6612E4,1.022E3,2.7529E4,7.145E3,2.1E1,7E0,1.7E1,9E0,1.321E3,2.5E1,1.91E2,4.35E2,2.6498E4,1.14E2,2.39E2,7.83E2,1.982E3,2.5547E4,2.7E1,7.118E3],"tree_param":{"num_deleted":"0","num_feature":"17","num_nodes":"31","size_leaf_vector":"1"}},{"base_weights":[-7.7993853E-4,2.044398E-2,-6.3719912E-3,8.412558E-2,-5.4374367E-2,-2.2959143E-2,6.9623934E-3,5.532947E-2,2.4771293E-1,-1.0504506E-1,-2.471861E-3,-3.0281729E-1,-1.7895592E-2,-1.4872319E-2,2.2164753E-2,1.718939E-2,3.7199482E-3,4.3240282E-1,2.3618182E-2,-8.336963E-3,-6.974057E-2,3.3394115E-3,-2.0581162E-2,-4.856147E-2,2.34317E-2,-1.9142426E-3,4.4412594E-2,-2.2782632E-3,6.0899653E-3,2.0729488E-2,1.5761312E-3],"categories":[],"categories_nodes":[],"categories_segments":[],"categories_sizes":[],"default_left":[0,0,0,0,0,0,0,0,0,0,0,0,0,0,0,0,0,0,0,0,0,0,0,0,0,0,0,0,0,0,0],"id":45,"left_children":[1,3,5,7,9,11,13,15,17,19,21,23,25,27,29,-1,-1,-1,-1,-1,-1,-1,-1,-1,-1,-1,-1,-1,-1,-1,-1],"loss_changes":[7.6315937E0,6.389245E1,1.1256427E1,3.4110447E1,1.6215923E1,3.2133865E1,9.365329E0,1.3013718E1,4.993154E1,4.0001633E1,2.2228577E1,3.9683044E1,1.2842056E1,6.942806E0,1.9714651E1,0E0,0E0,0E0,0E0,0E0,0E0,0E0,0E0,0E0,0E0,0E0,0E0,0E0,0E0,0E0,0E0],"parents":[2147483647,0,0,1,1,2,2,3,3,4,4,5,5,6,6,7,7,8,8,9,9,10,10,11,11,12,12,13,13,14,14],"right_children":[2,4,6,8,10,12,14,16,18,20,22,24,26,28,30,-1,-1,-1,-1,-1,-1,-1,-1,-1,-1,-1,-1,-1,-1,-1,-1],"split_conditions":[1E1,1.6016888E3,1.5996362E3,1.5E1,5E0,4E0,-5.1931133E1,2E0,1.5294753E3,1.6370808E3,1.63811E3,1.6049592E3,1.822237E3,7.5E1,8E0,1.718939E-2,3.7199482E-3,4.3240282E-1,2.3618182E-2,-8.336963E-3,-6.974057E-2,3.3394115E-3,-2.0581162E-2,-4.856147E-2,2.34317E-2,-1.9142426E-3,4.4412594E-2,-2.2782632E-3,6.0899653E-3,2.0729488E-2,1.5761312E-3],"split_indices":[14,1,1,13,14,13,2,14,1,0,1,0,0,14,13,0,0,0,0,0,0,0,0,0,0,0,0,0,0,0,0],"split_type":[0,0,0,0,0,0,0,0,0,0,0,0,0,0,0,0,0,0,0,0,0,0,0,0,0,0,0,0,0,0,0],"sum_hessian":[6.4299E4,1.3408E4,5.0891E4,7.243E3,6.165E3,2.2679E4,2.8212E4,6.16E3,1.083E3,3.119E3,3.046E3,4.02E2,2.2277E4,1.158E4,1.6632E4,8.28E2,5.332E3,2E0,1.081E3,3.01E3,1.09E2,2.59E3,4.56E2,3E2,1.02E2,2.2218E4,5.9E1,1.0486E4,1.094E3,5.55E2,1.6077E4],"tree_param":{"num_deleted":"0","num_feature":"17","num_nodes":"31","size_leaf_vector":"1"}},{"base_weights":[-2.0105473E-3,-1.654792E-3,-3.8343567E-1,-1.7519221E-3,1.560901E0,-8.259123E-1,-2.434759E-1,-1.911012E-3,9.286785E-1,-7.4087502E-3,2.130593E-1,-1.6411933E-1,-9.914814E-2,8.790886E-1,-4.291948E-1,2.990905E-3,-5.8647105E-4,1.0673802E-1,-2.2916932E-2,-3.0695999E-2,1.3220131E-2,3.2170027E-2,1.5150397E-1,-1.2811379E-1,-2.1611424E-2],"categories":[],"categories_nodes":[],"categories_segments":[],"categories_sizes":[],"default_left":[0,0,0,0,0,0,0,0,0,0,0,0,0,0,0,0,0,0,0,0,0,0,0,0,0],"id":46,"left_children":[1,3,5,7,9,11,13,15,17,-1,-1,19,-1,21,23,-1,-1,-1,-1,-1,-1,-1,-1,-1,-1],"loss_changes":[8.7372465E0,9.766927E0,3.5146446E0,9.524333E0,3.8836088E0,1.3712931E0,1.0175928E1,8.092329E0,2.01116E0,0E0,0E0,2.0988706E-1,0E0,1.9939137E0,7.1659617E0,0E0,0E0,0E0,0E0,0E0,0E0,0E0,0E0,0E0,0E0],"parents":[2147483647,0,0,1,1,2,2,3,3,4,4,5,5,6,6,7,7,8,8,11,11,13,13,14,14],"right_children":[2,4,6,8,10,12,14,16,18,-1,-1,20,-1,22,24,-1,-1,-1,-1,-1,-1,-1,-1,-1,-1],"split_conditions":[1.41E2,1.39E2,1.45E2,2.05E2,1.7758491E3,1.7936824E3,1.48E2,1.552138E3,9.2E1,-7.4087502E-3,2.130593E-1,1.6272246E3,-9.914814E-2,1.7748068E3,1.52E2,2.990905E-3,-5.8647105E-4,1.0673802E-1,-2.2916932E-2,-3.0695999E-2,1.3220131E-2,3.2170027E-2,1.5150397E-1,-1.2811379E-1,-2.1611424E-2],"split_indices":[13,13,13,14,0,0,13,1,13,0,0,1,0,1,13,0,0,0,0,0,0,0,0,0,0],"split_type":[0,0,0,0,0,0,0,0,0,0,0,0,0,0,0,0,0,0,0,0,0,0,0,0,0],"sum_hessian":[6.4393E4,6.4334E4,5.9E1,6.4331E4,3E0,1.3E1,4.6E1,6.4321E4,1E1,1E0,2E0,3E0,1E1,6E0,4E1,7.108E3,5.7213E4,9E0,1E0,2E0,1E0,4E0,2E0,7E0,3.3E1],"tree_param":{"num_deleted":"0","num_feature":"17","num_nodes":"25","size_leaf_vector":"1"}},{"base_weights":[-2.9572702E-4,-1.9859087E-2,8.73516E-3,-4.989013E-2,6.90766E-4,1.3640756E-2,-3.2500282E-2,-3.9608285E-2,-1.0611966E-1,2.6499617E-3,-2.2955991E-1,7.409878E-3,5.8613002E-2,1.026376E-1,-5.022399E-2,-4.810662E-3,7.4543813E-3,-4.0426422E-2,-9.135773E-3,2.2314263E-5,3.384796E-2,-1.45849455E-2,-5.2733213E-2,8.420597E-3,4.0887055E-4,5.6511708E-2,5.3157816E-3,7.0702205E-3,7.115226E-2,-5.7035447E-3,3.359829E-2],"categories":[],"categories_nodes":[],"categories_segments":[],"categories_sizes":[],"default_left":[0,0,0,0,0,0,0,0,0,0,0,0,0,0,0,0,0,0,0,0,0,0,0,0,0,0,0,0,0,0,0],"id":47,"left_children":[1,3,5,7,9,11,13,15,17,19,21,23,25,27,29,-1,-1,-1,-1,-1,-1,-1,-1,-1,-1,-1,-1,-1,-1,-1,-1],"loss_changes":[1.1388258E1,1.256364E1,8.921389E0,4.7776184E0,5.4535794E0,1.1043741E1,1.123599E1,6.7884846E0,5.5877876E0,9.769303E0,2.4656072E0,8.829083E0,1.3221668E1,1.0527767E1,1.0925754E1,0E0,0E0,0E0,0E0,0E0,0E0,0E0,0E0,0E0,0E0,0E0,0E0,0E0,0E0,0E0,0E0],"parents":[2147483647,0,0,1,1,2,2,3,3,4,4,5,5,6,6,7,7,8,8,9,9,10,10,11,11,12,12,13,13,14,14],"right_children":[2,4,6,8,10,12,14,16,18,20,22,24,26,28,30,-1,-1,-1,-1,-1,-1,-1,-1,-1,-1,-1,-1,-1,-1,-1,-1],"split_conditions":[-2.8613787E1,2.8E1,5.6E1,1.5973949E3,1.25E2,9.283873E1,-1.5176797E1,1.5904468E3,6E0,1.14E2,-7.514936E1,-2.3975872E1,3E0,-1.5732662E1,2.2913414E2,-4.810662E-3,7.4543813E-3,-4.0426422E-2,-9.135773E-3,2.2314263E-5,3.384796E-2,-1.45849455E-2,-5.2733213E-2,8.420597E-3,4.0887055E-4,5.6511708E-2,5.3157816E-3,7.0702205E-3,7.115226E-2,-5.7035447E-3,3.359829E-2],"split_indices":[2,14,14,0,14,2,2,0,14,14,2,2,14,2,2,0,0,0,0,0,0,0,0,0,0,0,0,0,0,0,0],"split_type":[0,0,0,0,0,0,0,0,0,0,0,0,0,0,0,0,0,0,0,0,0,0,0,0,0,0,0,0,0,0,0],"sum_hessian":[6.4457E4,2.0357E4,4.41E4,8.27E3,1.2087E4,3.9412E4,4.688E3,6.993E3,1.277E3,1.1986E4,1.01E2,3.4617E4,4.795E3,5.43E2,4.145E3,6.509E3,4.84E2,5.9E1,1.218E3,1.1901E4,8.5E1,8E1,2.1E1,1.434E3,3.3183E4,5E1,4.745E3,5.17E2,2.6E1,4.074E3,7.1E1],"tree_param":{"num_deleted":"0","num_feature":"17","num_nodes":"31","size_leaf_vector":"1"}},{"base_weights":[-1.266086E-3,-1.9250409E-3,1.466448E-1,1.6747137E-3,-2.5638532E-2,6.9155467E-1,-1.4286353E-2,5.1536104E-3,-4.8789177E-2,-5.957571E-2,3.3371326E-2,1.6202533E-1,8.47173E-1,-3.7153396E-1,2.5082316E-2,5.564936E-4,-3.337624E-2,-1.518857E-2,-2.943173E-3,-5.6902985E-3,-5.846882E-2,1.9157078E-2,1.0759024E-3,3.901489E-2,-9.565597E-2,1.10191144E-1,2.878623E-2,2.8424248E-2,-5.3305335E-2,9.6895665E-2,-1.929243E-3],"categories":[],"categories_nodes":[],"categories_segments":[],"categories_sizes":[],"default_left":[0,0,0,0,0,0,0,0,0,0,0,0,0,0,0,0,0,0,0,0,0,0,0,0,0,0,0,0,0,0,0],"id":48,"left_children":[1,3,5,7,9,11,13,15,17,19,21,23,25,27,29,-1,-1,-1,-1,-1,-1,-1,-1,-1,-1,-1,-1,-1,-1,-1,-1],"loss_changes":[6.2629013E0,5.4606977E0,2.500238E1,9.750779E0,1.6886147E1,5.2190247E0,3.117543E0,7.2451897E0,7.1440754E0,7.4795685E0,1.1012303E1,4.456011E0,6.8067017E0,2.481769E0,8.39553E0,0E0,0E0,0E0,0E0,0E0,0E0,0E0,0E0,0E0,0E0,0E0,0E0,0E0,0E0,0E0,0E0],"parents":[2147483647,0,0,1,1,2,2,3,3,4,4,5,5,6,6,7,7,8,8,9,9,10,10,11,11,12,12,13,13,14,14],"right_children":[2,4,6,8,10,12,14,16,18,20,22,24,26,28,30,-1,-1,-1,-1,-1,-1,-1,-1,-1,-1,-1,-1,-1,-1,-1,-1],"split_conditions":[1.14E2,5.6E1,1.19E2,1.6803295E3,1.6721162E3,1.678548E3,1.6228439E3,1.11E2,1.685723E3,1.08E2,3.7E1,1.16E2,1.7928136E3,1.5586989E3,1.6277758E3,5.564936E-4,-3.337624E-2,-1.518857E-2,-2.943173E-3,-5.6902985E-3,-5.846882E-2,1.9157078E-2,1.0759024E-3,3.901489E-2,-9.565597E-2,1.10191144E-1,2.878623E-2,2.8424248E-2,