{"learner":{"attributes":{"scikit_learn":"{\"_estimator_type\": \"regressor\"}"},"feature_names":[],"feature_types":[],"gradient_booster":{"model":{"cats":{"enc":[],"feature_segments":[],"sorted_idx":[]},"gbtree_model_param":{"num_parallel_tree":"1","num_trees":"200"},"iteration_indptr":[0,1,2,3,4,5,6,7,8,9,10,11,12,13,14,15,16,17,18,19,20,21,22,23,24,25,26,27,28,29,30,31,32,33,34,35,36,37,38,39,40,41,42,43,44,45,46,47,48,49,50,51,52,53,54,55,56,57,58,59,60,61,62,63,64,65,66,67,68,69,70,71,72,73,74,75,76,77,78,79,80,81,82,83,84,85,86,87,88,89,90,91,92,93,94,95,96,97,98,99,100,101,102,103,104,105,106,107,108,109,110,111,112,113,114,115,116,117,118,119,120,121,122,123,124,125,126,127,128,129,130,131,132,133,134,135,136,137,138,139,140,141,142,143,144,145,146,147,148,149,150,151,152,153,154,155,156,157,158,159,160,161,162,163,164,165,166,167,168,169,170,171,172,173,174,175,176,177,178,179,180,181,182,183,184,185,186,187,188,189,190,191,192,193,194,195,196,197,198,199,200],"tree_info":[0,0,0,0,0,0,0,0,0,0,0,0,0,0,0,0,0,0,0,0,0,0,0,0,0,0,0,0,0,0,0,0,0,0,0,0,0,0,0,0,0,0,0,0,0,0,0,0,0,0,0,0,0,0,0,0,0,0,0,0,0,0,0,0,0,0,0,0,0,0,0,0,0,0,0,0,0,0,0,0,0,0,0,0,0,0,0,0,0,0,0,0,0,0,0,0,0,0,0,0,0,0,0,0,0,0,0,0,0,0,0,0,0,0,0,0,0,0,0,0,0,0,0,0,0,0,0,0,0,0,0,0,0,0,0,0,0,0,0,0,0,0,0,0,0,0,0,0,0,0,0,0,0,0,0,0,0,0,0,0,0,0,0,0,0,0,0,0,0,0,0,0,0,0,0,0,0,0,0,0,0,0,0,0,0,0,0,0,0,0,0,0,0,0,0,0,0,0,0,0],"trees":[{"base_weights":[-2.3805029E-3,4.5647267E-1,-3.2231766E-1,7.7896976E-1,3.3889234E-1,-1.2069069E-1,-4.2001343E-1,1.1543226E0,6.9800514E-1,8.0408025E-1,2.359496E-1,-6.5895603E-3,-1.7189823E-1,-5.711021E-1,-3.7081257E-1,1.8098031E-1,1.0894301E-1,1.0853002E-1,6.394767E-2,4.3438196E-2,1.0021972E-1,3.9701626E-2,1.5195811E-2,-1.32256E-3,9.640571E-2,-2.8995693E-2,-9.5718E-3,-6.4568445E-2,-5.041167E-2,-2.6374266E-2,-4.925504E-2],"categories":[],"categories_nodes":[],"categories_segments":[],"categories_sizes":[],"default_left":[0,0,0,0,0,0,0,0,0,0,0,0,0,0,0,0,0,0,0,0,0,0,0,0,0,0,0,0,0,0,0],"id":0,"left_children":[1,3,5,7,9,11,13,15,17,19,21,23,25,27,29,-1,-1,-1,-1,-1,-1,-1,-1,-1,-1,-1,-1,-1,-1,-1,-1],"loss_changes":[9.427617E3,1.00012354E3,7.452671E2,2.1338525E2,9.2571924E2,7.216379E1,1.8925049E2,5.1155518E1,1.307793E2,2.5613672E2,2.1413214E2,2.4663414E1,7.664386E1,3.0943848E1,2.5050977E2,0E0,0E0,0E0,0E0,0E0,0E0,0E0,0E0,0E0,0E0,0E0,0E0,0E0,0E0,0E0,0E0],"parents":[2147483647,0,0,1,1,2,2,3,3,4,4,5,5,6,6,7,7,8,8,9,9,10,10,11,11,12,12,13,13,14,14],"right_children":[2,4,6,8,10,12,14,16,18,20,22,24,26,28,30,-1,-1,-1,-1,-1,-1,-1,-1,-1,-1,-1,-1,-1,-1,-1,-1],"split_conditions":[-1.3864732E1,-8.4958015E1,1.5815875E1,-1.6332005E2,8E0,-3.9758718E0,1.3E1,1.4726157E3,2E1,1.6111676E3,-5.406541E1,1.97E2,1.2E1,6E0,6.554902E1,1.8098031E-1,1.0894301E-1,1.0853002E-1,6.394767E-2,4.3438196E-2,1.0021972E-1,3.9701626E-2,1.5195811E-2,-1.32256E-3,9.640571E-2,-2.8995693E-2,-9.5718E-3,-6.4568445E-2,-5.041167E-2,-2.6374266E-2,-4.925504E-2],"split_indices":[2,2,2,2,10,2,10,0,10,1,2,20,10,10,2,0,0,0,0,0,0,0,0,0,0,0,0,0,0,0,0],"split_type":[0,0,0,0,0,0,0,0,0,0,0,0,0,0,0,0,0,0,0,0,0,0,0,0,0,0,0,0,0,0,0],"sum_hessian":[6.4217E4,2.6381E4,3.7836E4,7.047E3,1.9334E4,1.235E4,2.5486E4,1.248E3,5.799E3,3.502E3,1.5832E4,3.826E3,8.524E3,6.258E3,1.9228E4,1.1E2,1.138E3,7.59E2,5.04E3,1.223E3,2.279E3,5.425E3,1.0407E4,3.801E3,2.5E1,3.342E3,5.182E3,2.957E3,3.301E3,1.0232E4,8.996E3],"tree_param":{"num_deleted":"0","num_feature":"25","num_nodes":"31","size_leaf_vector":"1"}},{"base_weights":[9.761315E-5,4.4580606E-1,-2.6923382E-1,1.1932708E0,3.846218E-1,-5.3788353E-2,-3.624758E-1,1.3177569E0,3.311722E-1,7.907972E-1,2.8448376E-1,2.627312E-2,-1.2722541E-1,-5.286709E-1,-3.258838E-1,1.1900146E-1,1.7804746E-1,5.361094E-2,-4.69859E-2,1.0249417E-1,6.988444E-2,5.562508E-2,2.115777E-2,9.902928E-2,2.6272124E-4,-2.4326911E-2,-5.670643E-3,-5.8914643E-2,-4.8278958E-2,-2.6248459E-2,-4.8625547E-2],"categories":[],"categories_nodes":[],"categories_segments":[],"categories_sizes":[],"default_left":[0,0,0,0,0,0,0,0,0,0,0,0,0,0,0,0,0,0,0,0,0,0,0,0,0,0,0,0,0,0,0],"id":1,"left_children":[1,3,5,7,9,11,13,15,17,19,21,23,25,27,29,-1,-1,-1,-1,-1,-1,-1,-1,-1,-1,-1,-1,-1,-1,-1,-1],"loss_changes":[7.7354697E3,1.1095737E3,8.068779E2,1.9660156E2,9.1236865E2,7.134494E1,1.7031396E2,9.269165E1,3.850143E1,9.481348E1,3.5654456E2,1.3234587E2,5.17782E1,1.3747192E1,2.3349976E2,0E0,0E0,0E0,0E0,0E0,0E0,0E0,0E0,0E0,0E0,0E0,0E0,0E0,0E0,0E0,0E0],"parents":[2147483647,0,0,1,1,2,2,3,3,4,4,5,5,6,6,7,7,8,8,9,9,10,10,11,11,12,12,13,13,14,14],"right_children":[2,4,6,8,10,12,14,16,18,20,22,24,26,28,30,-1,-1,-1,-1,-1,-1,-1,-1,-1,-1,-1,-1,-1,-1,-1,-1],"split_conditions":[-1.9106472E1,4E0,1.0109031E1,1.5977753E3,-1.0592724E2,-4.1464405E0,9E0,8E0,1.6083829E3,-1.6332005E2,1.3E1,2E0,1.1E1,5E0,8.5167816E1,1.1900146E-1,1.7804746E-1,5.361094E-2,-4.69859E-2,1.0249417E-1,6.988444E-2,5.562508E-2,2.115777E-2,9.902928E-2,2.6272124E-4,-2.4326911E-2,-5.670643E-3,-5.8914643E-2,-4.8278958E-2,-2.6248459E-2,-4.8625547E-2],"split_indices":[2,9,2,0,2,2,10,10,0,2,9,9,10,9,2,0,0,0,0,0,0,0,0,0,0,0,0,0,0,0,0],"split_type":[0,0,0,0,0,0,0,0,0,0,0,0,0,0,0,0,0,0,0,0,0,0,0,0,0,0,0,0,0,0,0],"sum_hessian":[6.4437E4,2.4271E4,4.0166E4,1.835E3,2.2436E4,1.2133E4,2.8033E4,1.603E3,2.32E2,4.436E3,1.8E4,5.805E3,6.328E3,5.056E3,2.2977E4,1.259E3,3.44E2,1.85E2,4.7E1,1.248E3,3.188E3,3.806E3,1.4194E4,1.38E2,5.667E3,2.391E3,3.937E3,2.176E3,2.88E3,1.6469E4,6.508E3],"tree_param":{"num_deleted":"0","num_feature":"25","num_nodes":"31","size_leaf_vector":"1"}},{"base_weights":[4.55452E-5,2.9727694E-1,-1.7823867E-1,-1.37642855E-2,5.427337E-1,-3.3782703E-1,2.8877601E-2,1.156402E0,-4.0607825E-2,1.1739151E0,4.5778465E-1,-3.7955824E-1,-2.2915603E-1,2.825914E-1,-5.638558E-2,-4.7142874E-3,1.5335955E-1,1.4286891E-2,-1.0436382E-2,1.0572288E-1,1.6805767E-1,3.399061E-2,6.304904E-2,-4.603932E-2,-3.2309573E-2,-1.7428672E-2,-3.916568E-2,2.3453258E-2,7.080377E-2,-1.2322863E-2,2.3906132E-2],"categories":[],"categories_nodes":[],"categories_segments":[],"categories_sizes":[],"default_left":[0,0,0,0,0,0,0,0,0,0,0,0,0,0,0,0,0,0,0,0,0,0,0,0,0,0,0,0,0,0,0],"id":2,"left_children":[1,3,5,7,9,11,13,15,17,19,21,23,25,27,29,-1,-1,-1,-1,-1,-1,-1,-1,-1,-1,-1,-1,-1,-1,-1,-1],"loss_changes":[3.414306E3,1.8443267E3,1.3312E3,3.347669E2,7.2341675E2,1.0307031E2,3.7918942E2,1.0857095E2,1.2188199E2,9.2875244E1,2.4209058E2,7.48584E1,5.622931E1,8.99823E1,2.5913068E2,0E0,0E0,0E0,0E0,0E0,0E0,0E0,0E0,0E0,0E0,0E0,0E0,0E0,0E0,0E0,0E0],"parents":[2147483647,0,0,1,1,2,2,3,3,4,4,5,5,6,6,7,7,8,8,9,9,10,10,11,11,12,12,13,13,14,14],"right_children":[2,4,6,8,10,12,14,16,18,20,22,24,26,28,30,-1,-1,-1,-1,-1,-1,-1,-1,-1,-1,-1,-1,-1,-1,-1,-1],"split_conditions":[1.5904468E3,1.6E3,1.6100192E3,3E0,4E0,1.5933278E3,1.6087622E3,3E0,1.5456318E3,8E0,1.6428801E3,1.8E1,1.6456272E3,1.7006886E3,1.7006886E3,-4.7142874E-3,1.5335955E-1,1.4286891E-2,-1.0436382E-2,1.0572288E-1,1.6805767E-1,3.399061E-2,6.304904E-2,-4.603932E-2,-3.2309573E-2,-1.7428672E-2,-3.916568E-2,2.3453258E-2,7.080377E-2,-1.2322863E-2,2.3906132E-2],"split_indices":[0,1,1,9,9,1,0,10,0,10,1,10,0,1,1,0,0,0,0,0,0,0,0,0,0,0,0,0,0,0,0],"split_type":[0,0,0,0,0,0,0,0,0,0,0,0,0,0,0,0,0,0,0,0,0,0,0,0,0,0,0,0,0,0,0],"sum_hessian":[6.4429E4,2.4156E4,4.0273E4,1.0655E4,1.3501E4,2.2746E4,1.7527E4,2.38E2,1.0417E4,1.6E3,1.1901E4,1.6433E4,6.313E3,4.408E3,1.3119E4,5.7E1,1.81E2,2.686E3,7.731E3,1.303E3,2.97E2,7.075E3,4.826E3,6.755E3,9.678E3,4.721E3,1.592E3,3.962E3,4.46E2,1.0699E4,2.42E3],"tree_param":{"num_deleted":"0","num_feature":"25","num_nodes":"31","size_leaf_vector":"1"}},{"base_weights":[1.8148919E-3,3.4065536E-1,-2.3430878E-1,8.773116E-1,2.8319684E-1,-8.3937906E-2,-3.0488002E-1,1.2133181E0,7.1105397E-1,4.966133E-1,1.1977348E-1,2.3085007E-3,-1.237963E-1,-4.0088794E-1,-2.5951353E-1,1.1598629E-1,2.3166087E-1,9.9224456E-2,5.5673476E-2,8.0462396E-2,4.2344604E-2,3.717971E-2,7.513981E-3,6.591287E-2,-1.4944432E-3,-2.6223782E-2,-8.875878E-3,-4.1521575E-2,-1.738525E-2,-1.9595204E-2,-3.7954066E-2],"categories":[],"categories_nodes":[],"categories_segments":[],"categories_sizes":[],"default_left":[0,0,0,0,0,0,0,0,0,0,0,0,0,0,0,0,0,0,0,0,0,0,0,0,0,0,0,0,0,0,0],"id":3,"left_children":[1,3,5,7,9,11,13,15,17,19,21,23,25,27,29,-1,-1,-1,-1,-1,-1,-1,-1,-1,-1,-1,-1,-1,-1,-1,-1],"loss_changes":[5.1458105E3,8.14209E2,4.021958E2,1.4181287E2,8.321116E2,4.162326E1,1.1225171E2,4.7089355E1,7.369324E1,2.3284229E2,1.5198752E2,4.3389034E1,4.0144936E1,2.6848877E1,1.335951E2,0E0,0E0,0E0,0E0,0E0,0E0,0E0,0E0,0E0,0E0,0E0,0E0,0E0,0E0,0E0,0E0],"parents":[2147483647,0,0,1,1,2,2,3,3,4,4,5,5,6,6,7,7,8,8,9,9,10,10,11,11,12,12,13,13,14,14],"right_children":[2,4,6,8,10,12,14,16,18,20,22,24,26,28,30,-1,-1,-1,-1,-1,-1,-1,-1,-1,-1,-1,-1,-1,-1,-1,-1],"split_conditions":[-1.3864732E1,5E0,1.5184357E1,2E0,-6.4259895E1,-3.9758718E0,1.7E1,5.4E1,-3.8355717E1,-1.4271841E2,1E1,2E0,5E0,1.6136423E3,8.336793E1,1.1598629E-1,2.3166087E-1,9.9224456E-2,5.5673476E-2,8.0462396E-2,4.2344604E-2,3.717971E-2,7.513981E-3,6.591287E-2,-1.4944432E-3,-2.6223782E-2,-8.875878E-3,-4.1521575E-2,-1.738525E-2,-1.9595204E-2,-3.7954066E-2],"split_indices":[2,9,2,9,2,2,10,10,2,2,9,9,10,1,2,0,0,0,0,0,0,0,0,0,0,0,0,0,0,0,0],"split_type":[0,0,0,0,0,0,0,0,0,0,0,0,0,0,0,0,0,0,0,0,0,0,0,0,0,0,0,0,0,0,0],"sum_hessian":[6.4314E4,2.6412E4,3.7902E4,2.553E3,2.3859E4,1.2107E4,2.5795E4,8.43E2,1.71E3,1.0346E4,1.3513E4,3.827E3,8.28E3,8.275E3,1.752E4,8.06E2,3.7E1,6.04E2,1.106E3,1.984E3,8.362E3,2.032E3,1.1481E4,9.7E1,3.73E3,1.671E3,6.609E3,7.783E3,4.92E2,1.1456E4,6.064E3],"tree_param":{"num_deleted":"0","num_feature":"25","num_nodes":"31","size_leaf_vector":"1"}},{"base_weights":[7.8333373E-4,3.29663E-1,-1.9879255E-1,7.072167E-1,2.6389685E-1,-3.428389E-2,-2.7002174E-1,8.372605E-1,3.2243547E-1,4.6095854E-1,1.0819957E-1,2.084889E-2,-8.671179E-2,-3.7939903E-1,-2.3581167E-1,7.479497E-2,1.2972265E-1,8.538503E-2,2.291259E-2,8.286908E-2,4.034319E-2,2.4599157E-2,6.51517E-3,8.106189E-2,1.2483423E-4,-2.1186491E-2,-5.2812807E-3,-3.841185E-2,3.3928435E-2,-1.3843565E-2,-3.17334E-2],"categories":[],"categories_nodes":[],"categories_segments":[],"categories_sizes":[],"default_left":[0,0,0,0,0,0,0,0,0,0,0,0,0,0,0,0,0,0,0,0,0,0,0,0,0,0,0,0,0,0,0],"id":4,"left_children":[1,3,5,7,9,11,13,15,17,19,21,23,25,27,29,-1,-1,-1,-1,-1,-1,-1,-1,-1,-1,-1,-1,-1,-1,-1,-1],"loss_changes":[4.227644E3,6.038093E2,4.6969946E2,1.802688E2,6.35619E2,3.501438E1,1.04579956E2,1.09781006E2,4.507647E1,1.9310144E2,6.864282E1,9.140794E1,2.6330887E1,2.2729736E1,1.6912964E2,0E0,0E0,0E0,0E0,0E0,0E0,0E0,0E0,0E0,0E0,0E0,0E0,0E0,0E0,0E0,0E0],"parents":[2147483647,0,0,1,1,2,2,3,3,4,4,5,5,6,6,7,7,8,8,9,9,10,10,11,11,12,12,13,13,14,14],"right_children":[2,4,6,8,10,12,14,16,18,20,22,24,26,28,30,-1,-1,-1,-1,-1,-1,-1,-1,-1,-1,-1,-1,-1,-1,-1,-1],"split_conditions":[-1.9106472E1,8E0,1.0109031E1,1.5904468E3,-6.9159744E1,-3.9758718E0,1.2E1,1.2E1,-7.815546E1,-1.6332005E2,1.7E1,2E0,5E0,1.6321813E3,5.1826717E1,7.479497E-2,1.2972265E-1,8.538503E-2,2.291259E-2,8.286908E-2,4.034319E-2,2.4599157E-2,6.51517E-3,8.106189E-2,1.2483423E-4,-2.1186491E-2,-5.2812807E-3,-3.841185E-2,3.3928435E-2,-1.3843565E-2,-3.17334E-2],"split_indices":[2,9,2,0,2,2,10,10,2,2,9,9,10,1,2,0,0,0,0,0,0,0,0,0,0,0,0,0,0,0,0],"split_type":[0,0,0,0,0,0,0,0,0,0,0,0,0,0,0,0,0,0,0,0,0,0,0,0,0,0,0,0,0,0,0],"sum_hessian":[6.4408E4,2.4324E4,4.0084E4,3.607E3,2.0717E4,1.2112E4,2.7972E4,2.695E3,9.12E2,9.143E3,1.1574E4,5.904E3,6.208E3,6.662E3,2.131E4,2.259E3,4.36E2,1.35E2,7.77E2,1.235E3,7.908E3,2.754E3,8.82E3,1.42E2,5.762E3,1.322E3,4.886E3,6.619E3,4.3E1,9.712E3,1.1598E4],"tree_param":{"num_deleted":"0","num_feature":"25","num_nodes":"31","size_leaf_vector":"1"}},{"base_weights":[-1.2365821E-3,2.749915E-1,-1.9394569E-1,6.7791015E-1,2.2175269E-1,-7.862007E-2,-2.4841714E-1,8.096053E-1,3.1644246E-1,4.1804972E-1,9.1816805E-2,-3.9918292E-2,-1.3735329E-1,-3.055012E-1,-1.9284904E-1,7.7501364E-2,1.8977869E-1,1.7461398E-1,2.733177E-2,5.6690097E-2,3.3055626E-2,2.3970222E-2,3.7955754E-3,2.0690197E-3,-6.785471E-3,-2.4416735E-2,-7.530872E-3,-2.7923856E-2,-4.3283712E-2,-9.712213E-3,-2.643366E-2],"categories":[],"categories_nodes":[],"categories_segments":[],"categories_sizes":[],"default_left":[0,0,0,0,0,0,0,0,0,0,0,0,0,0,0,0,0,0,0,0,0,0,0,0,0,0,0,0,0,0,0],"id":5,"left_children":[1,3,5,7,9,11,13,15,17,19,21,23,25,27,29,-1,-1,-1,-1,-1,-1,-1,-1,-1,-1,-1,-1,-1,-1,-1,-1],"loss_changes":[3.4266824E3,5.6731213E2,2.3818591E2,1.4669592E2,5.9598645E2,2.7648804E1,8.163403E1,8.3675415E1,5.0450058E1,1.2102246E2,1.1199842E2,1.2420907E1,3.2004395E1,4.235681E1,8.929968E1,0E0,0E0,0E0,0E0,0E0,0E0,0E0,0E0,0E0,0E0,0E0,0E0,0E0,0E0,0E0,0E0],"parents":[2147483647,0,0,1,1,2,2,3,3,4,4,5,5,6,6,7,7,8,8,9,9,10,10,11,11,12,12,13,13,14,14],"right_children":[2,4,6,8,10,12,14,16,18,20,22,24,26,28,30,-1,-1,-1,-1,-1,-1,-1,-1,-1,-1,-1,-1,-1,-1,-1,-1],"split_conditions":[-1.3864732E1,6E0,1.5184357E1,1.5904468E3,-6.9159744E1,3.5259974E0,2.7E1,5.4E1,2E0,-1.1766151E2,1.6E1,1.5880121E3,1.2E1,8.5167816E1,5.6081806E1,7.7501364E-2,1.8977869E-1,1.7461398E-1,2.733177E-2,5.6690097E-2,3.3055626E-2,2.3970222E-2,3.7955754E-3,2.0690197E-3,-6.785471E-3,-2.4416735E-2,-7.530872E-3,-2.7923856E-2,-4.3283712E-2,-9.712213E-3,-2.643366E-2],"split_indices":[2,9,2,0,2,2,10,10,10,2,9,0,10,2,2,0,0,0,0,0,0,0,0,0,0,0,0,0,0,0,0],"split_type":[0,0,0,0,0,0,0,0,0,0,0,0,0,0,0,0,0,0,0,0,0,0,0,0,0,0,0,0,0,0,0],"sum_hessian":[6.4371E4,2.6453E4,3.7918E4,3.086E3,2.3367E4,1.2165E4,2.5753E4,2.261E3,8.25E2,9.306E3,1.4061E4,7.334E3,4.831E3,1.2701E4,1.3052E4,2.193E3,6.8E1,2.3E1,8.02E2,3.443E3,5.863E3,3.753E3,1.0308E4,2.314E3,5.02E3,1.774E3,3.057E3,1.0532E4,2.169E3,5.581E3,7.471E3],"tree_param":{"num_deleted":"0","num_feature":"25","num_nodes":"31","size_leaf_vector":"1"}},{"base_weights":[-2.2519095E-4,-1.509046E-1,1.510182E-1,-2.889497E-1,-1.2895472E-1,8.73644E-1,1.3610679E-1,-3.4321207E-1,-1.1585923E-1,-1.8677236E-1,-6.0495593E-2,-3.1459188E-1,8.83373E-1,1.18454464E-1,4.400286E-1,-4.1018497E-2,-2.5959099E-2,9.726125E-3,-1.8783301E-2,-2.3383847E-2,-1.3802667E-2,-9.768091E-3,-1.9254871E-3,-4.831327E-2,1.4993151E-3,8.503597E-2,1.2142382E-1,2.0864427E-3,1.5340914E-2,7.63051E-2,3.396238E-2],"categories":[],"categories_nodes":[],"categories_segments":[],"categories_sizes":[],"default_left":[0,0,0,0,0,0,0,0,0,0,0,0,0,0,0,0,0,0,0,0,0,0,0,0,0,0,0,0,0,0,0],"id":6,"left_children":[1,3,5,7,9,11,13,15,17,19,21,23,25,27,29,-1,-1,-1,-1,-1,-1,-1,-1,-1,-1,-1,-1,-1,-1,-1,-1],"loss_changes":[1.4639823E3,9.747052E1,3.4533978E2,4.1417847E1,1.098945E2,7.7690735E0,1.6847632E2,1.8710693E1,1.6201004E1,3.4503357E1,1.9497204E1,3.4053487E-1,5.9909363E0,1.0127609E2,5.5655334E1,0E0,0E0,0E0,0E0,0E0,0E0,0E0,0E0,0E0,0E0,0E0,0E0,0E0,0E0,0E0,0E0],"parents":[2147483647,0,0,1,1,2,2,3,3,4,4,5,5,6,6,7,7,8,8,9,9,10,10,11,11,12,12,13,13,14,14],"right_children":[2,4,6,8,10,12,14,16,18,20,22,24,26,28,30,-1,-1,-1,-1,-1,-1,-1,-1,-1,-1,-1,-1,-1,-1,-1,-1],"split_conditions":[1.6035233E3,5E0,2E0,1.6E3,1.576137E3,1.6043237E3,1.7342239E3,3E0,1.6009769E3,3.1E1,7E0,1.6038862E3,1.6122423E3,1.618636E3,5.1E1,-4.1018497E-2,-2.5959099E-2,9.726125E-3,-1.8783301E-2,-2.3383847E-2,-1.3802667E-2,-9.768091E-3,-1.9254871E-3,-4.831327E-2,1.4993151E-3,8.503597E-2,1.2142382E-1,2.0864427E-3,1.5340914E-2,7.63051E-2,3.396238E-2],"split_indices":[1,10,10,1,1,1,1,10,1,10,19,1,1,1,10,0,0,0,0,0,0,0,0,0,0,0,0,0,0,0,0],"split_type":[0,0,0,0,0,0,0,0,0,0,0,0,0,0,0,0,0,0,0,0,0,0,0,0,0,0,0,0,0,0,0],"sum_hessian":[6.4238E4,3.2179E4,3.2059E4,4.413E3,2.7766E4,6.47E2,3.1412E4,3.359E3,1.054E3,1.5052E4,1.2714E4,5E0,6.42E2,2.9689E4,1.723E3,1.863E3,1.496E3,2.66E2,7.88E2,7.656E3,7.396E3,6.685E3,6.029E3,3E0,2E0,5.87E2,5.5E1,7.83E3,2.1859E4,4.07E2,1.316E3],"tree_param":{"num_deleted":"0","num_feature":"25","num_nodes":"31","size_leaf_vector":"1"}},{"base_weights":[-3.7277862E-4,1.9986771E-1,-1.2006182E-1,8.8662165E-1,1.5631513E-1,-2.0843795E-1,4.5005735E-3,6.75253E-1,1.3714603E0,-1.1668877E-2,3.0925173E-1,-1.7622982E-1,-2.9178056E-1,1.5134123E-1,-6.669727E-2,7.31991E-2,2.132207E-2,1.5205531E-1,1.0531171E-1,3.220852E-2,-3.301667E-3,5.2237123E-2,2.4143135E-2,-2.4080165E-2,-1.1869655E-2,-4.137701E-2,-2.4735093E-2,6.040079E-2,1.2472574E-2,-1.0341785E-2,2.5198355E-2],"categories":[],"categories_nodes":[],"categories_segments":[],"categories_sizes":[],"default_left":[0,0,0,0,0,0,0,0,0,0,0,0,0,0,0,0,0,0,0,0,0,0,0,0,0,0,0,0,0,0,0],"id":7,"left_children":[1,3,5,7,9,11,13,15,17,19,21,23,25,27,29,-1,-1,-1,-1,-1,-1,-1,-1,-1,-1,-1,-1,-1,-1,-1,-1],"loss_changes":[1.5428256E3,7.201815E2,4.4353802E2,1.4623474E2,5.8185114E2,6.3214966E1,1.7484468E2,2.6111145E1,1.9044983E1,7.691695E1,1.7122424E2,6.313434E1,3.549585E1,6.571851E1,1.3182729E2,0E0,0E0,0E0,0E0,0E0,0E0,0E0,0E0,0E0,0E0,0E0,0E0,0E0,0E0,0E0,0E0],"parents":[2147483647,0,0,1,1,2,2,3,3,4,4,5,5,6,6,7,7,8,8,9,9,10,10,11,11,12,12,13,13,14,14],"right_children":[2,4,6,8,10,12,14,16,18,20,22,24,26,28,30,-1,-1,-1,-1,-1,-1,-1,-1,-1,-1,-1,-1,-1,-1,-1,-1],"split_conditions":[1.5904468E3,3E0,1.6118474E3,5E0,1.6016888E3,1.6456272E3,1.6157501E3,1.5898904E3,2E0,1.506937E3,1.54451E3,1.4E1,2E1,4E0,1.7287341E3,7.31991E-2,2.132207E-2,1.5205531E-1,1.0531171E-1,3.220852E-2,-3.301667E-3,5.2237123E-2,2.4143135E-2,-2.4080165E-2,-1.1869655E-2,-4.137701E-2,-2.4735093E-2,6.040079E-2,1.2472574E-2,-1.0341785E-2,2.5198355E-2],"split_indices":[0,9,1,10,1,0,0,0,9,0,0,10,10,10,1,0,0,0,0,0,0,0,0,0,0,0,0,0,0,0,0],"split_type":[0,0,0,0,0,0,0,0,0,0,0,0,0,0,0,0,0,0,0,0,0,0,0,0,0,0,0,0,0,0,0],"sum_hessian":[6.4372E4,2.4082E4,4.029E4,1.435E3,2.2647E4,2.3568E4,1.6722E4,1.001E3,4.34E2,1.0793E4,1.1854E4,1.7001E4,6.567E3,5.46E3,1.1262E4,8.91E2,1.1E2,2.93E2,1.41E2,6.48E2,1.0145E4,2.86E3,8.994E3,8.009E3,8.992E3,1.751E3,4.816E3,3.02E2,5.158E3,1.0099E4,1.163E3],"tree_param":{"num_deleted":"0","num_feature":"25","num_nodes":"31","size_leaf_vector":"1"}},{"base_weights":[1.6433613E-3,2.4987611E-1,-1.3316715E-1,5.959414E-1,1.937379E-1,-1.5892847E-2,-1.9116975E-1,1.0348371E0,5.484175E-1,4.262341E-1,1.2614183E-1,5.1393807E-2,-4.973573E-2,-2.7317214E-1,-1.6282174E-1,1.3411735E-1,8.8111214E-2,6.579113E-2,4.3042097E-2,9.8959714E-2,3.9200865E-2,2.5119638E-2,7.630501E-3,9.7570335E-4,3.9098214E-2,-2.3902323E-2,-4.4003166E-3,-2.7854642E-2,1.0594503E-2,-9.39149E-3,-2.3321597E-2],"categories":[],"categories_nodes":[],"categories_segments":[],"categories_sizes":[],"default_left":[0,0,0,0,0,0,0,0,0,0,0,0,0,0,0,0,0,0,0,0,0,0,0,0,0,0,0,0,0,0,0],"id":8,"left_children":[1,3,5,7,9,11,13,15,17,19,21,23,25,27,29,-1,-1,-1,-1,-1,-1,-1,-1,-1,-1,-1,-1,-1,-1,-1,-1],"loss_changes":[2.155742E3,4.403446E2,2.8396906E2,6.542737E1,3.0654626E2,3.1463993E1,6.488641E1,1.3322479E1,3.6628906E1,8.433441E1,9.4188614E1,6.53766E1,9.964825E0,1.4646423E1,1.0067261E2,0E0,0E0,0E0,0E0,0E0,0E0,0E0,0E0,0E0,0E0,0E0,0E0,0E0,0E0,0E0,0E0],"parents":[2147483647,0,0,1,1,2,2,3,3,4,4,5,5,6,6,7,7,8,8,9,9,10,10,11,11,12,12,13,13,14,14],"right_children":[2,4,6,8,10,12,14,16,18,20,22,24,26,28,30,-1,-1,-1,-1,-1,-1,-1,-1,-1,-1,-1,-1,-1,-1,-1,-1],"split_conditions":[-2.3624418E1,8E0,1.0109031E1,-8.311226E1,-1.0592724E2,1E1,1.3E1,1.678548E3,4E0,-2.2689818E2,2E1,1.1E1,6E0,1.6277758E3,5.829847E1,1.3411735E-1,8.8111214E-2,6.579113E-2,4.3042097E-2,9.8959714E-2,3.9200865E-2,2.5119638E-2,7.630501E-3,9.7570335E-4,3.9098214E-2,-2.3902323E-2,-4.4003166E-3,-2.7854642E-2,1.0594503E-2,-9.39149E-3,-2.3321597E-2],"split_indices":[2,9,2,2,2,9,10,1,9,2,9,10,10,1,2,0,0,0,0,0,0,0,0,0,0,0,0,0,0,0,0],"split_type":[0,0,0,0,0,0,0,0,0,0,0,0,0,0,0,0,0,0,0,0,0,0,0,0,0,0,0,0,0,0,0],"sum_hessian":[6.4417E4,2.2671E4,4.1746E4,3.163E3,1.9508E4,1.3815E4,2.7931E4,3.07E2,2.856E3,4.393E3,1.5115E4,4.623E3,9.192E3,7.173E3,2.0758E4,1E2,2.07E2,1.479E3,1.377E3,2.5E2,4.143E3,4.306E3,1.0809E4,4.119E3,5.04E2,2.69E2,8.923E3,7.073E3,1E2,1.0491E4,1.0267E4],"tree_param":{"num_deleted":"0","num_feature":"25","num_nodes":"31","size_leaf_vector":"1"}},{"base_weights":[4.7500385E-4,1.6949011E-1,-1.00553766E-1,7.462286E-1,1.3191962E-1,-1.8443482E-1,-1.5444928E-2,5.330465E-1,1.2448618E0,2.9511964E-2,3.0706066E-1,-2.3592384E-1,-1.4234784E-1,1.1924471E-1,-6.260387E-2,5.753935E-2,1.858798E-2,1.15127765E-1,1.9536644E-1,9.243779E-3,-7.4960003E-3,4.5963835E-2,2.1945026E-2,-1.6293583E-2,-2.733455E-2,-9.532912E-3,-2.305681E-2,8.264623E-3,3.8769677E-2,-8.60716E-3,1.8902857E-2],"categories":[],"categories_nodes":[],"categories_segments":[],"categories_sizes":[],"default_left":[0,0,0,0,0,0,0,0,0,0,0,0,0,0,0,0,0,0,0,0,0,0,0,0,0,0,0,0,0,0,0],"id":9,"left_children":[1,3,5,7,9,11,13,15,17,19,21,23,25,27,29,-1,-1,-1,-1,-1,-1,-1,-1,-1,-1,-1,-1,-1,-1,-1,-1],"loss_changes":[1.1009186E3,5.225637E2,2.8807797E2,1.5612854E2,4.061826E2,4.4006714E1,1.2724079E2,1.5109039E1,2.7003479E1,9.396232E1,1.11597046E2,2.4917084E1,4.6373474E1,5.1008507E1,8.763234E1,0E0,0E0,0E0,0E0,0E0,0E0,0E0,0E0,0E0,0E0,0E0,0E0,0E0,0E0,0E0,0E0],"parents":[2147483647,0,0,1,1,2,2,3,3,4,4,5,5,6,6,7,7,8,8,9,9,10,10,11,11,12,12,13,13,14,14],"right_children":[2,4,6,8,10,12,14,16,18,20,22,24,26,28,30,-1,-1,-1,-1,-1,-1,-1,-1,-1,-1,-1,-1,-1,-1,-1,-1],"split_conditions":[1.5904468E3,3E0,1.6026362E3,5E0,1.6191143E3,1.8E1,1.6087622E3,1.5898904E3,5.7E1,1.5733862E3,2.2E1,1.6075653E3,1.6525989E3,1.6895273E3,1.7287341E3,5.753935E-2,1.858798E-2,1.15127765E-1,1.9536644E-1,9.243779E-3,-7.4960003E-3,4.5963835E-2,2.1945026E-2,-1.6293583E-2,-2.733455E-2,-9.532912E-3,-2.305681E-2,8.264623E-3,3.8769677E-2,-8.60716E-3,1.8902857E-2],"split_indices":[0,9,1,10,1,10,0,0,10,0,9,0,0,1,1,0,0,0,0,0,0,0,0,0,0,0,0,0,0,0,0],"split_type":[0,0,0,0,0,0,0,0,0,0,0,0,0,0,0,0,0,0,0,0,0,0,0,0,0,0,0,0,0,0,0],"sum_hessian":[6.4472E4,2.412E4,4.0352E4,1.474E3,2.2646E4,2.0322E4,2.003E4,1.034E3,4.4E2,1.4291E4,8.355E3,9.138E3,1.1184E4,5.194E3,1.4836E4,9.21E2,1.13E2,3.91E2,4.9E1,8.919E3,5.372E3,3.046E3,5.309E3,3.099E3,6.039E3,7.297E3,3.887E3,4.572E3,6.22E2,1.3571E4,1.265E3],"tree_param":{"num_deleted":"0","num_feature":"25","num_nodes":"31","size_leaf_vector":"1"}},{"base_weights":[-1.1561635E-3,2.0116583E-1,-1.108403E-1,4.767005E-1,1.5646651E-1,-3.1250292E-3,-1.520552E-1,5.645629E-1,2.4337436E-1,4.039276E-1,1.0381762E-1,9.870321E-2,-3.6711194E-2,-1.2965858E-1,-2.3010567E-1,8.489767E-2,5.0000876E-2,7.957591E-2,1.5835088E-2,8.6689025E-2,3.659047E-2,2.2221753E-2,5.886217E-3,4.320797E-2,-9.126983E-4,-2.2369424E-2,-3.229272E-3,-1.7311422E-2,-7.3604407E-3,-3.4451153E-2,-2.0452453E-2],"categories":[],"categories_nodes":[],"categories_segments":[],"categories_sizes":[],"default_left":[0,0,0,0,0,0,0,0,0,0,0,0,0,0,0,0,0,0,0,0,0,0,0,0,0,0,0,0,0,0,0],"id":10,"left_children":[1,3,5,7,9,11,13,15,17,19,21,23,25,27,29,-1,-1,-1,-1,-1,-1,-1,-1,-1,-1,-1,-1,-1,-1,-1,-1],"loss_changes":[1.425694E3,2.7808698E2,1.84948E2,6.448053E1,2.5315497E2,3.943646E1,5.2641235E1,4.1601746E1,4.045234E1,5.969214E1,8.5288864E1,1.0281538E2,7.156581E0,5.7023132E1,1.9587738E1,0E0,0E0,0E0,0E0,0E0,0E0,0E0,0E0,0E0,0E0,0E0,0E0,0E0,0E0,0E0,0E0],"parents":[2147483647,0,0,1,1,2,2,3,3,4,4,5,5,6,6,7,7,8,8,9,9,10,10,11,11,12,12,13,13,14,14],"right_children":[2,4,6,8,10,12,14,16,18,20,22,24,26,28,30,-1,-1,-1,-1,-1,-1,-1,-1,-1,-1,-1,-1,-1,-1,-1,-1],"split_conditions":[-2.3624418E1,8E0,4.8022766E0,1.5892047E3,-1.1766151E2,7E0,8.5167816E1,-5.727784E1,-9.45306E1,-2.2689818E2,2E1,1.5881958E3,4E0,2.7E1,2E1,8.489767E-2,5.0000876E-2,7.957591E-2,1.5835088E-2,8.6689025E-2,3.659047E-2,2.2221753E-2,5.886217E-3,4.320797E-2,-9.126983E-4,-2.2369424E-2,-3.229272E-3,-1.7311422E-2,-7.3604407E-3,-3.4451153E-2,-2.0452453E-2],"split_indices":[2,9,2,0,2,9,2,2,2,2,9,0,10,10,10,0,0,0,0,0,0,0,0,0,0,0,0,0,0,0,0],"split_type":[0,0,0,0,0,0,0,0,0,0,0,0,0,0,0,0,0,0,0,0,0,0,0,0,0,0,0,0,0,0,0],"sum_hessian":[6.4243E4,2.2584E4,4.1659E4,3.151E3,1.9433E4,1.1529E4,3.013E4,2.288E3,8.63E2,3.408E3,1.6025E4,2.859E3,8.67E3,2.3414E4,6.716E3,4.21E2,1.867E3,1.14E2,7.49E2,2.57E2,3.151E3,4.409E3,1.1616E4,6.98E2,2.161E3,1.99E2,8.471E3,1.3188E4,1.0226E4,1.225E3,5.491E3],"tree_param":{"num_deleted":"0","num_feature":"25","num_nodes":"31","size_leaf_vector":"1"}},{"base_weights":[-1.8005363E-4,1.3097247E-1,-7.8533664E-2,5.5168045E-1,9.345347E-2,-1.4394866E-1,-7.615228E-3,4.1022024E-1,8.949688E-1,6.8768347E-3,2.455716E-1,-2.2504008E-1,-1.2342748E-1,1.2203885E0,-1.2479987E-2,4.9052443E-2,-1.5213955E-3,1.09942496E-1,6.763127E-2,1.30460905E-2,-3.4553707E-3,4.33661E-2,1.8418783E-2,-9.4344085E-3,-2.6529048E-2,-8.720244E-3,-1.8509876E-2,1.0972357E-1,1.9234733E-1,6.149029E-3,-7.456276E-3],"categories":[],"categories_nodes":[],"categories_segments":[],"categories_sizes":[],"default_left":[0,0,0,0,0,0,0,0,0,0,0,0,0,0,0,0,0,0,0,0,0,0,0,0,0,0,0,0,0,0,0],"id":11,"left_children":[1,3,5,7,9,11,13,15,17,19,21,23,25,27,29,-1,-1,-1,-1,-1,-1,-1,-1,-1,-1,-1,-1,-1,-1,-1,-1],"loss_changes":[6.588222E2,3.7841446E2,1.8618571E2,9.495935E1,2.8993314E2,3.471344E1,1.150614E2,4.756395E1,2.4828064E1,7.1845406E1,9.211203E1,2.2148254E1,3.7209717E1,4.4701004E0,8.809829E1,0E0,0E0,0E0,0E0,0E0,0E0,0E0,0E0,0E0,0E0,0E0,0E0,0E0,0E0,0E0,0E0],"parents":[2147483647,0,0,1,1,2,2,3,3,4,4,5,5,6,6,7,7,8,8,9,9,10,10,11,11,12,12,13,13,14,14],"right_children":[2,4,6,8,10,12,14,16,18,20,22,24,26,28,30,-1,-1,-1,-1,-1,-1,-1,-1,-1,-1,-1,-1,-1,-1,-1,-1],"split_conditions":[1.5904468E3,4E0,1.6043237E3,5E0,1.6203113E3,6E0,2E0,1.5884907E3,2E0,1.5456318E3,1.7E1,1.5997013E3,1.6410636E3,1.24E2,1.6269128E3,4.9052443E-2,-1.5213955E-3,1.09942496E-1,6.763127E-2,1.30460905E-2,-3.4553707E-3,4.33661E-2,1.8418783E-2,-9.4344085E-3,-2.6529048E-2,-8.720244E-3,-1.8509876E-2,1.0972357E-1,1.9234733E-1,6.149029E-3,-7.456276E-3],"split_indices":[0,9,1,10,1,10,10,0,9,0,9,0,0,19,0,0,0,0,0,0,0,0,0,0,0,0,0,0,0,0,0],"split_type":[0,0,0,0,0,0,0,0,0,0,0,0,0,0,0,0,0,0,0,0,0,0,0,0,0,0,0,0,0,0,0],"sum_hessian":[6.4109E4,2.3976E4,4.0133E4,1.962E3,2.2014E4,2.0876E4,1.9257E4,1.391E3,5.71E2,1.403E4,7.984E3,4.214E3,1.6662E4,7.5E1,1.9182E4,1.17E3,2.21E2,2.93E2,2.78E2,3.522E3,1.0508E4,1.963E3,6.021E3,9.93E2,3.221E3,1.0498E4,6.164E3,6.6E1,9E0,8.753E3,1.0429E4],"tree_param":{"num_deleted":"0","num_feature":"25","num_nodes":"31","size_leaf_vector":"1"}},{"base_weights":[3.7737119E-3,1.0562097E-1,-8.761169E-2,8.675198E-3,2.2462699E-1,-1.15700915E-1,9.0208516E-2,-8.379228E-2,4.8265122E-2,3.839281E-1,1.5534423E-1,-1.573852E-1,-6.298706E-2,1.5254559E-1,-3.4443296E-2,4.9384575E-2,-1.0019806E-2,1.0485941E-2,-2.0674844E-3,1.0090052E-1,3.619544E-2,3.189187E-2,7.94065E-3,-1.9735245E-2,-1.0416619E-2,-7.6502975E-4,-1.2753761E-2,1.2809268E-2,5.4403007E-2,1.6103847E-1,-4.191197E-3],"categories":[],"categories_nodes":[],"categories_segments":[],"categories_sizes":[],"default_left":[0,0,0,0,0,0,0,0,0,0,0,0,0,0,0,0,0,0,0,0,0,0,0,0,0,0,0,0,0,0,0],"id":12,"left_children":[1,3,5,7,9,11,13,15,17,19,21,23,25,27,29,-1,-1,-1,-1,-1,-1,-1,-1,-1,-1,-1,-1,-1,-1,-1,-1],"loss_changes":[5.987512E2,3.5100366E2,1.6937015E2,6.138435E1,1.5068127E2,6.433258E1,3.5951256E1,4.768838E1,4.5810947E1,5.6484985E1,1.182271E2,3.47583E1,4.6192368E1,2.945324E1,1.9022762E1,0E0,0E0,0E0,0E0,0E0,0E0,0E0,0E0,0E0,0E0,0E0,0E0,0E0,0E0,0E0,0E0],"parents":[2147483647,0,0,1,1,2,2,3,3,4,4,5,5,6,6,7,7,8,8,9,9,10,10,11,11,12,12,13,13,14,14],"right_children":[2,4,6,8,10,12,14,16,18,20,22,24,26,28,30,-1,-1,-1,-1,-1,-1,-1,-1,-1,-1,-1,-1,-1,-1,-1,-1],"split_conditions":[1.6002101E3,1.6100192E3,1.6737803E3,1.5635906E3,1.3E1,1.6009769E3,1.6877808E3,5E0,1.5805929E3,1.5456318E3,1.5515239E3,2.7E1,1.6370808E3,1.7928136E3,1.6E1,4.9384575E-2,-1.0019806E-2,1.0485941E-2,-2.0674844E-3,1.0090052E-1,3.619544E-2,3.189187E-2,7.94065E-3,-1.9735245E-2,-1.0416619E-2,-7.6502975E-4,-1.2753761E-2,1.2809268E-2,5.4403007E-2,1.6103847E-1,-4.191197E-3],"split_indices":[0,1,1,1,9,1,0,9,0,0,0,10,0,1,10,0,0,0,0,0,0,0,0,0,0,0,0,0,0,0,0],"split_type":[0,0,0,0,0,0,0,0,0,0,0,0,0,0,0,0,0,0,0,0,0,0,0,0,0,0,0,0,0,0,0],"sum_hessian":[6.4329E4,3.0423E4,3.3906E4,1.6766E4,1.3657E4,2.9281E4,4.625E3,5.026E3,1.174E4,4.138E3,9.519E3,1.635E4,1.2931E4,3.083E3,1.542E3,1.38E2,4.888E3,6.447E3,5.293E3,1.39E2,3.999E3,3.017E3,6.502E3,9.336E3,7.014E3,6.963E3,5.968E3,2.903E3,1.8E2,6E0,1.536E3],"tree_param":{"num_deleted":"0","num_feature":"25","num_nodes":"31","size_leaf_vector":"1"}},{"base_weights":[1.187723E-3,1.4855057E-1,-8.821248E-2,3.6009145E-1,1.1672749E-1,-4.6740323E-2,-1.5032181E-1,5.171453E-1,3.00287E-1,2.4503836E-1,4.5872226E-2,-1.3269928E-1,-3.148724E-2,-1.378511E-1,-2.9697156E-1,4.3534968E-2,8.86881E-2,4.1324977E-2,1.7773233E-2,3.9628264E-2,1.830834E-2,1.103722E-2,1.9099972E-4,-1.6912384E-2,4.5157846E-2,2.5574265E-2,-3.7896459E-3,-1.8703984E-2,-1.0574549E-2,-1.64462E-2,-3.2185756E-2],"categories":[],"categories_nodes":[],"categories_segments":[],"categories_sizes":[],"default_left":[0,0,0,0,0,0,0,0,0,0,0,0,0,0,0,0,0,0,0,0,0,0,0,0,0,0,0,0,0,0,0],"id":13,"left_children":[1,3,5,7,9,11,13,15,17,19,21,23,25,27,29,-1,-1,-1,-1,-1,-1,-1,-1,-1,-1,-1,-1,-1,-1,-1,-1],"loss_changes":[8.451424E2,1.6302435E2,1.0283984E2,2.959082E1,1.914285E2,3.1388416E1,2.9194672E1,2.5985565E1,3.1712631E1,7.0120605E1,3.846986E1,7.6862015E1,3.7446617E1,2.3250244E1,4.075699E0,0E0,0E0,0E0,0E0,0E0,0E0,0E0,0E0,0E0,0E0,0E0,0E0,0E0,0E0,0E0,0E0],"parents":[2147483647,0,0,1,1,2,2,3,3,4,4,5,5,6,6,7,7,8,8,9,9,10,10,11,11,12,12,13,13,14,14],"right_children":[2,4,6,8,10,12,14,16,18,20,22,24,26,28,30,-1,-1,-1,-1,-1,-1,-1,-1,-1,-1,-1,-1,-1,-1,-1,-1],"split_conditions":[-1.9106472E1,7E0,4.0968502E1,-4.7028984E1,-7.9758896E1,4E0,1.6314561E2,2.3E1,4E0,2.6E1,-4.9842133E1,1.6119879E3,3E0,2.5E1,3E0,4.3534968E-2,8.86881E-2,4.1324977E-2,1.7773233E-2,3.9628264E-2,1.830834E-2,1.103722E-2,1.9099972E-4,-1.6912384E-2,4.5157846E-2,2.5574265E-2,-3.7896459E-3,-1.8703984E-2,-1.0574549E-2,-1.64462E-2,-3.2185756E-2],"split_indices":[2,9,2,2,2,10,2,19,10,9,2,1,9,10,19,0,0,0,0,0,0,0,0,0,0,0,0,0,0,0,0],"split_type":[0,0,0,0,0,0,0,0,0,0,0,0,0,0,0,0,0,0,0,0,0,0,0,0,0,0,0,0,0,0,0],"sum_hessian":[6.4149E4,2.4222E4,3.9927E4,3.166E3,2.1056E4,2.3942E4,1.5985E4,8.71E2,2.295E3,7.49E3,1.3566E4,3.607E3,2.0335E4,1.4734E4,1.251E3,7.15E2,1.56E2,1.193E3,1.102E3,2.175E3,5.315E3,5.498E3,8.068E3,3.396E3,2.11E2,4.43E2,1.9892E4,5.817E3,8.917E3,1.99E2,1.052E3],"tree_param":{"num_deleted":"0","num_feature":"25","num_nodes":"31","size_leaf_vector":"1"}},{"base_weights":[-2.969971E-3,1.3742515E-1,-8.109857E-2,2.4187787E-1,1.0002027E-1,-2.27773E-2,-1.1672889E-1,5.065038E-1,2.0162936E-1,2.4163055E-1,5.0948914E-2,-3.491164E-2,3.8510345E-2,-1.0588201E-1,-2.4280849E-1,4.7094405E-2,1.17214404E-1,2.9704599E-2,1.2820129E-2,6.5913275E-2,2.161367E-2,1.5863055E-2,2.6803387E-3,3.1259086E-3,-5.2060606E-3,7.6293573E-3,-1.1520176E-2,-1.548181E-2,-7.853485E-3,-1.0303893E-2,-2.6707787E-2],"categories":[],"categories_nodes":[],"categories_segments":[],"categories_sizes":[],"default_left":[0,0,0,0,0,0,0,0,0,0,0,0,0,0,0,0,0,0,0,0,0,0,0,0,0,0,0,0,0,0,0],"id":14,"left_children":[1,3,5,7,9,11,13,15,17,19,21,23,25,27,29,-1,-1,-1,-1,-1,-1,-1,-1,-1,-1,-1,-1,-1,-1,-1,-1],"loss_changes":[7.075036E2,9.007611E1,8.610986E1,6.4654785E1,1.1799573E2,1.1689843E1,3.5153656E1,1.8431335E1,3.6947952E1,4.637068E1,3.2789917E1,1.4889672E1,1.5097295E1,3.168863E1,6.8822327E0,0E0,0E0,0E0,0E0,0E0,0E0,0E0,0E0,0E0,0E0,0E0,0E0,0E0,0E0,0E0,0E0],"parents":[2147483647,0,0,1,1,2,2,3,3,4,4,5,5,6,6,7,7,8,8,9,9,10,10,11,11,12,12,13,13,14,14],"right_children":[2,4,6,8,10,12,14,16,18,20,22,24,26,28,30,-1,-1,-1,-1,-1,-1,-1,-1,-1,-1,-1,-1,-1,-1,-1,-1],"split_conditions":[-2.2891848E1,1.7E1,1.5815875E1,-7.514936E1,-1.0592724E2,1.1E1,1.4143321E2,2.8E1,7E0,-2.2689818E2,1.54451E3,4E0,8.203231E0,1.8E1,3E0,4.7094405E-2,1.17214404E-1,2.9704599E-2,1.2820129E-2,6.5913275E-2,2.161367E-2,1.5863055E-2,2.6803387E-3,3.1259086E-3,-5.2060606E-3,7.6293573E-3,-1.1520176E-2,-1.548181E-2,-7.853485E-3,-1.0303893E-2,-2.6707787E-2],"split_indices":[2,10,2,2,2,19,2,20,10,2,0,19,2,10,19,0,0,0,0,0,0,0,0,0,0,0,0,0,0,0,0],"split_type":[0,0,0,0,0,0,0,0,0,0,0,0,0,0,0,0,0,0,0,0,0,0,0,0,0,0,0,0,0,0,0],"sum_hessian":[6.4499E4,2.306E4,4.1439E4,6.079E3,1.6981E4,1.5716E4,2.5723E4,8.01E2,5.278E3,4.369E3,1.2612E4,1.3119E4,2.597E3,2.3687E4,2.036E3,7.62E2,3.9E1,2.294E3,2.984E3,2.5E2,4.119E3,2.309E3,1.0303E4,2.7E3,1.0419E4,2.085E3,5.12E2,8.49E3,1.5197E4,3.02E2,1.734E3],"tree_param":{"num_deleted":"0","num_feature":"25","num_nodes":"31","size_leaf_vector":"1"}},{"base_weights":[-1.6956274E-5,1.2030061E-1,-7.343173E-2,2.6281074E-1,8.798502E-2,-5.1065763E-3,-1.0045269E-1,4.2928928E-1,2.0886862E-1,1.9535378E-1,3.5578765E-2,-1.1509273E-1,3.333492E-3,-9.1566235E-2,-2.2010225E-1,7.496104E-2,3.7454285E-2,5.598513E-2,1.8055478E-2,3.7208937E-2,1.6135903E-2,2.1935176E-2,2.6958473E-3,-6.1637443E-3,-2.5948256E-2,9.16809E-3,-5.9363374E-4,-1.5111707E-2,-7.1056336E-3,-2.101787E-2,-5.574716E-2],"categories":[],"categories_nodes":[],"categories_segments":[],"categories_sizes":[],"default_left":[0,0,0,0,0,0,0,0,0,0,0,0,0,0,0,0,0,0,0,0,0,0,0,0,0,0,0,0,0,0,0],"id":15,"left_children":[1,3,5,7,9,11,13,15,17,19,21,23,25,27,29,-1,-1,-1,-1,-1,-1,-1,-1,-1,-1,-1,-1,-1,-1,-1,-1],"loss_changes":[5.6891266E2,1.1237845E2,7.384793E1,4.0420013E1,1.1194939E2,1.0524415E1,3.0457184E1,1.906195E1,3.377643E1,3.914868E1,2.1177696E1,6.220475E0,8.62425E0,3.258058E1,6.51503E0,0E0,0E0,0E0,0E0,0E0,0E0,0E0,0E0,0E0,0E0,0E0,0E0,0E0,0E0,0E0,0E0],"parents":[2147483647,0,0,1,1,2,2,3,3,4,4,5,5,6,6,7,7,8,8,9,9,10,10,11,11,12,12,13,13,14,14],"right_children":[2,4,6,8,10,12,14,16,18,20,22,24,26,28,30,-1,-1,-1,-1,-1,-1,-1,-1,-1,-1,-1,-1,-1,-1,-1,-1],"split_conditions":[-1.9106472E1,-1.0592724E2,8.203231E0,3.3E1,1.7E1,-1.7080265E1,1.4143321E2,-1.6332005E2,-2.2689818E2,-6.4259895E1,1.5114318E3,3.8E1,-1.4525473E1,1.2E1,8.8E1,7.496104E-2,3.7454285E-2,5.598513E-2,1.8055478E-2,3.7208937E-2,1.6135903E-2,2.1935176E-2,2.6958473E-3,-6.1637443E-3,-2.5948256E-2,9.16809E-3,-5.9363374E-4,-1.5111707E-2,-7.1056336E-3,-2.101787E-2,-5.574716E-2],"split_indices":[2,2,2,10,10,2,2,2,2,2,0,10,2,10,10,0,0,0,0,0,0,0,0,0,0,0,0,0,0,0,0],"split_type":[0,0,0,0,0,0,0,0,0,0,0,0,0,0,0,0,0,0,0,0,0,0,0,0,0,0,0,0,0,0,0],"sum_hessian":[6.4405E4,2.4406E4,3.9999E4,4.51E3,1.9896E4,1.1336E4,2.8663E4,1.102E3,3.408E3,6.525E3,1.3371E4,8.07E2,1.0529E4,2.6683E4,1.98E3,1.59E2,9.43E2,2.53E2,3.155E3,1.051E3,5.474E3,5.98E2,1.2773E4,5.9E2,2.17E2,9.99E2,9.53E3,6.834E3,1.9849E4,1.925E3,5.5E1],"tree_param":{"num_deleted":"0","num_feature":"25","num_nodes":"31","size_leaf_vector":"1"}},{"base_weights":[3.443363E-4,-6.6993386E-2,4.6442665E-2,-1.7510557E-1,-5.0647177E-2,1.4084032E-1,2.89949E-2,-1.3234608E-1,-2.9561806E-1,2.60474E-1,-5.958239E-2,2.5045881E-2,2.5619936E-1,1.1672607E-2,1.4590298E-1,-1.8622031E-2,-8.012458E-3,-3.0750481E-2,1.9166756E-2,1.6968118E-2,7.494081E-2,-9.481647E-3,-2.3296243E-3,-2.0027761E-3,2.4695225E-2,1.860138E-2,4.0121704E-2,2.560904E-3,-6.2445365E-3,2.500464E-2,3.9102677E-3],"categories":[],"categories_nodes":[],"categories_segments":[],"categories_sizes":[],"default_left":[0,0,0,0,0,0,0,0,0,0,0,0,0,0,0,0,0,0,0,0,0,0,0,0,0,0,0,0,0,0,0],"id":16,"left_children":[1,3,5,7,9,11,13,15,17,19,21,23,25,27,29,-1,-1,-1,-1,-1,-1,-1,-1,-1,-1,-1,-1,-1,-1,-1,-1],"loss_changes":[1.996252E2,4.6175774E1,6.2871223E1,1.7646156E1,6.3128365E1,7.954009E1,6.524956E1,7.117035E0,5.2603683E0,2.8017174E1,2.8214485E1,2.9741272E1,3.0286789E1,2.899003E1,4.6237793E1,0E0,0E0,0E0,0E0,0E0,0E0,0E0,0E0,0E0,0E0,0E0,0E0,0E0,0E0,0E0,0E0],"parents":[2147483647,0,0,1,1,2,2,3,3,4,4,5,5,6,6,7,7,8,8,9,9,10,10,11,11,12,12,13,13,14,14],"right_children":[2,4,6,8,10,12,14,16,18,20,22,24,26,28,30,-1,-1,-1,-1,-1,-1,-1,-1,-1,-1,-1,-1,-1,-1,-1,-1],"split_conditions":[1.5941418E3,6E0,7E0,6E0,6E0,1.6119879E3,1.6984056E3,3E0,1.5937452E3,4.3E1,1.5671545E3,1.2E1,1.6302007E3,5.5E1,4.9E1,-1.8622031E-2,-8.012458E-3,-3.0750481E-2,1.9166756E-2,1.6968118E-2,7.494081E-2,-9.481647E-3,-2.3296243E-3,-2.0027761E-3,2.4695225E-2,1.860138E-2,4.0121704E-2,2.560904E-3,-6.2445365E-3,2.500464E-2,3.9102677E-3],"split_indices":[1,10,9,9,9,1,1,10,1,10,1,19,1,9,9,0,0,0,0,0,0,0,0,0,0,0,0,0,0,0,0],"split_type":[0,0,0,0,0,0,0,0,0,0,0,0,0,0,0,0,0,0,0,0,0,0,0,0,0,0,0,0,0,0,0],"sum_hessian":[6.4307E4,2.6133E4,3.8174E4,3.431E3,2.2702E4,5.954E3,3.222E4,2.534E3,8.97E2,6.33E2,2.2069E4,2.972E3,2.982E3,2.8063E4,4.157E3,1.246E3,1.288E3,8.76E2,2.1E1,5.35E2,9.8E1,1.1196E4,1.0873E4,2.471E3,5.01E2,2.011E3,9.71E2,2.3622E4,4.441E3,2.104E3,2.053E3],"tree_param":{"num_deleted":"0","num_feature":"25","num_nodes":"31","size_leaf_vector":"1"}},{"base_weights":[-1.9077284E-3,1.4146404E-1,-4.9676433E-2,2.6988882E-1,9.4050445E-2,7.8372E-3,-8.559482E-2,4.2650208E-1,2.023465E-1,2.7321565E-1,5.6625314E-2,1.2135713E-1,-3.023542E-2,-7.067997E-2,-1.3616177E-1,3.9108183E-2,9.626584E-2,3.0819286E-2,1.325035E-2,3.545789E-2,1.2536528E-2,8.424707E-3,7.250433E-4,1.9612892E-2,2.3040113E-3,-3.4304366E-3,1.2028689E-2,-1.0414612E-2,-5.1863287E-3,-1.1836026E-2,-2.1405904E-2],"categories":[],"categories_nodes":[],"categories_segments":[],"categories_sizes":[],"default_left":[0,0,0,0,0,0,0,0,0,0,0,0,0,0,0,0,0,0,0,0,0,0,0,0,0,0,0,0,0,0,0],"id":17,"left_children":[1,3,5,7,9,11,13,15,17,19,21,23,25,27,29,-1,-1,-1,-1,-1,-1,-1,-1,-1,-1,-1,-1,-1,-1,-1,-1],"loss_changes":[4.395076E2,9.7631256E1,9.9439865E1,4.5653076E1,7.853689E1,7.998662E1,2.2338043E1,2.4349548E1,2.2307083E1,2.4303452E1,1.3217541E1,3.4164505E1,8.492306E0,1.4405144E1,9.332039E0,0E0,0E0,0E0,0E0,0E0,0E0,0E0,0E0,0E0,0E0,0E0,0E0,0E0,0E0,0E0,0E0],"parents":[2147483647,0,0,1,1,2,2,3,3,4,4,5,5,6,6,7,7,8,8,9,9,10,10,11,11,12,12,13,13,14,14],"right_children":[2,4,6,8,10,12,14,16,18,20,22,24,26,28,30,-1,-1,-1,-1,-1,-1,-1,-1,-1,-1,-1,-1,-1,-1,-1,-1],"split_conditions":[-4.1588577E1,1.9E1,5.862436E0,-8.311226E1,-1.3753297E2,7E0,8.5167816E1,2.1E1,9E0,5E1,4.6E1,-1.255022E1,4.5E1,1.6E1,1.6314561E2,3.9108183E-2,9.626584E-2,3.0819286E-2,1.325035E-2,3.545789E-2,1.2536528E-2,8.424707E-3,7.250433E-4,1.9612892E-2,2.3040113E-3,-3.4304366E-3,1.2028689E-2,-1.0414612E-2,-5.1863287E-3,-1.1836026E-2,-2.1405904E-2],"split_indices":[2,9,2,2,2,9,2,20,9,9,9,2,20,9,2,0,0,0,0,0,0,0,0,0,0,0,0,0,0,0,0],"split_type":[0,0,0,0,0,0,0,0,0,0,0,0,0,0,0,0,0,0,0,0,0,0,0,0,0,0,0,0,0,0,0],"sum_hessian":[6.4172E4,1.6037E4,4.8135E4,4.323E3,1.1714E4,1.8505E4,2.963E4,1.301E3,3.022E3,2.023E3,9.691E3,4.647E3,1.3858E4,2.2883E4,6.747E3,1.222E3,7.9E1,1.2E3,1.822E3,1.304E3,7.19E2,6.214E3,3.477E3,2.639E3,2.008E3,1.3494E4,3.64E2,8.234E3,1.4649E4,5.494E3,1.253E3],"tree_param":{"num_deleted":"0","num_feature":"25","num_nodes":"31","size_leaf_vector":"1"}},{"base_weights":[-1.9898827E-3,9.5023245E-2,-5.5395592E-2,2.4388033E-1,7.6346636E-2,-2.4608409E-2,-9.9043876E-2,5.672206E-1,2.0530096E-1,1.5673679E-1,4.2978894E-2,-7.1435235E-2,-8.5996E-3,-8.65896E-2,-1.7931882E-1,1.9840042E-1,4.768091E-2,4.115071E-2,1.2865414E-2,3.212531E-2,1.0753367E-2,1.2316282E-2,2.2278002E-3,-1.0170343E-2,1.5172593E-2,1.5240852E-3,-4.03146E-3,-1.2612446E-2,-5.7523563E-3,-1.6198391E-2,-2.5176138E-2],"categories":[],"categories_nodes":[],"categories_segments":[],"categories_sizes":[],"default_left":[0,0,0,0,0,0,0,0,0,0,0,0,0,0,0,0,0,0,0,0,0,0,0,0,0,0,0,0,0,0,0],"id":18,"left_children":[1,3,5,7,9,11,13,15,17,19,21,23,25,27,29,-1,-1,-1,-1,-1,-1,-1,-1,-1,-1,-1,-1,-1,-1,-1,-1],"loss_changes":[3.3476877E2,6.3760696E1,5.5998062E1,3.1780243E1,5.4674767E1,1.831913E1,1.7216461E1,3.3895454E1,3.60774E1,4.8363754E1,2.391113E1,4.207009E1,1.37714615E1,1.7141083E1,2.8651047E0,0E0,0E0,0E0,0E0,0E0,0E0,0E0,0E0,0E0,0E0,0E0,0E0,0E0,0E0,0E0,0E0],"parents":[2147483647,0,0,1,1,2,2,3,3,4,4,5,5,6,6,7,7,8,8,9,9,10,10,11,11,12,12,13,13,14,14],"right_children":[2,4,6,8,10,12,14,16,18,20,22,24,26,28,30,-1,-1,-1,-1,-1,-1,-1,-1,-1,-1,-1,-1,-1,-1,-1,-1],"split_conditions":[-2.2891848E1,-1.3289363E2,3.7693787E1,-2.2689818E2,1.7E1,7E0,1.7166825E3,1.6895273E3,3.7E1,-6.072444E1,1.54451E3,1.6119879E3,1.6107733E3,2.5E1,1.7936824E3,1.9840042E-1,4.768091E-2,4.115071E-2,1.2865414E-2,3.212531E-2,1.0753367E-2,1.2316282E-2,2.2278002E-3,-1.0170343E-2,1.5172593E-2,1.5240852E-3,-4.03146E-3,-1.2612446E-2,-5.7523563E-3,-1.6198391E-2,-2.5176138E-2],"split_indices":[2,2,2,2,10,10,0,1,10,2,0,1,0,10,0,0,0,0,0,0,0,0,0,0,0,0,0,0,0,0,0],"split_type":[0,0,0,0,0,0,0,0,0,0,0,0,0,0,0,0,0,0,0,0,0,0,0,0,0,0,0,0,0,0,0],"sum_hessian":[6.4612E4,2.294E4,4.1672E4,2.556E3,2.0384E4,2.4437E4,1.7235E4,2.71E2,2.285E3,5.978E3,1.4406E4,6.225E3,1.8212E4,1.4922E4,2.313E3,1.5E1,2.56E2,6.18E2,1.667E3,1.375E3,4.603E3,2.955E3,1.1451E4,5.482E3,7.43E2,1.0397E4,7.815E3,6.321E3,8.601E3,1.869E3,4.44E2],"tree_param":{"num_deleted":"0","num_feature":"25","num_nodes":"31","size_leaf_vector":"1"}},{"base_weights":[-1.3152789E-3,1.1138764E-1,-3.8775336E-2,2.3018056E-1,7.5507104E-2,-9.455734E-3,-8.9132376E-2,1.1958776E0,2.1077165E-1,3.6391822E-1,5.749979E-2,7.104716E-2,-1.9836694E-2,-1.17471255E-1,-6.053952E-2,8.575825E-2,2.0494805E-1,4.55026E-2,1.7569168E-2,2.0055585E-1,3.26305E-2,1.6835196E-2,4.187177E-3,4.2460617E-2,-9.1456715E-3,1.7713795E-3,-2.7996665E-3,-9.704242E-3,-1.6502846E-2,-3.0474167E-3,-1.2132862E-2],"categories":[],"categories_nodes":[],"categories_segments":[],"categories_sizes":[],"default_left":[0,0,0,0,0,0,0,0,0,0,0,0,0,0,0,0,0,0,0,0,0,0,0,0,0,0,0,0,0,0,0],"id":19,"left_children":[1,3,5,7,9,11,13,15,17,19,21,23,25,27,29,-1,-1,-1,-1,-1,-1,-1,-1,-1,-1,-1,-1,-1,-1,-1,-1],"loss_changes":[2.7113623E2,6.826979E1,7.116547E1,6.9397385E1,6.3890427E1,2.5460926E1,1.4364975E1,1.9322578E1,3.1143448E1,4.398893E1,2.0061073E1,1.999812E2,8.269301E0,8.637482E0,1.6136246E1,0E0,0E0,0E0,0E0,0E0,0E0,0E0,0E0,0E0,0E0,0E0,0E0,0E0,0E0,0E0,0E0],"parents":[2147483647,0,0,1,1,2,2,3,3,4,4,5,5,6,6,7,7,8,8,9,9,10,10,11,11,12,12,13,13,14,14],"right_children":[2,4,6,8,10,12,14,16,18,20,22,24,26,28,30,-1,-1,-1,-1,-1,-1,-1,-1,-1,-1,-1,-1,-1,-1,-1,-1],"split_conditions":[-4.1588577E1,1.7E1,3.5287598E1,1.5185322E3,-1.8395868E2,3E0,3.1E1,1.6E1,4E0,1.628348E3,1.5185322E3,1.5898904E3,4E0,8.5167816E1,1.6897124E3,8.575825E-2,2.0494805E-1,4.55026E-2,1.7569168E-2,2.0055585E-1,3.26305E-2,1.6835196E-2,4.187177E-3,4.2460617E-2,-9.1456715E-3,1.7713795E-3,-2.7996665E-3,-9.704242E-3,-1.6502846E-2,-3.0474167E-3,-1.2132862E-2],"split_indices":[2,9,2,0,2,9,10,9,9,1,0,0,19,2,0,0,0,0,0,0,0,0,0,0,0,0,0,0,0,0,0],"split_type":[0,0,0,0,0,0,0,0,0,0,0,0,0,0,0,0,0,0,0,0,0,0,0,0,0,0,0,0,0,0,0],"sum_hessian":[6.422E4,1.602E4,4.82E4,3.715E3,1.2305E4,3.0464E4,1.7736E4,7.2E1,3.643E3,7.22E2,1.1583E4,3.479E3,2.6985E4,8.906E3,8.83E3,5.3E1,1.9E1,4.56E2,3.187E3,1.5E1,7.07E2,1.43E3,1.0153E4,1.095E3,2.384E3,4.817E3,2.2168E4,6.232E3,2.674E3,5.909E3,2.921E3],"tree_param":{"num_deleted":"0","num_feature":"25","num_nodes":"31","size_leaf_vector":"1"}},{"base_weights":[-6.828353E-4,9.492812E-2,-3.252672E-2,1.9369914E-1,6.831072E-2,1.0571664E-3,-6.1475124E-2,8.5091794E-1,1.7786144E-1,3.230322E-1,5.4677792E-2,3.527003E-2,-2.2136942E-2,-4.7453552E-2,-1.0321193E-1,-4.775254E-2,1.0696194E-1,1.3887556E-2,3.3728853E-2,6.8897784E-2,2.0038154E-2,4.8329937E-3,3.872033E-2,-5.853662E-5,2.7414417E-2,4.198254E-3,-3.669489E-3,-1.1485926E-2,-2.8388381E-3,-4.5077554E-3,-1.3167073E-2],"categories":[],"categories_nodes":[],"categories_segments":[],"categories_sizes":[],"default_left":[0,0,0,0,0,0,0,0,0,0,0,0,0,0,0,0,0,0,0,0,0,0,0,0,0,0,0,0,0,0,0],"id":20,"left_children":[1,3,5,7,9,11,13,15,17,19,21,23,25,27,29,-1,-1,-1,-1,-1,-1,-1,-1,-1,-1,-1,-1,-1,-1,-1,-1],"loss_changes":[1.9584244E2,4.223787E1,4.6911625E1,3.535318E1,4.3948944E1,1.7727602E1,1.5160973E1,2.3753368E1,2.0662895E1,2.8722015E1,2.5351261E1,7.730719E1,1.2429466E1,2.49277E1,1.0774361E1,0E0,0E0,0E0,0E0,0E0,0E0,0E0,0E0,0E0,0E0,0E0,0E0,0E0,0E0,0E0,0E0],"parents":[2147483647,0,0,1,1,2,2,3,3,4,4,5,5,6,6,7,7,8,8,9,9,10,10,11,11,12,12,13,13,14,14],"right_children":[2,4,6,8,10,12,14,16,18,20,22,24,26,28,30,-1,-1,-1,-1,-1,-1,-1,-1,-1,-1,-1,-1,-1,-1,-1,-1],"split_conditions":[-4.1588577E1,1.9E1,1.5184357E1,-1.3289363E2,1.4953527E3,1.5884907E3,1.6724012E3,1.6136423E3,1.2E1,-1.8395868E2,1.8226727E3,1.5870996E3,4E0,9E0,4E0,-4.775254E-2,1.0696194E-1,1.3887556E-2,3.3728853E-2,6.8897784E-2,2.0038154E-2,4.8329937E-3,3.872033E-2,-5.853662E-5,2.7414417E-2,4.198254E-3,-3.669489E-3,-1.1485926E-2,-2.8388381E-3,-4.5077554E-3,-1.3167073E-2],"split_indices":[2,10,2,2,0,0,0,1,19,2,1,0,19,10,19,0,0,0,0,0,0,0,0,0,0,0,0,0,0,0,0],"split_type":[0,0,0,0,0,0,0,0,0,0,0,0,0,0,0,0,0,0,0,0,0,0,0,0,0,0,0,0,0,0,0],"sum_hessian":[6.4322E4,1.607E4,4.8252E4,3.41E3,1.266E4,2.2338E4,2.5914E4,7.9E1,3.331E3,6.42E2,1.2018E4,9.025E3,1.3313E4,1.9399E4,6.515E3,1.1E1,6.8E1,2.678E3,6.53E2,1.6E2,4.82E2,1.1794E4,2.24E2,7.848E3,1.177E3,2.463E3,1.085E4,4.276E3,1.5123E4,2.142E3,4.373E3],"tree_param":{"num_deleted":"0","num_feature":"25","num_nodes":"31","size_leaf_vector":"1"}},{"base_weights":[-8.079697E-6,7.985439E-2,-4.3436315E-2,2.2225921E-1,4.963152E-2,-2.4179773E-2,-8.4133185E-2,4.3484297E-1,1.6161607E-1,1.9231218E-1,2.0407122E-2,-3.3461787E-2,2.4275856E-2,-1.18582316E-1,-6.0424715E-2,8.778593E-2,3.7311707E-2,3.22567E-2,6.170643E-3,3.1189177E-2,1.0288293E-2,6.5419464E-3,-1.7509422E-3,-1.8058628E-2,-2.9670342E-3,3.936149E-3,-1.1545684E-2,-1.6213264E-2,-9.988527E-3,-4.3237335E-3,-1.6322378E-2],"categories":[],"categories_nodes":[],"categories_segments":[],"categories_sizes":[],"default_left":[0,0,0,0,0,0,0,0,0,0,0,0,0,0,0,0,0,0,0,0,0,0,0,0,0,0,0,0,0,0,0],"id":21,"left_children":[1,3,5,7,9,11,13,15,17,19,21,23,25,27,29,-1,-1,-1,-1,-1,-1,-1,-1,-1,-1,-1,-1,-1,-1,-1,-1],"loss_changes":[2.2340274E2,9.763974E1,3.2696274E1,5.1135757E1,7.804558E1,1.2739981E1,1.093792E1,2.3763916E1,4.970114E1,3.399594E1,2.651834E1,1.3254454E1,9.604177E0,4.431305E0,1.4021706E1,0E0,0E0,0E0,0E0,0E0,0E0,0E0,0E0,0E0,0E0,0E0,0E0,0E0,0E0,0E0,0E0],"parents":[2147483647,0,0,1,1,2,2,3,3,4,4,5,5,6,6,7,7,8,8,9,9,10,10,11,11,12,12,13,13,14,14],"right_children":[2,4,6,8,10,12,14,16,18,20,22,24,26,28,30,-1,-1,-1,-1,-1,-1,-1,-1,-1,-1,-1,-1,-1,-1,-1,-1],"split_conditions":[-2.3624418E1,1E1,5.0800934E1,1.571115E3,-1.2078175E2,1.1E1,3.3E1,1.5456318E3,3E0,3.7E1,-6.1890015E1,-2.1543863E1,7E1,5E0,1.6314561E2,8.778593E-2,3.7311707E-2,3.22567E-2,6.170643E-3,3.1189177E-2,1.0288293E-2,6.5419464E-3,-1.7509422E-3,-1.8058628E-2,-2.9670342E-3,3.936149E-3,-1.1545684E-2,-1.6213264E-2,-9.988527E-3,-4.3237335E-3,-1.6322378E-2],"split_indices":[2,9,2,0,2,19,9,0,9,9,2,2,20,19,2,0,0,0,0,0,0,0,0,0,0,0,0,0,0,0,0],"split_type":[0,0,0,0,0,0,0,0,0,0,0,0,0,0,0,0,0,0,0,0,0,0,0,0,0,0,0,0,0,0,0],"sum_hessian":[6.4411E4,2.2688E4,4.1723E4,3.971E3,1.8717E4,2.8323E4,1.34E4,8.8E2,3.091E3,3.181E3,1.5536E4,2.377E4,4.553E3,5.461E3,7.939E3,1.06E2,7.74E2,1.183E3,1.908E3,1.36E3,1.821E3,7.103E3,8.433E3,5.96E2,2.3174E4,4.11E3,4.43E2,1.638E3,3.823E3,6.803E3,1.136E3],"tree_param":{"num_deleted":"0","num_feature":"25","num_nodes":"31","size_leaf_vector":"1"}},{"base_weights":[8.027119E-6,8.413749E-2,-2.7963053E-2,1.5362185E-1,4.503504E-2,9.570608E-3,-4.9423926E-2,2.3936518E-1,1.0233729E-1,1.8408348E-1,1.9227201E-2,7.45466E-2,-8.389203E-3,-6.312045E-2,-1.3163035E-2,2.3578163E-2,2.7385342E-1,2.7517144E-2,7.7933767E-3,2.7103236E-2,3.1719734E-3,1.6178497E-3,7.491122E-2,-2.5245477E-2,1.0977852E-2,2.3582017E-3,-3.1283442E-3,-1.3747901E-2,-5.6849965E-3,-2.2433826E-3,2.0579623E-2],"categories":[],"categories_nodes":[],"categories_segments":[],"categories_sizes":[],"default_left":[0,0,0,0,0,0,0,0,0,0,0,0,0,0,0,0,0,0,0,0,0,0,0,0,0,0,0,0,0,0,0],"id":22,"left_children":[1,3,5,7,9,11,13,15,17,19,21,23,25,27,29,-1,-1,-1,-1,-1,-1,-1,-1,-1,-1,-1,-1,-1,-1,-1,-1],"loss_changes":[1.5128201E2,4.3576614E1,3.8863678E1,2.537436E1,3.6836403E1,2.0483047E1,1.5244278E1,1.870797E1,1.5229988E1,2.1280708E1,1.9258152E1,4.3818604E1,1.00666065E1,1.0380539E1,1.7090498E1,0E0,0E0,0E0,0E0,0E0,0E0,0E0,0E0,0E0,0E0,0E0,0E0,0E0,0E0,0E0,0E0],"parents":[2147483647,0,0,1,1,2,2,3,3,4,4,5,5,6,6,7,7,8,8,9,9,10,10,11,11,12,12,13,13,14,14],"right_children":[2,4,6,8,10,12,14,16,18,20,22,24,26,28,30,-1,-1,-1,-1,-1,-1,-1,-1,-1,-1,-1,-1,-1,-1,-1,-1],"split_conditions":[-4.1588577E1,2.8E1,3.5259974E0,-7.514936E1,-1.4880681E2,6E0,4.2E1,1.7748068E3,6E0,6.5E1,1.7497964E3,1.5919879E3,1.6047437E3,1.5294753E3,1.9E1,2.3578163E-2,2.7385342E-1,2.7517144E-2,7.7933767E-3,2.7103236E-2,3.1719734E-3,1.6178497E-3,7.491122E-2,-2.5245477E-2,1.0977852E-2,2.3582017E-3,-3.1283442E-3,-1.3747901E-2,-5.6849965E-3,-2.2433826E-3,2.0579623E-2],"split_indices":[2,10,2,2,2,10,10,1,10,10,0,1,1,1,19,0,0,0,0,0,0,0,0,0,0,0,0,0,0,0,0],"split_type":[0,0,0,0,0,0,0,0,0,0,0,0,0,0,0,0,0,0,0,0,0,0,0,0,0,0,0,0,0,0,0],"sum_hessian":[6.4286E4,1.604E4,4.8246E4,5.775E3,1.0265E4,1.7551E4,3.0695E4,2.16E3,3.615E3,1.606E3,8.659E3,3.8E3,1.3751E4,2.2279E4,8.416E3,2.158E3,2E0,4.46E2,3.169E3,1.022E3,5.84E2,8.624E3,3.5E1,3.69E2,3.431E3,5.738E3,8.013E3,1.731E3,2.0548E4,8.075E3,3.41E2],"tree_param":{"num_deleted":"0","num_feature":"25","num_nodes":"31","size_leaf_vector":"1"}},{"base_weights":[-1.1180822E-3,8.2955636E-2,-2.434487E-2,2.62281E-1,6.0562238E-2,9.105677E-3,-4.776406E-2,7.097779E-1,2.251193E-1,4.324587E-1,5.3328227E-2,1.0043198E-1,-2.018419E-2,-6.862435E-2,-2.0458506E-2,1.555319E-1,5.520599E-2,1.9986035E-2,8.6411804E-2,6.9895856E-2,2.4472345E-2,1.5819982E-2,3.7280233E-3,2.3449963E-2,-3.7942303E-4,-2.3379423E-2,-1.5529516E-3,-5.676009E-3,-1.1751453E-2,-2.4990382E-4,-8.833046E-3],"categories":[],"categories_nodes":[],"categories_segments":[],"categories_sizes":[],"default_left":[0,0,0,0,0,0,0,0,0,0,0,0,0,0,0,0,0,0,0,0,0,0,0,0,0,0,0,0,0,0,0],"id":23,"left_children":[1,3,5,7,9,11,13,15,17,19,21,23,25,27,29,-1,-1,-1,-1,-1,-1,-1,-1,-1,-1,-1,-1,-1,-1,-1,-1],"loss_changes":[1.255744E2,5.5882713E1,3.9472054E1,2.5533173E1,3.3272133E1,5.5506935E1,1.6879875E1,1.4877502E1,2.2875832E1,1.163636E1,2.042715E1,7.041267E1,1.5618571E1,9.738686E0,1.56473675E1,0E0,0E0,0E0,0E0,0E0,0E0,0E0,0E0,0E0,0E0,0E0,0E0,0E0,0E0,0E0,0E0],"parents":[2147483647,0,0,1,1,2,2,3,3,4,4,5,5,6,6,7,7,8,8,9,9,10,10,11,11,12,12,13,13,14,14],"right_children":[2,4,6,8,10,12,14,16,18,20,22,24,26,28,30,-1,-1,-1,-1,-1,-1,-1,-1,-1,-1,-1,-1,-1,-1,-1,-1],"split_conditions":[-4.9842133E1,1.1E1,5.862436E0,1.5456318E3,-2.2689818E2,7E0,3.1E1,7E0,6.6E1,6.4E1,1.5185322E3,1.5884907E3,4E0,7.674641E1,1.7013676E3,1.555319E-1,5.520599E-2,1.9986035E-2,8.6411804E-2,6.9895856E-2,2.4472345E-2,1.5819982E-2,3.7280233E-3,2.3449963E-2,-3.7942303E-4,-2.3379423E-2,-1.5529516E-3,-5.676009E-3,-1.1751453E-2,-2.4990382E-4,-8.833046E-3],"split_indices":[2,9,2,0,2,9,10,9,10,10,0,0,10,2,0,0,0,0,0,0,0,0,0,0,0,0,0,0,0,0,0],"split_type":[0,0,0,0,0,0,0,0,0,0,0,0,0,0,0,0,0,0,0,0,0,0,0,0,0,0,0,0,0,0,0],"sum_hessian":[6.4304E4,1.3919E4,5.0385E4,1.544E3,1.2375E4,2.0749E4,2.9636E4,1.17E2,1.427E3,2.35E2,1.214E4,5.038E3,1.5711E4,1.68E4,1.2836E4,1.7E1,1E2,1.374E3,5.3E1,9.6E1,1.39E2,1.61E3,1.053E4,2.203E3,2.835E3,3.34E2,1.5377E4,1.3521E4,3.279E3,1.0151E4,2.685E3],"tree_param":{"num_deleted":"0","num_feature":"25","num_nodes":"31","size_leaf_vector":"1"}},{"base_weights":[9.3549635E-4,4.3225847E-2,-2.2018677E-2,3.4094706E-1,2.066638E-2,5.2402984E-2,-2.7352888E-2,2.371512E-1,6.8479615E-1,1.5651655E-1,6.1032977E-3,-1.980876E-2,8.497787E-2,-2.2043422E-2,-1.1137634E-1,6.995998E-2,2.0130828E-2,9.797079E-2,4.4525623E-2,7.46017E-2,1.1439354E-2,-1.2792718E-3,8.912741E-3,1.501971E-2,-6.6258013E-3,1.4748672E-2,3.1411622E-3,-3.1698544E-3,1.646062E-3,-4.679787E-3,-1.3821271E-2],"categories":[],"categories_nodes":[],"categories_segments":[],"categories_sizes":[],"default_left":[0,0,0,0,0,0,0,0,0,0,0,0,0,0,0,0,0,0,0,0,0,0,0,0,0,0,0,0,0,0,0],"id":24,"left_children":[1,3,5,7,9,11,13,15,17,19,21,23,25,27,29,-1,-1,-1,-1,-1,-1,-1,-1,-1,-1,-1,-1,-1,-1,-1,-1],"loss_changes":[6.2601067E1,1.5237538E2,1.6595236E1,5.687039E1,4.1725418E1,6.578685E0,1.7398441E1,2.0230476E1,2.5701721E1,5.062066E1,2.9887253E1,6.8800325E0,6.447665E0,1.3639698E1,4.010748E0,0E0,0E0,0E0,0E0,0E0,0E0,0E0,0E0,0E0,0E0,0E0,0E0,0E0,0E0,0E0,0E0],"parents":[2147483647,0,0,1,1,2,2,3,3,4,4,5,5,6,6,7,7,8,8,9,9,10,10,11,11,12,12,13,13,14,14],"right_children":[2,4,6,8,10,12,14,16,18,20,22,24,26,28,30,-1,-1,-1,-1,-1,-1,-1,-1,-1,-1,-1,-1,-1,-1,-1,-1],"split_conditions":[1.5884907E3,4E0,3E0,6E0,1.5185322E3,1.8E1,1.7166825E3,1.5733862E3,2E0,1.9E1,1E1,2E0,1.658575E3,9E0,4E0,6.995998E-2,2.0130828E-2,9.797079E-2,4.4525623E-2,7.46017E-2,1.1439354E-2,-1.2792718E-3,8.912741E-3,1.501971E-2,-6.6258013E-3,1.4748672E-2,3.1411622E-3,-3.1698544E-3,1.646062E-3,-4.679787E-3,-1.3821271E-2],"split_indices":[0,9,19,10,0,10,0,0,9,9,19,19,0,19,19,0,0,0,0,0,0,0,0,0,0,0,0,0,0,0,0],"split_type":[0,0,0,0,0,0,0,0,0,0,0,0,0,0,0,0,0,0,0,0,0,0,0,0,0,0,0,0,0,0,0],"sum_hessian":[6.4486E4,2.2687E4,4.1799E4,1.597E3,2.109E4,2.795E3,3.9004E4,1.228E3,3.69E2,2.041E3,1.9049E4,8.69E2,1.926E3,3.6687E4,2.317E3,8.7E1,1.141E3,1.64E2,2.05E2,1.35E2,1.906E3,1.5518E4,3.531E3,1.86E2,6.83E2,8.88E2,1.038E3,2.9332E4,7.355E3,6.81E2,1.636E3],"tree_param":{"num_deleted":"0","num_feature":"25","num_nodes":"31","size_leaf_vector":"1"}},{"base_weights":[-1.2390406E-3,3.228254E-2,-2.0026535E-2,-1.007432E-2,7.084739E-2,-2.6252164E-2,6.269049E-2,1.0638913E-2,-9.9920236E-2,5.1106516E-2,2.0593588E-1,-3.600296E-2,1.6953904E-2,5.295261E-1,4.7689456E-2,5.927575E-3,-2.4875149E-3,-1.33440215E-2,5.693316E-3,1.5057534E-3,1.2242915E-2,1.5475548E-2,4.1798934E-2,8.0771955E-5,-4.825602E-3,2.1583971E-4,1.1407083E-2,1.5386703E-2,1.2757154E-1,1.026779E-2,-5.259903E-3],"categories":[],"categories_nodes":[],"categories_segments":[],"categories_sizes":[],"default_left":[0,0,0,0,0,0,0,0,0,0,0,0,0,0,0,0,0,0,0,0,0,0,0,0,0,0,0,0,0,0,0],"id":25,"left_children":[1,3,5,7,9,11,13,15,17,19,21,23,25,27,29,-1,-1,-1,-1,-1,-1,-1,-1,-1,-1,-1,-1,-1,-1,-1,-1],"loss_changes":[4.062817E1,3.7848587E1,2.129084E1,2.0552078E1,3.2332E1,1.6198505E1,2.0241476E1,1.5503916E1,1.0885826E1,2.72082E1,1.671402E1,1.4148815E1,1.0172964E1,2.5031857E1,1.5474155E1,0E0,0E0,0E0,0E0,0E0,0E0,0E0,0E0,0E0,0E0,0E0,0E0,0E0,0E0,0E0,0E0],"parents":[2147483647,0,0,1,1,2,2,3,3,4,4,5,5,6,6,7,7,8,8,9,9,10,10,11,11,12,12,13,13,14,14],"right_children":[2,4,6,8,10,12,14,16,18,20,22,24,26,28,30,-1,-1,-1,-1,-1,-1,-1,-1,-1,-1,-1,-1,-1,-1,-1,-1],"split_conditions":[1.5892047E3,7E0,1.7006886E3,1.5810356E3,1.5866249E3,9E0,1.5921681E3,5E0,1.6446241E3,1.6245908E3,1.6222482E3,4E0,5.2E1,1.5913032E3,1.6877808E3,5.927575E-3,-2.4875149E-3,-1.33440215E-2,5.693316E-3,1.5057534E-3,1.2242915E-2,1.5475548E-2,4.1798934E-2,8.0771955E-5,-4.825602E-3,2.1583971E-4,1.1407083E-2,1.5386703E-2,1.2757154E-1,1.026779E-2,-5.259903E-3],"split_indices":[0,19,1,0,0,19,0,20,1,1,1,19,10,0,0,0,0,0,0,0,0,0,0,0,0,0,0,0,0,0,0],"split_type":[0,0,0,0,0,0,0,0,0,0,0,0,0,0,0,0,0,0,0,0,0,0,0,0,0,0,0,0,0,0,0],"sum_hessian":[6.4509E4,2.3169E4,4.134E4,1.1042E4,1.2127E4,3.8447E4,2.893E3,8.974E3,2.068E3,1.0582E4,1.545E3,3.1368E4,7.079E3,8.9E1,2.804E3,3.787E3,5.187E3,1.704E3,3.64E2,7.03E3,3.552E3,1.246E3,2.99E2,7.834E3,2.3534E4,6.144E3,9.35E2,6E1,2.9E1,1.811E3,9.93E2],"tree_param":{"num_deleted":"0","num_feature":"25","num_nodes":"31","size_leaf_vector":"1"}},{"base_weights":[-9.5285405E-4,3.0537829E-2,-3.609493E-2,1.4368756E-1,2.15475E-2,-8.929458E-2,-2.8274404E-2,3.763596E-1,1.12394586E-1,7.613489E-2,-2.6539944E-3,-1.1116252E-1,8.744117E-3,-3.3807661E-3,-5.4578718E-2,2.507763E-2,8.3484456E-2,3.0184004E-2,8.869275E-3,1.5697798E-2,4.2659543E-3,-2.8752074E-2,1.5625353E-4,-1.059721E-2,-2.3306033E-2,1.5332373E-2,-8.9140525E-3,1.709841E-2,-9.5565943E-4,-1.0724213E-2,-4.2188927E-3],"categories":[],"categories_nodes":[],"categories_segments":[],"categories_sizes":[],"default_left":[0,0,0,0,0,0,0,0,0,0,0,0,0,0,0,0,0,0,0,0,0,0,0,0,0,0,0,0,0,0,0],"id":26,"left_children":[1,3,5,7,9,11,13,15,17,19,21,23,25,27,29,-1,-1,-1,-1,-1,-1,-1,-1,-1,-1,-1,-1,-1,-1,-1,-1],"loss_changes":[7.104457E1,3.443907E1,1.2620411E1,1.8101948E1,4.1439034E1,8.336473E0,1.7321505E1,1.6776165E1,9.842697E0,2.6068031E1,2.610502E1,1.98666E0,1.0061675E1,1.4638143E1,8.387783E0,0E0,0E0,0E0,0E0,0E0,0E0,0E0,0E0,0E0,0E0,0E0,0E0,0E0,0E0,0E0,0E0],"parents":[2147483647,0,0,1,1,2,2,3,3,4,4,5,5,6,6,7,7,8,8,9,9,10,10,11,11,12,12,13,13,14,14],"right_children":[2,4,6,8,10,12,14,16,18,20,22,24,26,28,30,-1,-1,-1,-1,-1,-1,-1,-1,-1,-1,-1,-1,-1,-1,-1,-1],"split_conditions":[4.183155E0,-1.3289363E2,6E0,1.9E1,1.3E1,9E0,5.0800934E1,8E0,-2.2689818E2,-3.8355717E1,4E0,5E1,3.609007E1,6E0,1.8E1,2.507763E-2,8.3484456E-2,3.0184004E-2,8.869275E-3,1.5697798E-2,4.2659543E-3,-2.8752074E-2,1.5625353E-4,-1.059721E-2,-2.3306033E-2,1.5332373E-2,-8.9140525E-3,1.709841E-2,-9.5565943E-4,-1.0724213E-2,-4.2188927E-3],"split_indices":[2,2,10,9,9,9,2,20,2,2,10,19,2,9,10,0,0,0,0,0,0,0,0,0,0,0,0,0,0,0,0],"split_type":[0,0,0,0,0,0,0,0,0,0,0,0,0,0,0,0,0,0,0,0,0,0,0,0,0,0,0,0,0,0,0],"sum_hessian":[6.4196E4,3.3857E4,3.0339E4,2.491E3,3.1366E4,3.887E3,2.6452E4,2.94E2,2.197E3,9.634E3,2.1732E4,3.178E3,7.09E2,1.3591E4,1.2861E4,2.32E2,6.2E1,2.43E2,1.954E3,2.82E3,6.814E3,3.16E2,2.1416E4,3.05E3,1.28E2,2.86E2,4.23E2,4.64E2,1.3127E4,2.448E3,1.0413E4],"tree_param":{"num_deleted":"0","num_feature":"25","num_nodes":"31","size_leaf_vector":"1"}},{"base_weights":[-1.4673624E-3,6.704616E-2,-1.7620202E-2,1.3201378E-1,2.4536416E-2,-4.1875783E-3,-5.0517797E-2,9.293164E-2,3.251103E-1,-2.1537533E-2,1.409463E-1,-1.1514132E-2,3.5615362E-2,-9.133741E-2,-3.8087007E-2,2.8856767E-2,7.1949004E-3,1.03606366E-1,2.8330171E-2,1.5430444E-1,-2.684514E-3,4.269708E-2,1.1925449E-2,3.1685506E-3,-2.2299322E-3,-5.5601774E-3,5.125701E-3,-7.3530385E-3,-2.2205748E-2,-2.7361098E-3,-9.7257355E-3],"categories":[],"categories_nodes":[],"categories_segments":[],"categories_sizes":[],"default_left":[0,0,0,0,0,0,0,0,0,0,0,0,0,0,0,0,0,0,0,0,0,0,0,0,0,0,0,0,0,0,0],"id":27,"left_children":[1,3,5,7,9,11,13,15,17,19,21,23,25,27,29,-1,-1,-1,-1,-1,-1,-1,-1,-1,-1,-1,-1,-1,-1,-1,-1],"loss_changes":[7.122208E1,3.390561E1,2.3013107E1,3.6616203E1,3.981602E1,1.0784457E1,7.658058E0,1.656327E1,2.3990929E1,4.42114E1,1.3009323E1,1.4552201E1,8.205445E0,8.186613E0,7.3441143E0,0E0,0E0,0E0,0E0,0E0,0E0,0E0,0E0,0E0,0E0,0E0,0E0,0E0,0E0,0E0,0E0],"parents":[2147483647,0,0,1,1,2,2,3,3,4,4,5,5,6,6,7,7,8,8,9,9,10,10,11,11,12,12,13,13,14,14],"right_children":[2,4,6,8,10,12,14,16,18,20,22,24,26,28,30,-1,-1,-1,-1,-1,-1,-1,-1,-1,-1,-1,-1,-1,-1,-1,-1],"split_conditions":[-5.623888E1,3.3E1,4.432799E1,1.2E1,1.7126396E3,1.2E1,1.8E1,1.5151921E3,-1.4880681E2,-2.2689818E2,3E0,4E0,1.5680608E3,1.7E1,1.6180939E3,2.8856767E-2,7.1949004E-3,1.03606366E-1,2.8330171E-2,1.5430444E-1,-2.684514E-3,4.269708E-2,1.1925449E-2,3.1685506E-3,-2.2299322E-3,-5.5601774E-3,5.125701E-3,-7.3530385E-3,-2.2205748E-2,-2.7361098E-3,-9.7257355E-3],"split_indices":[2,10,2,20,1,19,10,0,2,2,19,19,0,20,1,0,0,0,0,0,0,0,0,0,0,0,0,0,0,0,0],"split_type":[0,0,0,0,0,0,0,0,0,0,0,0,0,0,0,0,0,0,0,0,0,0,0,0,0,0,0,0,0,0,0],"sum_hessian":[6.4354E4,1.2277E4,5.2077E4,4.855E3,7.422E3,3.6979E4,1.5098E4,4.039E3,8.16E2,5.318E3,2.104E3,3.1231E4,5.748E3,3.523E3,1.1575E4,3.9E2,3.649E3,4.4E1,7.72E2,1.7E1,5.301E3,1.47E2,1.957E3,6.239E3,2.4992E4,8.41E2,4.907E3,3.102E3,4.21E2,9.8E3,1.775E3],"tree_param":{"num_deleted":"0","num_feature":"25","num_nodes":"31","size_leaf_vector":"1"}},{"base_weights":[3.2899089E-3,6.351118E-2,-1.099816E-2,4.067844E-2,1.7822415E-1,1.1377943E-2,-2.7837606E-2,3.4247126E-2,3.6804774E-1,-9.541756E-2,1.9914652E-1,5.445029E-2,2.8839663E-3,-2.392646E-2,-1.1674146E-1,8.819261E-3,9.092688E-4,2.2166184E-1,3.0867225E-2,1.5986802E-2,-3.673371E-2,2.6819294E-2,6.981374E-3,3.911439E-3,1.9643372E-2,-3.1389054E-3,2.4418884E-3,8.429818E-3,-2.5479568E-3,-1.7669026E-3,-1.3449982E-2],"categories":[],"categories_nodes":[],"categories_segments":[],"categories_sizes":[],"default_left":[0,0,0,0,0,0,0,0,0,0,0,0,0,0,0,0,0,0,0,0,0,0,0,0,0,0,0,0,0,0,0],"id":28,"left_children":[1,3,5,7,9,11,13,15,17,19,21,23,25,27,29,-1,-1,-1,-1,-1,-1,-1,-1,-1,-1,-1,-1,-1,-1,-1,-1],"loss_changes":[5.531187E1,3.227977E1,1.9577402E1,2.163527E1,1.17328415E1,8.162445E0,1.0305597E1,1.3684222E1,2.1048231E1,1.0193626E1,1.6957138E1,7.994422E0,1.3756115E1,4.7754154E0,2.1950665E0,0E0,0E0,0E0,0E0,0E0,0E0,0E0,0E0,0E0,0E0,0E0,0E0,0E0,0E0,0E0,0E0],"parents":[2147483647,0,0,1,1,2,2,3,3,4,4,5,5,6,6,7,7,8,8,9,9,10,10,11,11,12,12,13,13,14,14],"right_children":[2,4,6,8,10,12,14,16,18,20,22,24,26,28,30,-1,-1,-1,-1,-1,-1,-1,-1,-1,-1,-1,-1,-1,-1,-1,-1],"split_conditions":[-5.623888E1,1.2E1,5.862436E0,1.8226727E3,1.6023169E3,4E0,1.6314561E2,1.54451E3,1.5114318E3,1.6E1,1.584125E3,9.684657E-1,7E0,2E0,3E0,8.819261E-3,9.092688E-4,2.2166184E-1,3.0867225E-2,1.5986802E-2,-3.673371E-2,2.6819294E-2,6.981374E-3,3.911439E-3,1.9643372E-2,-3.1389054E-3,2.4418884E-3,8.429818E-3,-2.5479568E-3,-1.7669026E-3,-1.3449982E-2],"split_indices":[2,19,2,1,1,19,2,0,0,19,0,2,19,19,19,0,0,0,0,0,0,0,0,0,0,0,0,0,0,0,0],"split_type":[0,0,0,0,0,0,0,0,0,0,0,0,0,0,0,0,0,0,0,0,0,0,0,0,0,0,0,0,0,0,0],"sum_hessian":[6.4281E4,1.2326E4,5.1955E4,1.0281E4,2.045E3,2.231E4,2.9645E4,1.0084E4,1.97E2,1.45E2,1.9E3,3.674E3,1.8636E4,2.8397E4,1.248E3,3.206E3,6.878E3,5E0,1.92E2,7.5E1,7E1,1.238E3,6.62E2,3.317E3,3.57E2,7.191E3,1.1445E4,4.01E2,2.7996E4,1.9E2,1.058E3],"tree_param":{"num_deleted":"0","num_feature":"25","num_nodes":"31","size_leaf_vector":"1"}},{"base_weights":[2.4293624E-4,5.4136407E-2,-1.253524E-2,3.0853534E-2,1.6371074E-1,2.3841668E-2,-2.1483544E-2,2.577064E-1,1.7892018E-2,2.573168E-1,-9.631184E-4,1.0104349E-1,-3.1104734E-2,-1.7806087E-2,-7.351006E-2,3.4519218E-2,2.366995E-3,3.4861814E-2,1.0781123E-3,6.0410377E-2,2.3180803E-2,-4.731831E-3,3.7689682E-2,2.4384497E-2,7.917108E-3,-4.4945213E-3,5.065883E-2,-1.3934752E-3,-6.817702E-3,-2.0728009E-2,-5.964427E-3],"categories":[],"categories_nodes":[],"categories_segments":[],"categories_sizes":[],"default_left":[0,0,0,0,0,0,0,0,0,0,0,0,0,0,0,0,0,0,0,0,0,0,0,0,0,0,0,0,0,0,0],"id":29,"left_children":[1,3,5,7,9,11,13,15,17,19,21,23,25,27,29,-1,-1,-1,-1,-1,-1,-1,-1,-1,-1,-1,-1,-1,-1,-1,-1],"loss_changes":[4.441513E1,3.1530396E1,1.6970737E1,2.9975266E1,3.3387993E1,4.366567E1,8.004126E0,1.1273476E1,2.2681307E1,1.2076439E1,1.3785227E1,1.3348904E1,4.4778515E1,7.619953E0,5.110671E0,0E0,0E0,0E0,0E0,0E0,0E0,0E0,0E0,0E0,0E0,0E0,0E0,0E0,0E0,0E0,0E0],"parents":[2147483647,0,0,1,1,2,2,3,3,4,4,5,5,6,6,7,7,8,8,9,9,10,10,11,11,12,12,13,13,14,14],"right_children":[2,4,6,8,10,12,14,16,18,20,22,24,26,28,30,-1,-1,-1,-1,-1,-1,-1,-1,-1,-1,-1,-1,-1,-1,-1,-1],"split_conditions":[-5.623888E1,9E0,8E0,1.1E1,4.5E1,-4.789552E0,1.2715633E2,-6.1890015E1,5E0,-1.4880681E2,-6.5418655E1,4E0,4.2E1,1.7E1,2.7E1,3.4519218E-2,2.366995E-3,3.4861814E-2,1.0781123E-3,6.0410377E-2,2.3180803E-2,-4.731831E-3,3.7689682E-2,2.4384497E-2,7.917108E-3,-4.4945213E-3,5.065883E-2,-1.3934752E-3,-6.817702E-3,-2.0728009E-2,-5.964427E-3],"split_indices":[2,20,9,10,10,2,2,2,9,2,2,19,10,20,9,0,0,0,0,0,0,0,0,0,0,0,0,0,0,0,0],"split_type":[0,0,0,0,0,0,0,0,0,0,0,0,0,0,0,0,0,0,0,0,0,0,0,0,0,0,0,0,0,0,0],"sum_hessian":[6.4493E4,1.236E4,5.2133E4,1.0195E4,2.165E3,1.0292E4,4.1841E4,5.5E2,9.645E3,1.38E3,7.85E2,4.279E3,6.013E3,3.908E4,2.761E3,4E2,1.5E2,2.02E2,9.443E3,9.3E1,1.287E3,7E2,8.5E1,5.67E2,3.712E3,5.863E3,1.5E2,3.6292E4,2.788E3,2.58E2,2.503E3],"tree_param":{"num_deleted":"0","num_feature":"25","num_nodes":"31","size_leaf_vector":"1"}},{"base_weights":[3.2630898E-3,8.5305564E-2,-6.0323495E-3,1.6432163E-1,2.6933556E-2,1.2754632E-2,-2.3308009E-2,5.8053124E-1,1.4070615E-1,-9.544101E-4,2.5709727E-1,7.281136E-2,-1.4919425E-2,-5.1612303E-2,-7.5639836E-3,4.4078983E-2,1.5730502E-1,1.0594015E-2,3.434283E-2,2.2575479E-2,-1.5374534E-3,5.05354E-2,9.088118E-3,1.3496319E-2,6.463534E-4,-2.6508821E-3,3.7708252E-3,-1.8831972E-2,-4.4284593E-3,1.2639346E-2,-1.174127E-3],"categories":[],"categories_nodes":[],"categories_segments":[],"categories_sizes":[],"default_left":[0,0,0,0,0,0,0,0,0,0,0,0,0,0,0,0,0,0,0,0,0,0,0,0,0,0,0,0,0,0,0],"id":30,"left_children":[1,3,5,7,9,11,13,15,17,19,21,23,25,27,29,-1,-1,-1,-1,-1,-1,-1,-1,-1,-1,-1,-1,-1,-1,-1,-1],"loss_changes":[4.9053047E1,3.0187859E1,1.875193E1,2.7252739E1,2.4173439E1,4.6002293E1,1.3412432E1,1.9972324E1,1.8520576E1,1.0987898E1,1.6748629E1,3.6002617E1,1.1557821E1,1.0768513E1,1.0824852E1,0E0,0E0,0E0,0E0,0E0,0E0,0E0,0E0,0E0,0E0,0E0,0E0,0E0,0E0,0E0,0E0],"parents":[2147483647,0,0,1,1,2,2,3,3,4,4,5,5,6,6,7,7,8,8,9,9,10,10,11,11,12,12,13,13,14,14],"right_children":[2,4,6,8,10,12,14,16,18,20,22,24,26,28,30,-1,-1,-1,-1,-1,-1,-1,-1,-1,-1,-1,-1,-1,-1,-1,-1],"split_conditions":[-8.861897E1,3.3E1,4.8022766E0,1.4953527E3,1.6287037E3,1.2E1,1.8E1,1.4E1,1E1,-2.2689818E2,6.7E1,1.5892047E3,9E0,1.584125E3,1.2E1,4.4078983E-2,1.5730502E-1,1.0594015E-2,3.434283E-2,2.2575479E-2,-1.5374534E-3,5.05354E-2,9.088118E-3,1.3496319E-2,6.463534E-4,-2.6508821E-3,3.7708252E-3,-1.8831972E-2,-4.4284593E-3,1.2639346E-2,-1.174127E-3],"split_indices":[2,9,2,0,0,9,10,20,20,2,10,0,20,0,9,0,0,0,0,0,0,0,0,0,0,0,0,0,0,0,0],"split_type":[0,0,0,0,0,0,0,0,0,0,0,0,0,0,0,0,0,0,0,0,0,0,0,0,0,0,0,0,0,0,0],"sum_hessian":[6.432E4,6.545E3,5.7775E4,2.78E3,3.765E3,2.7677E4,3.0098E4,1.48E2,2.632E3,3.359E3,4.06E2,8.73E3,1.8947E4,1.0757E4,1.9341E4,1.31E2,1.7E1,2.248E3,3.84E2,2E2,3.159E3,1.62E2,2.44E2,4.507E3,4.223E3,1.5528E4,3.419E3,5.46E2,1.0211E4,5.84E2,1.8757E4],"tree_param":{"num_deleted":"0","num_feature":"25","num_nodes":"31","size_leaf_vector":"1"}},{"base_weights":[-6.2760245E-4,2.4220148E-2,-2.0913882E-2,1.7166555E-1,1.5235479E-2,-1.41059635E-2,-6.004797E-2,2.1246217E-1,-7.5861853E-1,1.2303326E-2,3.5531238E-1,-2.8952306E-2,1.4036775E-2,-5.0877146E-2,-1.723084E-1,1.9216528E-2,1.4769858E-1,-8.788284E-2,-2.5926072E-2,2.8826823E-3,-2.7467909E-3,1.2229671E-1,1.9576246E-2,-3.2490601E-3,8.9553865E-3,2.5027538E-2,6.841962E-4,-7.045319E-3,3.7239424E-3,-5.5109836E-2,-1.2819971E-2],"categories":[],"categories_nodes":[],"categories_segments":[],"categories_sizes":[],"default_left":[0,0,0,0,0,0,0,0,0,0,0,0,0,0,0,0,0,0,0,0,0,0,0,0,0,0,0,0,0,0,0],"id":31,"left_children":[1,3,5,7,9,11,13,15,17,19,21,23,25,27,29,-1,-1,-1,-1,-1,-1,-1,-1,-1,-1,-1,-1,-1,-1,-1,-1],"loss_changes":[3.243428E1,3.831043E1,9.436874E0,6.3200184E1,2.7179136E1,1.2608444E1,5.3951855E0,4.0576324E1,3.9740982E0,1.7763165E1,3.201577E1,8.286371E0,1.7712482E1,8.375647E0,6.5456886E0,0E0,0E0,0E0,0E0,0E0,0E0,0E0,0E0,0E0,0E0,0E0,0E0,0E0,0E0,0E0,0E0],"parents":[2147483647,0,0,1,1,2,2,3,3,4,4,5,5,6,6,7,7,8,8,9,9,10,10,11,11,12,12,13,13,14,14],"right_children":[2,4,6,8,10,12,14,16,18,20,22,24,26,28,30,-1,-1,-1,-1,-1,-1,-1,-1,-1,-1,-1,-1,-1,-1,-1,-1],"split_conditions":[-7.3284516E0,3E0,9.733577E1,1.6009039E3,1.8226727E3,3.3E1,1.6239758E3,6.7E1,-1.255022E1,4.2E1,6.6E1,1.6446241E3,8E0,6.5E1,4.3E1,1.9216528E-2,1.4769858E-1,-8.788284E-2,-2.5926072E-2,2.8826823E-3,-2.7467909E-3,1.2229671E-1,1.9576246E-2,-3.2490601E-3,8.9553865E-3,2.5027538E-2,6.841962E-4,-7.045319E-3,3.7239424E-3,-5.5109836E-2,-1.2819971E-2],"split_indices":[2,9,2,0,1,10,1,10,2,9,10,1,9,9,9,0,0,0,0,0,0,0,0,0,0,0,0,0,0,0,0],"split_type":[0,0,0,0,0,0,0,0,0,0,0,0,0,0,0,0,0,0,0,0,0,0,0,0,0,0,0,0,0,0,0],"sum_hessian":[6.4343E4,2.892E4,3.5423E4,1.66E3,2.726E4,3.0175E4,5.248E3,1.591E3,6.9E1,2.7028E4,2.32E2,1.9754E4,1.0421E4,4.853E3,3.95E2,1.567E3,2.4E1,5.5E1,1.4E1,1.9095E4,7.933E3,3.5E1,1.97E2,1.9182E4,5.72E2,3.07E2,1.0114E4,3.971E3,8.82E2,4E1,3.55E2],"tree_param":{"num_deleted":"0","num_feature":"25","num_nodes":"31","size_leaf_vector":"1"}},{"base_weights":[3.2503242E-3,3.1132745E-2,-1.9098409E-2,9.983915E-2,1.32265445E-2,-3.543636E-2,-4.7113755E-4,2.8488693E-1,6.555651E-2,6.550092E-2,-6.3110176E-3,-5.9925098E-2,-2.622451E-3,-5.53206E-2,7.804627E-3,7.213059E-2,2.414771E-2,1.5160859E-2,2.2549583E-3,6.252177E-3,8.586045E-2,8.563936E-4,-6.5147826E-3,1.497909E-2,-6.2121325E-3,2.6108453E-3,-5.885871E-3,-3.3161582E-3,-1.9224754E-2,1.1689565E-2,-2.0565533E-4],"categories":[],"categories_nodes":[],"categories_segments":[],"categories_sizes":[],"default_left":[0,0,0,0,0,0,0,0,0,0,0,0,0,0,0,0,0,0,0,0,0,0,0,0,0,0,0,0,0,0,0],"id":32,"left_children":[1,3,5,7,9,11,13,15,17,19,21,23,25,27,29,-1,-1,-1,-1,-1,-1,-1,-1,-1,-1,-1,-1,-1,-1,-1,-1],"loss_changes":[4.001844E1,3.51512E1,1.0848791E1,3.7454887E1,2.3150536E1,1.5260466E1,7.5618515E0,1.7311935E1,1.8445244E1,1.4517555E1,1.4442147E1,5.018154E0,1.3116325E1,6.620245E0,1.5571957E1,0E0,0E0,0E0,0E0,0E0,0E0,0E0,0E0,0E0,0E0,0E0,0E0,0E0,0E0,0E0,0E0],"parents":[2147483647,0,0,1,1,2,2,3,3,4,4,5,5,6,6,7,7,8,8,9,9,10,10,11,11,12,12,13,13,14,14],"right_children":[2,4,6,8,10,12,14,16,18,20,22,24,26,28,30,-1,-1,-1,-1,-1,-1,-1,-1,-1,-1,-1,-1,-1,-1,-1,-1],"split_conditions":[-8.009127E0,1E1,7E0,1.5705336E3,-8.861897E1,3.6E1,4E0,4E0,3E0,1.7209834E3,5.2E1,2E0,1.6897124E3,2.9E1,6E0,7.213059E-2,2.414771E-2,1.5160859E-2,2.2549583E-3,6.252177E-3,8.586045E-2,8.563936E-4,-6.5147826E-3,1.497909E-2,-6.2121325E-3,2.6108453E-3,-5.885871E-3,-3.3161582E-3,-1.9224754E-2,1.1689565E-2,-2.0565533E-4],"split_indices":[2,9,19,0,2,9,10,9,9,0,10,20,0,19,9,0,0,0,0,0,0,0,0,0,0,0,0,0,0,0,0],"split_type":[0,0,0,0,0,0,0,0,0,0,0,0,0,0,0,0,0,0,0,0,0,0,0,0,0,0,0,0,0,0,0],"sum_hessian":[6.4219E4,2.8572E4,3.5647E4,5.906E3,2.2666E4,1.899E4,1.6657E4,9.22E2,4.984E3,6.166E3,1.65E4,1.0874E4,8.116E3,2.183E3,1.4474E4,8.2E1,8.4E2,1.66E3,3.324E3,6.144E3,2.2E1,1.3171E4,3.329E3,1.12E2,1.0762E4,5.372E3,2.744E3,1.88E3,3.03E2,1.199E3,1.3275E4],"tree_param":{"num_deleted":"0","num_feature":"25","num_nodes":"31","size_leaf_vector":"1"}},{"base_weights":[2.0597943E-3,9.810508E-2,-1.0809357E-3,3.9778465E-1,2.3400245E-2,-3.7842444E-3,9.6662275E-2,3.7083617E-1,1.8847221E0,-9.550984E-1,3.0013599E-2,-1.12948185E-2,2.8157957E-2,3.277756E-1,-2.7495534E-3,4.3614615E-2,7.6342784E-3,3.8147193E-1,3.4977946E-2,-1.1627948E-1,5.6093287E-2,3.4798041E-3,-9.407936E-2,2.1473283E-3,-2.096694E-3,1.1377444E-2,1.3370274E-3,2.8813725E-2,1.2745987E-1,1.6496142E-2,-5.129445E-3],"categories":[],"categories_nodes":[],"categories_segments":[],"categories_sizes":[],"default_left":[0,0,0,0,0,0,0,0,0,0,0,0,0,0,0,0,0,0,0,0,0,0,0,0,0,0,0,0,0,0,0],"id":33,"left_children":[1,3,5,7,9,11,13,15,17,19,21,23,25,27,29,-1,-1,-1,-1,-1,-1,-1,-1,-1,-1,-1,-1,-1,-1,-1,-1],"loss_changes":[1.9433754E1,4.5661213E1,1.648436E1,1.5609871E1,1.0602535E1,1.4564186E1,3.8576595E1,7.6792755E0,1.9402735E1,4.1158676E0,7.5758452E0,1.5578223E1,1.4630444E1,1.8585648E1,9.574737E0,0E0,0E0,0E0,0E0,0E0,0E0,0E0,0E0,0E0,0E0,0E0,0E0,0E0,0E0,0E0,0E0],"parents":[2147483647,0,0,1,1,2,2,3,3,4,4,5,5,6,6,7,7,8,8,9,9,10,10,11,11,12,12,13,13,14,14],"right_children":[2,4,6,8,10,12,14,16,18,20,22,24,26,28,30,-1,-1,-1,-1,-1,-1,-1,-1,-1,-1,-1,-1,-1,-1,-1,-1],"split_conditions":[1.5185322E3,2.7E1,1.7342239E3,1.7239161E3,4E0,9E0,5.6E1,1.5151921E3,1.7493618E3,1.5151921E3,8.9E1,4E0,6E0,1.8226727E3,3E0,4.3614615E-2,7.6342784E-3,3.8147193E-1,3.4977946E-2,-1.1627948E-1,5.6093287E-2,3.4798041E-3,-9.407936E-2,2.1473283E-3,-2.096694E-3,1.1377444E-2,1.3370274E-3,2.8813725E-2,1.2745987E-1,1.6496142E-2,-5.129445E-3],"split_indices":[0,9,1,1,10,19,10,0,1,0,9,19,9,1,20,0,0,0,0,0,0,0,0,0,0,0,0,0,0,0,0],"split_type":[0,0,0,0,0,0,0,0,0,0,0,0,0,0,0,0,0,0,0,0,0,0,0,0,0,0,0,0,0,0,0],"sum_hessian":[6.4423E4,2.039E3,6.2384E4,4.06E2,1.633E3,6.0706E4,1.678E3,4E2,6E0,1E1,1.623E3,4.915E4,1.1556E4,5.04E2,1.174E3,3.27E2,7.3E1,2E0,4E0,9E0,1E0,1.616E3,7E0,1.1201E4,3.7949E4,1.701E3,9.855E3,4.85E2,1.9E1,2.63E2,9.11E2],"tree_param":{"num_deleted":"0","num_feature":"25","num_nodes":"31","size_leaf_vector":"1"}},{"base_weights":[2.419115E-4,4.2606622E-2,-8.469463E-3,1.0461416E-1,-1.4476456E-2,8.3816645E-5,-3.1187287E-2,9.172427E-2,3.127431E-1,-2.4474418E-2,2.7288413E-1,-1.0847684E-1,1.328542E-3,-1.3252997E-1,-2.5774525E-2,1.3321939E-1,8.944619E-3,1.6929645E-2,5.741611E-2,1.7160115E-1,-2.5732573E-3,1.6013896E-2,8.532659E-2,7.4079715E-2,-1.3000024E-2,5.0002504E-3,-1.3399204E-4,3.0894697E-2,-1.5557708E-2,-1.8812623E-3,-9.626265E-3],"categories":[],"categories_nodes":[],"categories_segments":[],"categories_sizes":[],"default_left":[0,0,0,0,0,0,0,0,0,0,0,0,0,0,0,0,0,0,0,0,0,0,0,0,0,0,0,0,0,0,0],"id":34,"left_children":[1,3,5,7,9,11,13,15,17,19,21,23,25,27,29,-1,-1,-1,-1,-1,-1,-1,-1,-1,-1,-1,-1,-1,-1,-1,-1],"loss_changes":[2.3717672E1,3.879886E1,1.0357798E1,1.406654E1,1.6405878E1,5.233119E0,7.9943514E0,1.3866112E1,1.1377657E1,1.2125294E1,1.2426927E1,8.120899E0,4.97309E0,7.567219E0,6.7908936E0,0E0,0E0,0E0,0E0,0E0,0E0,0E0,0E0,0E0,0E0,0E0,0E0,0E0,0E0,0E0,0E0],"parents":[2147483647,0,0,1,1,2,2,3,3,4,4,5,5,6,6,7,7,8,8,9,9,10,10,11,11,12,12,13,13,14,14],"right_children":[2,4,6,8,10,12,14,16,18,20,22,24,26,28,30,-1,-1,-1,-1,-1,-1,-1,-1,-1,-1,-1,-1,-1,-1,-1,-1],"split_conditions":[-6.1890015E1,3.3E1,4.6104015E1,1.7342239E3,1.8226727E3,1.5249066E3,9E0,-2.2689818E2,2.6E1,1.5196656E3,6E0,1.4E1,2E0,1.5124044E3,1.6314561E2,1.3321939E-1,8.944619E-3,1.6929645E-2,5.741611E-2,1.7160115E-1,-2.5732573E-3,1.6013896E-2,8.532659E-2,7.4079715E-2,-1.3000024E-2,5.0002504E-3,-1.3399204E-4,3.0894697E-2,-1.5557708E-2,-1.8812623E-3,-9.626265E-3],"split_indices":[2,9,2,1,1,1,9,2,9,1,20,9,9,1,2,0,0,0,0,0,0,0,0,0,0,0,0,0,0,0,0],"split_type":[0,0,0,0,0,0,0,0,0,0,0,0,0,0,0,0,0,0,0,0,0,0,0,0,0,0,0,0,0,0,0],"sum_hessian":[6.4264E4,1.096E4,5.3304E4,5.253E3,5.707E3,3.8725E4,1.4579E4,4.948E3,3.05E2,5.516E3,1.91E2,4.38E2,3.8287E4,7.38E2,1.3841E4,8E0,4.94E3,1.98E2,1.07E2,3E0,5.513E3,1.61E2,3E1,1E1,4.28E2,1.989E3,3.6298E4,3.6E1,7.02E2,1.2598E4,1.243E3],"tree_param":{"num_deleted":"0","num_feature":"25","num_nodes":"31","size_leaf_vector":"1"}},{"base_weights":[-1.2689447E-3,-8.504391E-3,3.834707E-2,3.2880658E-1,-9.817042E-3,-1.5639069E-3,9.280257E-2,1.5911558E0,2.7122062E-1,4.8647154E-2,-1.40568875E-2,7.6450504E-2,-2.080023E-2,1.1901093E-1,-3.855901E-2,-2.5914326E-2,2.156833E-1,-7.706223E-2,2.9603466E-2,-9.470319E-5,1.2074857E-2,4.647139E-3,-1.6737517E-3,1.5358526E-1,6.603236E-3,-1.2015718E-3,-2.555283E-2,8.220814E-3,2.1663105E-2,7.2091095E-2,-8.445952E-3],"categories":[],"categories_nodes":[],"categories_segments":[],"categories_sizes":[],"default_left":[0,0,0,0,0,0,0,0,0,0,0,0,0,0,0,0,0,0,0,0,0,0,0,0,0,0,0,0,0,0,0],"id":35,"left_children":[1,3,5,7,9,11,13,15,17,19,21,23,25,27,29,-1,-1,-1,-1,-1,-1,-1,-1,-1,-1,-1,-1,-1,-1,-1,-1],"loss_changes":[1.8449306E1,2.4100645E1,2.1603464E1,1.4906792E1,1.3439203E1,8.611165E0,1.4478001E1,9.978977E0,5.4761534E0,1.3109039E1,8.202551E0,1.715542E1,9.488183E0,1.2574577E1,2.4462929E1,0E0,0E0,0E0,0E0,0E0,0E0,0E0,0E0,0E0,0E0,0E0,0E0,0E0,0E0,0E0,0E0],"parents":[2147483647,0,0,1,1,2,2,3,3,4,4,5,5,6,6,7,7,8,8,9,9,10,10,11,11,12,12,13,13,14,14],"right_children":[2,4,6,8,10,12,14,16,18,20,22,24,26,28,30,-1,-1,-1,-1,-1,-1,-1,-1,-1,-1,-1,-1,-1,-1,-1,-1],"split_conditions":[1.2E1,-2.2689818E2,1.6118474E3,1.6737803E3,3E0,7E0,5E1,4E0,1.6875787E3,5E0,2E0,-4.511754E1,1.25E2,2.1E1,1.613164E3,-2.5914326E-2,2.156833E-1,-7.706223E-2,2.9603466E-2,-9.470319E-5,1.2074857E-2,4.647139E-3,-1.6737517E-3,1.5358526E-1,6.603236E-3,-1.2015718E-3,-2.555283E-2,8.220814E-3,2.1663105E-2,7.2091095E-2,-8.445952E-3],"split_indices":[19,2,1,1,19,9,19,19,1,20,9,2,20,19,1,0,0,0,0,0,0,0,0,0,0,0,0,0,0,0,0],"split_type":[0,0,0,0,0,0,0,0,0,0,0,0,0,0,0,0,0,0,0,0,0,0,0,0,0,0,0,0,0,0,0],"sum_hessian":[6.4362E4,5.4423E4,9.939E3,2.1E2,5.4213E4,5.736E3,4.203E3,8E0,2.02E2,3.665E3,5.0548E4,1.134E3,4.602E3,3.504E3,6.99E2,2E0,6E0,4E0,1.98E2,2.172E3,1.493E3,2.143E3,4.8405E4,7E0,1.127E3,4.437E3,1.65E2,2.546E3,9.58E2,3.9E1,6.6E2],"tree_param":{"num_deleted":"0","num_feature":"25","num_nodes":"31","size_leaf_vector":"1"}},{"base_weights":[-4.3052244E-3,2.5217E-1,-5.328867E-3,6.306714E-1,-1.5202949E-2,2.3322128E-2,-1.1978552E-2,1.5096712E0,3.2612556E-1,-5.2580595E-1,7.132374E-2,7.0701934E-2,-2.1047026E-2,4.918149E-2,-1.4466431E-2,9.642594E-2,3.2579026E-1,-3.7978813E-2,5.2263863E-2,5.6851704E-2,-6.636641E-2,3.570267E-2,-2.2888599E-2,5.9583145E-3,4.9814723E-2,3.3475675E-2,-2.9626302E-3,9.0006255E-2,-4.9221297E-3,-1.1757029E-3,-6.23612E-3],"categories":[],"categories_nodes":[],"categories_segments":[],"categories_sizes":[],"default_left":[0,0,0,0,0,0,0,0,0,0,0,0,0,0,0,0,0,0,0,0,0,0,0,0,0,0,0,0,0,0,0],"id":36,"left_children":[1,3,5,7,9,11,13,15,17,19,21,23,25,27,29,-1,-1,-1,-1,-1,-1,-1,-1,-1,-1,-1,-1,-1,-1,-1,-1],"loss_changes":[1.6906752E1,2.5917051E1,1.2219666E1,2.78834E1,6.7088013E0,2.5400291E1,7.9214916E0,2.2603195E1,1.129619E1,3.6962538E0,1.1231922E1,2.7740187E1,1.9057758E1,1.7043295E2,6.490432E0,0E0,0E0,0E0,0E0,0E0,0E0,0E0,0E0,0E0,0E0,0E0,0E0,0E0,0E0,0E0,0E0],"parents":[2147483647,0,0,1,1,2,2,3,3,4,4,5,5,6,6,7,7,8,8,9,9,10,10,11,11,12,12,13,13,14,14],"right_children":[2,4,6,8,10,12,14,16,18,20,22,24,26,28,30,-1,-1,-1,-1,-1,-1,-1,-1,-1,-1,-1,-1,-1,-1,-1,-1],"split_conditions":[1.4726157E3,-1.6332005E2,-5.623888E1,1.628348E3,2.3E1,3.8E1,2E0,1.6245908E3,3.9E1,1.5333845E3,4.1E1,1.6269128E3,5E0,1.5880121E3,1.7166825E3,9.642594E-2,3.2579026E-1,-3.7978813E-2,5.2263863E-2,5.6851704E-2,-6.636641E-2,3.570267E-2,-2.2888599E-2,5.9583145E-3,4.9814723E-2,3.3475675E-2,-2.9626302E-3,9.0006255E-2,-4.9221297E-3,-1.1757029E-3,-6.23612E-3],"split_indices":[0,2,2,1,10,10,9,1,10,1,10,0,9,0,0,0,0,0,0,0,0,0,0,0,0,0,0,0,0,0,0],"split_type":[0,0,0,0,0,0,0,0,0,0,0,0,0,0,0,0,0,0,0,0,0,0,0,0,0,0,0,0,0,0,0],"sum_hessian":[6.4391E4,2.55E2,6.4136E4,1.05E2,1.5E2,1.2081E4,5.2055E4,2.6E1,7.9E1,2.1E1,1.29E2,5.842E3,6.239E3,2.034E3,5.0021E4,2.1E1,5E0,1.7E1,6.2E1,2E0,1.9E1,6.6E1,6.3E1,5.695E3,1.47E2,1.46E2,6.093E3,2.1E2,1.824E3,4.7344E4,2.677E3],"tree_param":{"num_deleted":"0","num_feature":"25","num_nodes":"31","size_leaf_vector":"1"}},{"base_weights":[2.3900294E-3,1.01047456E-1,-8.2498573E-4,3.9761198E-1,2.8882686E-2,-7.1485294E-3,3.3681486E-2,7.546699E-1,3.0822077E-1,1.1047192E-1,-3.7231997E-2,2.017229E-2,-1.4947741E-2,9.559659E-3,9.36477E-2,1.9515583E-1,5.729049E-2,6.8635784E-2,2.0726249E-2,1.966443E-2,-1.3508867E-2,-7.261799E-3,2.7626187E-2,-7.947137E-3,3.9167344E-3,6.2839636E-3,-1.925643E-3,1.0407395E-2,-1.5738569E-3,1.2541815E-2,-7.2839945E-3],"categories":[],"categories_nodes":[],"categories_segments":[],"categories_sizes":[],"default_left":[0,0,0,0,0,0,0,0,0,0,0,0,0,0,0,0,0,0,0,0,0,0,0,0,0,0,0,0,0,0,0],"id":37,"left_children":[1,3,5,7,9,11,13,15,17,19,21,23,25,27,29,-1,-1,-1,-1,-1,-1,-1,-1,-1,-1,-1,-1,-1,-1,-1,-1],"loss_changes":[2.0442663E1,4.351919E1,1.3619828E1,1.2470699E1,8.834494E0,1.124053E1,1.398237E1,1.6068588E1,1.2074085E1,1.5537239E1,1.0059491E1,2.2176521E1,1.3755237E1,1.6487888E1,1.4676601E1,0E0,0E0,0E0,0E0,0E0,0E0,0E0,0E0,0E0,0E0,0E0,0E0,0E0,0E0,0E0,0E0],"parents":[2147483647,0,0,1,1,2,2,3,3,4,4,5,5,6,6,7,7,8,8,9,9,10,10,11,11,12,12,13,13,14,14],"right_children":[2,4,6,8,10,12,14,16,18,20,22,24,26,28,30,-1,-1,-1,-1,-1,-1,-1,-1,-1,-1,-1,-1,-1,-1,-1,-1],"split_conditions":[1.5185322E3,2.7E1,1.2E1,1.7E1,4.2E1,4E0,1.6295504E3,4E0,1.4862334E3,1.5114318E3,1.5151921E3,1.5650906E3,2E0,7E0,5E1,1.9515583E-1,5.729049E-2,6.8635784E-2,2.0726249E-2,1.966443E-2,-1.3508867E-2,-7.261799E-3,2.7626187E-2,-7.947137E-3,3.9167344E-3,6.2839636E-3,-1.925643E-3,1.0407395E-2,-1.5738569E-3,1.2541815E-2,-7.2839945E-3],"split_indices":[0,9,19,9,9,19,1,19,0,0,0,1,9,9,19,0,0,0,0,0,0,0,0,0,0,0,0,0,0,0,0],"split_type":[0,0,0,0,0,0,0,0,0,0,0,0,0,0,0,0,0,0,0,0,0,0,0,0,0,0,0,0,0,0,0],"sum_hessian":[6.4449E4,2.033E3,6.2416E4,3.97E2,1.636E3,5.275E4,9.666E3,7.8E1,3.19E2,7.32E2,9.04E2,1.1714E4,4.1036E4,6.894E3,2.772E3,9E0,6.9E1,6.6E1,2.53E2,5.42E2,1.9E2,8.13E2,9.1E1,1.875E3,9.839E3,2.153E3,3.8883E4,1.455E3,5.439E3,2.328E3,4.44E2],"tree_param":{"num_deleted":"0","num_feature":"25","num_nodes":"31","size_leaf_vector":"1"}},{"base_weights":[4.5795445E-3,5.179119E-2,-1.6623626E-3,1.2473246E-1,1.6993206E-2,9.554639E-3,-2.3875324E-2,1.2078363E-1,1.3046497E0,2.4411173E-3,2.0328487E-1,2.2857725E-3,3.911699E-2,-2.144318E-2,-1.1351324E-1,3.4339976E-2,1.0015374E-2,1.2620548E-2,1.9864751E-1,-3.902485E-2,6.04633E-4,1.0702183E-1,1.2896127E-2,8.212354E-4,-6.634264E-3,3.4507576E-3,2.6505604E-2,2.6426834E-4,-2.9568474E-3,-2.5347287E-2,-7.953398E-3],"categories":[],"categories_nodes":[],"categories_segments":[],"categories_sizes":[],"default_left":[0,0,0,0,0,0,0,0,0,0,0,0,0,0,0,0,0,0,0,0,0,0,0,0,0,0,0,0,0,0,0],"id":38,"left_children":[1,3,5,7,9,11,13,15,17,19,21,23,25,27,29,-1,-1,-1,-1,-1,-1,-1,-1,-1,-1,-1,-1,-1,-1,-1,-1],"loss_changes":[1.898023E1,1.9087751E1,1.4174354E1,1.1159843E1,1.3806285E1,8.122557E0,4.158984E0,1.1088753E1,6.1772413E0,6.6916814E0,2.3637993E1,1.2341197E1,7.760044E0,3.63725E0,2.3767247E0,0E0,0E0,0E0,0E0,0E0,0E0,0E0,0E0,0E0,0E0,0E0,0E0,0E0,0E0,0E0,0E0],"parents":[2147483647,0,0,1,1,2,2,3,3,4,4,5,5,6,6,7,7,8,8,9,9,10,10,11,11,12,12,13,13,14,14],"right_children":[2,4,6,8,10,12,14,16,18,20,22,24,26,28,30,-1,-1,-1,-1,-1,-1,-1,-1,-1,-1,-1,-1,-1,-1,-1,-1],"split_conditions":[-8.1525185E1,3.3E1,1.6269128E3,1.6419849E3,1.7928136E3,9E0,2.0179851E2,-1.5483363E2,2.8E1,1.5791603E3,5.2E1,8E0,1.6676282E3,4E0,3E1,3.4339976E-2,1.0015374E-2,1.2620548E-2,1.9864751E-1,-3.902485E-2,6.04633E-4,1.0702183E-1,1.2896127E-2,8.212354E-4,-6.634264E-3,3.4507576E-3,2.6505604E-2,2.6426834E-4,-2.9568474E-3,-2.5347287E-2,-7.953398E-3],"split_indices":[2,10,0,0,1,19,2,2,10,1,10,19,1,19,10,0,0,0,0,0,0,0,0,0,0,0,0,0,0,0,0],"split_type":[0,0,0,0,0,0,0,0,0,0,0,0,0,0,0,0,0,0,0,0,0,0,0,0,0,0,0,0,0,0,0],"sum_hessian":[6.4406E4,7.52E3,5.6886E4,2.428E3,5.092E3,3.7799E4,1.9087E4,2.421E3,7E0,4.724E3,3.68E2,3.034E4,7.459E3,1.8584E4,5.03E2,2.04E2,2.217E3,3E0,4E0,4.2E1,4.682E3,2.8E1,3.4E2,2.7929E4,2.411E3,7.311E3,1.48E2,4.688E3,1.3896E4,9.7E1,4.06E2],"tree_param":{"num_deleted":"0","num_feature":"25","num_nodes":"31","size_leaf_vector":"1"}},{"base_weights":[7.0910115E-4,9.508521E-3,-2.3565736E-2,1.411147E-2,-2.8691934E-2,-4.9670886E-2,-1.1206983E-2,6.406797E-2,8.0381455E-3,3.9628398E-2,-5.8217347E-2,-2.1504195E-1,-4.5371477E-2,-1.9851224E-3,-5.669797E-2,1.5112035E-2,3.4332667E-3,-1.0137099E-2,9.242655E-4,7.4327745E-2,2.84109E-3,-2.6112083E-2,-4.61967E-3,-2.5816316E-2,3.1020155E-2,-3.3481705E-3,-1.1199206E-2,-2.5443572E-3,4.5342916E-3,-4.623111E-3,-1.9989591E-2],"categories":[],"categories_nodes":[],"categories_segments":[],"categories_sizes":[],"default_left":[0,0,0,0,0,0,0,0,0,0,0,0,0,0,0,0,0,0,0,0,0,0,0,0,0,0,0,0,0,0,0],"id":39,"left_children":[1,3,5,7,9,11,13,15,17,19,21,23,25,27,29,-1,-1,-1,-1,-1,-1,-1,-1,-1,-1,-1,-1,-1,-1,-1,-1],"loss_changes":[1.3733925E1,8.298047E0,5.518303E0,1.2777565E1,1.0239527E1,3.8978882E0,4.870836E0,1.1811445E1,4.9497013E0,1.2071238E1,8.631863E0,3.2283115E0,4.24034E0,1.0720543E1,2.9239745E0,0E0,0E0,0E0,0E0,0E0,0E0,0E0,0E0,0E0,0E0,0E0,0E0,0E0,0E0,0E0,0E0],"parents":[2147483647,0,0,1,1,2,2,3,3,4,4,5,5,6,6,7,7,8,8,9,9,10,10,11,11,12,12,13,13,14,14],"right_children":[2,4,6,8,10,12,14,16,18,20,22,24,26,28,30,-1,-1,-1,-1,-1,-1,-1,-1,-1,-1,-1,-1,-1,-1,-1,-1],"split_conditions":[3.7693787E1,5.6E1,2.5E1,-9.663129E1,4E0,3.856927E1,1.618636E3,2.2E1,-9.2538956E1,-2.2689818E2,-1.6332005E2,1.6E1,9.516795E1,1.5785266E3,1.7093367E3,1.5112035E-2,3.4332667E-3,-1.0137099E-2,9.242655E-4,7.4327745E-2,2.84109E-3,-2.6112083E-2,-4.61967E-3,-2.5816316E-2,3.1020155E-2,-3.3481705E-3,-1.1199206E-2,-2.5443572E-3,4.5342916E-3,-4.623111E-3,-1.9989591E-2],"split_indices":[2,9,9,2,19,2,1,9,2,2,2,19,2,1,1,0,0,0,0,0,0,0,0,0,0,0,0,0,0,0,0],"split_type":[0,0,0,0,0,0,0,0,0,0,0,0,0,0,0,0,0,0,0,0,0,0,0,0,0,0,0,0,0,0,0],"sum_hessian":[6.4294E4,4.7189E4,1.7105E4,4.2115E4,5.074E3,5.495E3,1.161E4,4.564E3,3.7551E4,1.531E3,3.543E3,1.38E2,5.357E3,9.654E3,1.956E3,1.161E3,3.403E3,4.08E2,3.7143E4,2.3E1,1.508E3,1.97E2,3.346E3,1.28E2,1E1,4.547E3,8.1E2,6.455E3,3.199E3,1.824E3,1.32E2],"tree_param":{"num_deleted":"0","num_feature":"25","num_nodes":"31","size_leaf_vector":"1"}},{"base_weights":[-3.1458195E-3,2.9855622E-2,-9.272338E-3,3.3723506E-1,1.40689425E-2,4.1734442E-2,-1.2600119E-2,2.8140047E-1,9.459138E-1,1.1654902E-1,-1.1294989E-3,-1.3789179E-2,1.4898147E-1,-2.6272872E-2,4.22979E-4,6.772097E-2,2.0973234E-2,1.712402E-1,3.3163458E-2,6.374102E-2,7.3761316E-3,2.9268363E-4,-2.3101801E-2,-7.2532534E-3,5.4200473E-3,9.474083E-2,1.2572478E-2,-4.6917438E-3,5.467696E-4,3.113021E-3,-1.1115283E-3],"categories":[],"categories_nodes":[],"categories_segments":[],"categories_sizes":[],"default_left":[0,0,0,0,0,0,0,0,0,0,0,0,0,0,0,0,0,0,0,0,0,0,0,0,0,0,0,0,0,0,0],"id":40,"left_children":[1,3,5,7,9,11,13,15,17,19,21,23,25,27,29,-1,-1,-1,-1,-1,-1,-1,-1,-1,-1,-1,-1,-1,-1,-1,-1],"loss_changes":[1.3032851E1,4.8971542E1,9.228748E0,1.6488583E1,1.4954048E1,1.9831348E1,9.087918E0,1.2708183E1,1.8736458E1,2.758819E1,7.798281E0,8.770631E0,2.0975002E1,1.6315174E1,9.262313E0,0E0,0E0,0E0,0E0,0E0,0E0,0E0,0E0,0E0,0E0,0E0,0E0,0E0,0E0,0E0,0E0],"parents":[2147483647,0,0,1,1,2,2,3,3,4,4,5,5,6,6,7,7,8,8,9,9,10,10,11,11,12,12,13,13,14,14],"right_children":[2,4,6,8,10,12,14,16,18,20,22,24,26,28,30,-1,-1,-1,-1,-1,-1,-1,-1,-1,-1,-1,-1,-1,-1,-1,-1],"split_conditions":[1.5621787E3,1E1,3E0,1.6485792E3,1.7E1,1.6302007E3,7E0,1.5433761E3,8E0,-1.3289363E2,6.2E1,5E0,1.6314707E3,3.6E1,1.5892047E3,6.772097E-2,2.0973234E-2,1.712402E-1,3.3163458E-2,6.374102E-2,7.3761316E-3,2.9268363E-4,-2.3101801E-2,-7.2532534E-3,5.4200473E-3,9.474083E-2,1.2572478E-2,-4.6917438E-3,5.467696E-4,3.113021E-3,-1.1115283E-3],"split_indices":[0,9,19,1,9,1,19,0,9,2,20,20,1,9,0,0,0,0,0,0,0,0,0,0,0,0,0,0,0,0,0],"split_type":[0,0,0,0,0,0,0,0,0,0,0,0,0,0,0,0,0,0,0,0,0,0,0,0,0,0,0,0,0,0,0],"sum_hessian":[6.4458E4,1.0092E4,5.4366E4,4.92E2,9.6E3,3.329E3,5.1037E4,4.52E2,4E1,1.239E3,8.361E3,2.194E3,1.135E3,2.4897E4,2.614E4,6.8E1,3.84E2,1.7E1,2.3E1,9.3E1,1.146E3,8.217E3,1.44E2,1.177E3,1.017E3,3.1E1,1.104E3,1.5085E4,9.812E3,7.139E3,1.9001E4],"tree_param":{"num_deleted":"0","num_feature":"25","num_nodes":"31","size_leaf_vector":"1"}},{"base_weights":[6.2758234E-5,1.4658388E-1,-1.1284528E-3,2.5769806E-1,1.2753336E-1,-5.927683E-3,2.5249181E-2,2.517513E-1,-2.0808356E-2,3.7291337E-2,-9.067098E-3,5.159159E-2,-2.2713568E-2,2.0457393E-2,1.842005E-1,-8.731773E-3,6.67446E-2,6.923319E-2,3.2792073E-3,-2.9437878E-4,-3.3911697E-3,5.852358E-3,-8.783872E-3,-1.3322818E-2,-1.199043E-4],"categories":[],"categories_nodes":[],"categories_segments":[],"categories_sizes":[],"default_left":[0,0,0,0,0,0,0,0,0,0,0,0,0,0,0,0,0,0,0,0,0,0,0,0,0],"id":41,"left_children":[1,3,5,-1,7,9,11,13,15,17,19,21,23,-1,-1,-1,-1,-1,-1,-1,-1,-1,-1,-1,-1],"loss_changes":[1.1275991E1,2.379382E1,8.112693E0,0E0,9.550269E0,7.357041E0,1.2465149E1,2.0779943E1,1.0907042E1,1.0799408E1,7.68998E0,6.159996E0,8.316928E0,0E0,0E0,0E0,0E0,0E0,0E0,0E0,0E0,0E0,0E0,0E0,0E0],"parents":[2147483647,0,0,1,1,2,2,4,4,5,5,6,6,7,7,8,8,9,9,10,10,11,11,12,12],"right_children":[2,4,6,-1,8,10,12,14,16,18,20,22,24,-1,-1,-1,-1,-1,-1,-1,-1,-1,-1,-1,-1],"split_conditions":[-1.9930272E2,1.6097164E3,1.2E1,2.5769806E-1,6.8E1,3E0,1.6E1,1.5977753E3,1.6419849E3,-1.7307906E2,1.6465413E3,9.6E1,2E1,2.0457393E-2,1.842005E-1,-8.731773E-3,6.67446E-2,6.923319E-2,3.2792073E-3,-2.9437878E-4,-3.3911697E-3,5.852358E-3,-8.783872E-3,-1.3322818E-2,-1.199043E-4],"split_indices":[2,1,19,0,10,19,20,0,0,2,0,19,20,0,0,0,0,0,0,0,0,0,0,0,0],"split_type":[0,0,0,0,0,0,0,0,0,0,0,0,0,0,0,0,0,0,0,0,0,0,0,0,0],"sum_hessian":[6.4603E4,5.2E2,6.4083E4,3E0,5.17E2,5.4219E4,9.864E3,2.81E2,2.36E2,3.671E3,5.0548E4,6.367E3,3.497E3,2.74E2,7E0,2.16E2,2E1,2.4E1,3.647E3,4.0554E4,9.994E3,6.066E3,3.01E2,5.69E2,2.928E3],"tree_param":{"num_deleted":"0","num_feature":"25","num_nodes":"25","size_leaf_vector":"1"}},{"base_weights":[1.7650538E-3,1.3748568E-2,-1.163939E-2,4.749159E-2,1.4842146E-3,-6.210367E-2,-3.8388444E-3,9.9425346E-2,-5.3180815E-3,-2.554605E-1,3.8621186E-3,2.565888E-1,-8.035761E-2,-5.0948486E-2,1.8081525E-3,2.0274138E-2,5.021738E-3,-9.377508E-3,2.4151697E-3,-6.3290335E-2,3.2388028E-2,1.1303549E-3,-4.77542E-3,5.6783617E-2,-5.139158E-3,-6.892485E-3,-2.6894465E-2,-5.4712025E-3,6.569823E-2,7.7858166E-4,-5.1925657E-3],"categories":[],"categories_nodes":[],"categories_segments":[],"categories_sizes":[],"default_left":[0,0,0,0,0,0,0,0,0,0,0,0,0,0,0,0,0,0,0,0,0,0,0,0,0,0,0,0,0,0,0],"id":42,"left_children":[1,3,5,7,9,11,13,15,17,19,21,23,25,27,29,-1,-1,-1,-1,-1,-1,-1,-1,-1,-1,-1,-1,-1,-1,-1,-1],"loss_changes":[1.03583765E1,1.4089813E1,1.19816475E1,2.4892406E1,1.5258626E1,2.3726494E1,7.0136547E0,2.3254078E1,1.1735509E1,5.027996E1,9.504691E0,2.1213818E1,8.293114E0,7.554668E0,7.5624785E0,0E0,0E0,0E0,0E0,0E0,0E0,0E0,0E0,0E0,0E0,0E0,0E0,0E0,0E0,0E0,0E0],"parents":[2147483647,0,0,1,1,2,2,3,3,4,4,5,5,6,6,7,7,8,8,9,9,10,10,11,11,12,12,13,13,14,14],"right_children":[2,4,6,8,10,12,14,16,18,20,22,24,26,28,30,-1,-1,-1,-1,-1,-1,-1,-1,-1,-1,-1,-1,-1,-1,-1,-1],"split_conditions":[4.183155E0,1.2E1,7E0,1.5884907E3,3E0,1.5878679E3,1.5294753E3,4E0,1.6026362E3,1.6009769E3,6.4E1,4E0,1.608405E3,7.9E1,1.7166825E3,2.0274138E-2,5.021738E-3,-9.377508E-3,2.4151697E-3,-6.3290335E-2,3.2388028E-2,1.1303549E-3,-4.77542E-3,5.6783617E-2,-5.139158E-3,-6.892485E-3,-2.6894465E-2,-5.4712025E-3,6.569823E-2,7.7858166E-4,-5.1925657E-3],"split_indices":[2,9,9,0,10,0,1,9,1,1,10,9,1,19,0,0,0,0,0,0,0,0,0,0,0,0,0,0,0,0,0],"split_type":[0,0,0,0,0,0,0,0,0,0,0,0,0,0,0,0,0,0,0,0,0,0,0,0,0,0,0,0,0,0,0],"sum_hessian":[6.4483E4,3.4046E4,3.0437E4,9.075E3,2.4971E4,4.074E3,2.6363E4,4.575E3,4.5E3,2.28E2,2.4743E4,2.2E2,3.854E3,2.821E3,2.3542E4,1.475E3,3.1E3,1.124E3,3.376E3,1.38E2,9E1,2.1626E4,3.117E3,1.09E2,1.11E2,3.635E3,2.19E2,2.807E3,1.4E1,2.1186E4,2.356E3],"tree_param":{"num_deleted":"0","num_feature":"25","num_nodes":"31","size_leaf_vector":"1"}},{"base_weights":[1.3947963E-3,4.7344256E-2,-3.8058863E-3,3.3859648E-2,2.4185538E-1,3.6639064E-3,-2.5825663E-2,4.0246658E-2,-1.6836053E-1,8.719226E-1,1.6864908E-1,-5.471232E-2,6.891595E-3,-5.449412E-2,-1.7177328E-2,3.1179423E-2,3.5312679E-3,1.7823568E-2,-2.488122E-2,4.800273E-2,2.156364E-1,4.5303486E-2,7.686795E-3,-2.2045593E-3,-3.0788897E-2,8.924177E-3,4.805279E-4,-3.232348E-3,-1.0479467E-2,-1.1609833E-3,-6.5079196E-3],"categories":[],"categories_nodes":[],"categories_segments":[],"categories_sizes":[],"default_left":[0,0,0,0,0,0,0,0,0,0,0,0,0,0,0,0,0,0,0,0,0,0,0,0,0,0,0,0,0,0,0],"id":43,"left_children":[1,3,5,7,9,11,13,15,17,19,21,23,25,27,29,-1,-1,-1,-1,-1,-1,-1,-1,-1,-1,-1,-1,-1,-1,-1,-1],"loss_changes":[1.5413413E1,1.719283E1,9.530578E0,7.9293375E0,1.9456032E1,8.15257E0,3.6379967E0,7.9568357E0,5.286584E0,2.1113014E1,9.935853E0,1.8742329E1,7.04372E0,3.7893925E0,3.006746E0,0E0,0E0,0E0,0E0,0E0,0E0,0E0,0E0,0E0,0E0,0E0,0E0,0E0,0E0,0E0,0E0],"parents":[2147483647,0,0,1,1,2,2,3,3,4,4,5,5,6,6,7,7,8,8,9,9,10,10,11,11,12,12,13,13,14,14],"right_children":[2,4,6,8,10,12,14,16,18,20,22,24,26,28,30,-1,-1,-1,-1,-1,-1,-1,-1,-1,-1,-1,-1,-1,-1,-1,-1],"split_conditions":[-8.861897E1,2.1E1,4.6104015E1,1.5E1,1.8E1,-7.362203E1,1.8E1,1.1E1,-1.7307906E2,-9.2538956E1,-1.5483363E2,-7.514936E1,-6.790553E1,8.5167816E1,1.6314561E2,3.1179423E-2,3.5312679E-3,1.7823568E-2,-2.488122E-2,4.800273E-2,2.156364E-1,4.5303486E-2,7.686795E-3,-2.2045593E-3,-3.0788897E-2,8.924177E-3,4.805279E-4,-3.232348E-3,-1.0479467E-2,-1.1609833E-3,-6.5079196E-3],"split_indices":[2,19,2,19,10,2,10,10,2,2,2,2,2,2,2,0,0,0,0,0,0,0,0,0,0,0,0,0,0,0,0],"split_type":[0,0,0,0,0,0,0,0,0,0,0,0,0,0,0,0,0,0,0,0,0,0,0,0,0,0,0,0,0,0,0],"sum_hessian":[6.4498E4,6.557E3,5.7941E4,6.133E3,4.24E2,4.3265E4,1.4676E4,5.946E3,1.87E2,4.3E1,3.81E2,2.266E3,4.0999E4,3.4E3,1.1276E4,1.05E2,5.841E3,3.5E1,1.52E2,3.4E1,9E0,9.2E1,2.89E2,2.008E3,2.58E2,1.012E3,3.9987E4,2.361E3,1.039E3,1.0103E4,1.173E3],"tree_param":{"num_deleted":"0","num_feature":"25","num_nodes":"31","size_leaf_vector":"1"}},{"base_weights":[-8.417176E-4,3.754116E-2,-4.588706E-3,-1.5996334E-1,4.4021625E-2,-8.926082E-3,1.6087683E-2,-4.449746E-1,1.930379E-1,1.5348709E-1,2.9366463E-2,-2.7331453E-2,-2.452504E-3,3.745452E-1,1.2524659E-2,-5.5043E-2,5.697126E-2,4.9703788E-2,-9.424204E-3,7.786527E-2,1.1901186E-2,-9.93904E-3,4.3215617E-3,-3.6740128E-2,-2.2653535E-3,9.38062E-3,-5.482677E-4,1.0334909E-1,1.528585E-2,-3.7063886E-3,3.274671E-3],"categories":[],"categories_nodes":[],"categories_segments":[],"categories_sizes":[],"default_left":[0,0,0,0,0,0,0,0,0,0,0,0,0,0,0,0,0,0,0,0,0,0,0,0,0,0,0,0,0,0,0],"id":44,"left_children":[1,3,5,7,9,11,13,15,17,19,21,23,25,27,29,-1,-1,-1,-1,-1,-1,-1,-1,-1,-1,-1,-1,-1,-1,-1,-1],"loss_changes":[9.252843E0,7.3307543E0,5.2567225E0,1.8396797E1,8.884553E0,5.7728033E0,1.2976697E1,1.1121016E1,7.208156E0,1.4002816E1,8.720446E0,2.0047129E1,1.0455802E1,1.4449971E1,1.0094216E1,0E0,0E0,0E0,0E0,0E0,0E0,0E0,0E0,0E0,0E0,0E0,0E0,0E0,0E0,0E0,0E0],"parents":[2147483647,0,0,1,1,2,2,3,3,4,4,5,5,6,6,7,7,8,8,9,9,10,10,11,11,12,12,13,13,14,14],"right_children":[2,4,6,8,10,12,14,16,18,20,22,24,26,28,30,-1,-1,-1,-1,-1,-1,-1,-1,-1,-1,-1,-1,-1,-1,-1,-1],"split_conditions":[1.5456318E3,8E0,1E1,1.6E3,1.8E1,1.5870996E3,-1.4880681E2,9.7E1,1.6107362E3,-1.3753297E2,1.5350642E3,2E0,1.5881958E3,4.5E1,1.1E1,-5.5043E-2,5.697126E-2,4.9703788E-2,-9.424204E-3,7.786527E-2,1.1901186E-2,-9.93904E-3,4.3215617E-3,-3.6740128E-2,-2.2653535E-3,9.38062E-3,-5.482677E-4,1.0334909E-1,1.528585E-2,-3.7063886E-3,3.274671E-3],"split_indices":[0,10,20,1,10,0,2,20,1,2,1,10,0,10,10,0,0,0,0,0,0,0,0,0,0,0,0,0,0,0,0],"split_type":[0,0,0,0,0,0,0,0,0,0,0,0,0,0,0,0,0,0,0,0,0,0,0,0,0,0,0,0,0,0,0],"sum_hessian":[6.4334E4,5.721E3,5.8613E4,1.81E2,5.54E3,4.845E4,1.0163E4,1E2,8.1E1,6.53E2,4.887E3,1.2606E4,3.5844E4,9.9E1,1.0064E4,9.1E1,9E0,3.9E1,4.2E1,3.3E1,6.2E2,4.74E2,4.413E3,1.7E2,1.2436E4,1.093E3,3.4751E4,2.4E1,7.5E1,2.915E3,7.149E3],"tree_param":{"num_deleted":"0","num_feature":"25","num_nodes":"31","size_leaf_vector":"1"}},{"base_weights":[-1.0937463E-3,-9.545736E-5,-1.2695293E-1,2.4890466E-2,-5.6144116E-3,1.0300908E0,-1.4289764E-1,2.1622473E-2,6.1064667E-1,-2.022361E-2,4.249343E-3,1.4377716E-1,7.259369E-3,-1.0324423E0,-1.20776094E-1,-7.9051696E-4,4.966204E-3,2.8957126E-1,4.507957E-2,2.9229894E-2,-2.1578784E-3,2.5979532E-3,-7.6253415E-4,-2.48366E-2,2.5925506E-2,-1.195178E-1,3.7882518E-2,-1.338427E-2,6.815835E-2],"categories":[],"categories_nodes":[],"categories_segments":[],"categories_sizes":[],"default_left":[0,0,0,0,0,0,0,0,0,0,0,0,0,0,0,0,0,0,0,0,0,0,0,0,0,0,0,0,0],"id":45,"left_children":[1,3,5,7,9,11,13,15,17,19,21,-1,23,25,27,-1,-1,-1,-1,-1,-1,-1,-1,-1,-1,-1,-1,-1,-1],"loss_changes":[8.078886E0,8.797226E0,9.482253E0,2.2081034E1,7.5299687E0,2.908484E0,9.714355E0,9.504343E0,2.2071903E1,8.926106E0,8.049471E0,0E0,2.5763962E-1,3.208727E0,5.2179546E0,0E0,0E0,0E0,0E0,0E0,0E0,0E0,0E0,0E0,0E0,0E0,0E0,0E0,0E0],"parents":[2147483647,0,0,1,1,2,2,3,3,4,4,5,5,6,6,7,7,8,8,9,9,10,10,12,12,13,13,14,14],"right_children":[2,4,6,8,10,12,14,16,18,20,22,-1,24,26,28,-1,-1,-1,-1,-1,-1,-1,-1,-1,-1,-1,-1,-1,-1],"split_conditions":[1.01E2,4E0,-2.2689818E2,1.8226727E3,7E0,1.43E2,-1.7307906E2,1.6035233E3,5.1E1,-2.2689818E2,1.5E1,1.4377716E-1,1.15E2,2.03E2,8.1E1,-7.9051696E-4,4.966204E-3,2.8957126E-1,4.507957E-2,2.9229894E-2,-2.1578784E-3,2.5979532E-3,-7.6253415E-4,-2.48366E-2,2.5925506E-2,-1.195178E-1,3.7882518E-2,-1.338427E-2,6.815835E-2],"split_indices":[9,19,2,1,19,10,2,1,10,2,9,0,9,9,20,0,0,0,0,0,0,0,0,0,0,0,0,0,0],"split_type":[0,0,0,0,0,0,0,0,0,0,0,0,0,0,0,0,0,0,0,0,0,0,0,0,0,0,0,0,0],"sum_hessian":[6.4299E4,6.3794E4,5.05E2,1.1541E4,5.2253E4,6E0,4.99E2,1.1478E4,6.3E1,2.106E4,3.1193E4,4E0,2E0,1.1E1,4.88E2,5.591E3,5.887E3,3E0,6E1,9E1,2.097E4,1.1022E4,2.0171E4,1E0,1E0,1E1,1E0,4.81E2,7E0],"tree_param":{"num_deleted":"0","num_feature":"25","num_nodes":"29","size_leaf_vector":"1"}},{"base_weights":[2.3711305E-3,4.3188464E-2,-1.1572819E-4,4.569913E-1,3.6469355E-2,-1.2328434E-2,1.1374543E-2,4.353044E-2,8.832084E-1,-1.8924268E-1,4.3886695E-2,6.0690227E-3,-3.0340234E-2,3.474263E-2,-4.2775674E-3,7.861879E-2,-5.3651035E-2,2.908183E-2,2.7034605E-1,-2.966373E-2,6.844713E-2,6.5810196E-2,4.0546525E-3,-9.0141187E-4,3.7496004E-3,-5.7217805E-3,-1.1944479E-3,2.990888E-2,1.4530949E-3,-1.1970954E-2,4.35292E-4],"categories":[],"categories_nodes":[],"categories_segments":[],"categories_sizes":[],"default_left":[0,0,0,0,0,0,0,0,0,0,0,0,0,0,0,0,0,0,0,0,0,0,0,0,0,0,0,0,0,0,0],"id":46,"left_children":[1,3,5,7,9,11,13,15,17,19,21,23,25,27,29,-1,-1,-1,-1,-1,-1,-1,-1,-1,-1,-1,-1,-1,-1,-1,-1],"loss_changes":[6.5364428E0,1.02652025E1,8.517588E0,1.0358777E1,6.1023316E0,9.750454E0,1.1438924E1,1.3775716E1,3.048446E1,1.1087571E1,7.2051477E0,6.9006124E0,7.3505487E0,6.7022095E1,1.8659986E1,0E0,0E0,0E0,0E0,0E0,0E0,0E0,0E0,0E0,0E0,0E0,0E0,0E0,0E0,0E0,0E0],"parents":[2147483647,0,0,1,1,2,2,3,3,4,4,5,5,6,6,7,7,8,8,9,9,10,10,11,11,12,12,13,13,14,14],"right_children":[2,4,6,8,10,12,14,16,18,20,22,24,26,28,30,-1,-1,-1,-1,-1,-1,-1,-1,-1,-1,-1,-1,-1,-1,-1,-1],"split_conditions":[3E0,-1.7307906E2,7E0,6.3E1,-1.24534615E2,5E0,1.5898904E3,4.3E1,2E0,8.5E1,1.5019172E3,4.2E1,1.5913032E3,2E0,2E0,7.861879E-2,-5.3651035E-2,2.908183E-2,2.7034605E-1,-2.966373E-2,6.844713E-2,6.5810196E-2,4.0546525E-3,-9.0141187E-4,3.7496004E-3,-5.7217805E-3,-1.1944479E-3,2.990888E-2,1.4530949E-3,-1.1970954E-2,4.35292E-4],"split_indices":[19,2,19,9,2,19,0,9,19,9,0,10,0,9,9,0,0,0,0,0,0,0,0,0,0,0,0,0,0,0,0],"split_type":[0,0,0,0,0,0,0,0,0,0,0,0,0,0,0,0,0,0,0,0,0,0,0,0,0,0,0,0,0,0,0],"sum_hessian":[6.4393E4,3.697E3,6.0696E4,5.8E1,3.639E3,2.9423E4,3.1273E4,3E1,2.8E1,1.15E2,3.524E3,1.4556E4,1.4867E4,1.2544E4,1.8729E4,1.3E1,1.7E1,2.2E1,6E0,1.03E2,1.2E1,1.8E1,3.506E3,9.836E3,4.72E3,6.04E3,8.827E3,8.9E2,1.1654E4,1.302E3,1.7427E4],"tree_param":{"num_deleted":"0","num_feature":"25","num_nodes":"31","size_leaf_vector":"1"}},{"base_weights":[-7.1570906E-4,9.2925034E-2,-1.8136014E-3,3.2399333E-1,-5.3587485E-2,-5.8898777E-3,1.5661329E-2,2.172968E-1,6.50039E-1,-1.4312115E-1,2.0267333E-1,-1.4589129E-2,8.3552925E-3,3.853472E-3,8.4978126E-2,3.000245E-2,-3.606942E-2,9.297591E-2,-1.5235425E-3,-3.4021907E-2,-4.0870146E-3,2.6220728E-2,-1.5744789E-1,-2.1821019E-4,-3.4997575E-3,2.469632E-3,-1.6396459E-3,1.4793895E-4,7.900866E-2,5.774588E-2,6.1097653E-3],"categories":[],"categories_nodes":[],"categories_segments":[],"categories_sizes":[],"default_left":[0,0,0,0,0,0,0,0,0,0,0,0,0,0,0,0,0,0,0,0,0,0,0,0,0,0,0,0,0,0,0],"id":47,"left_children":[1,3,5,7,9,11,13,15,17,19,21,23,25,27,29,-1,-1,-1,-1,-1,-1,-1,-1,-1,-1,-1,-1,-1,-1,-1,-1],"loss_changes":[6.626931E0,2.5306599E1,4.5384665E0,9.947254E0,1.0537346E1,6.402197E0,9.86321E0,1.062771E1,1.3226595E1,6.8382716E0,1.30031395E1,8.121574E0,7.923145E0,1.9220896E1,2.0592936E1,0E0,0E0,0E0,0E0,0E0,0E0,0E0,0E0,0E0,0E0,0E0,0E0,0E0,0E0,0E0,0E0],"parents":[2147483647,0,0,1,1,2,2,3,3,4,4,5,5,6,6,7,7,8,8,9,9,10,10,11,11,12,12,13,13,14,14],"right_children":[2,4,6,8,10,12,14,16,18,20,22,24,26,28,30,-1,-1,-1,-1,-1,-1,-1,-1,-1,-1,-1,-1,-1,-1,-1,-1],"split_conditions":[1.4953527E3,3.7E1,9E0,3.7E1,1.6446241E3,3.6E1,5.3E1,3.5E1,1.4862334E3,6E0,8.3E1,2.2E1,5.3E1,1.7612812E3,5E0,3.000245E-2,-3.606942E-2,9.297591E-2,-1.5235425E-3,-3.4021907E-2,-4.0870146E-3,2.6220728E-2,-1.5744789E-1,-2.1821019E-4,-3.4997575E-3,2.469632E-3,-1.6396459E-3,1.4793895E-4,7.900866E-2,5.774588E-2,6.1097653E-3],"split_indices":[0,9,19,10,1,9,10,10,0,19,9,10,10,1,9,0,0,0,0,0,0,0,0,0,0,0,0,0,0,0,0],"split_type":[0,0,0,0,0,0,0,0,0,0,0,0,0,0,0,0,0,0,0,0,0,0,0,0,0,0,0,0,0,0,0],"sum_hessian":[6.4457E4,7.46E2,6.3711E4,2.89E2,4.57E2,5.1661E4,1.205E4,2.19E2,7E1,3.39E2,1.18E2,3.2074E4,1.9587E4,1.0297E4,1.753E3,1.92E2,2.7E1,4.9E1,2.1E1,1.15E2,2.24E2,1.15E2,3E0,1.9948E4,1.2126E4,1.1798E4,7.789E3,1.0267E4,3E1,8E1,1.673E3],"tree_param":{"num_deleted":"0","num_feature":"25","num_nodes":"31","size_leaf_vector":"1"}},{"base_weights":[3.1389776E-3,-2.014216E-2,7.2291894E-3,-3.3702664E-2,3.2410407E-1,1.534817E-1,5.2354056E-3,-8.799508E-2,-9.1747825E-6,2.3708542E-1,8.4165674E-1,6.1259353E-1,-1.8284124E-1,2.8222784E-2,3.2816508E-5,-4.5797866E-2,-6.7561283E-3,3.5988633E-3,-5.193235E-3,2.0853363E-2,1.2995553E-1,4.8277985E-2,1.18196525E-1,4.8009835E-2,9.649305E-2,-2.7635595E-2,3.300094E-2,4.6886288E-2,2.1157067E-3,-8.279277E-3,3.631706E-4],"categories":[],"categories_nodes":[],"categories_segments":[],"categories_sizes":[],"default_left":[0,0,0,0,0,0,0,0,0,0,0,0,0,0,0,0,0,0,0,0,0,0,0,0,0,0,0,0,0,0,0],"id":48,"left_children":[1,3,5,7,9,11,13,15,17,19,21,23,25,27,29,-1,-1,-1,-1,-1,-1,-1,-1,-1,-1,-1,-1,-1,-1,-1,-1],"loss_changes":[6.118719E0,4.4834522E1,1.5935789E1,1.690091E1,1.6193832E1,1.1360323E2,6.448381E0,2.6716944E1,1.0659593E1,9.22398E0,5.7800713E0,1.4055145E1,2.0473808E1,3.0971907E1,1.31065855E1,0E0,0E0,0E0,0E0,0E0,0E0,0E0,0E0,0E0,0E0,0E0,0E0,0E0,0E0,0E0,0E0],"parents":[2147483647,0,0,1,1,2,2,3,3,4,4,5,5,6,6,7,7,8,8,9,9,10,10,11,11,12,12,13,13,14,14],"right_children":[2,4,6,8,10,12,14,16,18,20,22,24,26,28,30,-1,-1,-1,-1,-1,-1,-1,-1,-1,-1,-1,-1,-1,-1,-1,-1],"split_conditions":[7E0,1.6302007E3,3E0,1.5923169E3,8E0,1.5892047E3,1.5629261E3,-1.5732662E1,4E0,7E1,-2.1543863E1,1.3E1,5.4E1,8E0,1.5687013E3,-4.5797866E-2,-6.7561283E-3,3.5988633E-3,-5.193235E-3,2.0853363E-2,1.2995553E-1,4.8277985E-2,1.18196525E-1,4.8009835E-2,9.649305E-2,-2.7635595E-2,3.300094E-2,4.6886288E-2,2.1157067E-3,-8.279277E-3,3.631706E-4],"split_indices":[10,1,9,1,9,0,0,2,10,20,2,20,10,9,0,0,0,0,0,0,0,0,0,0,0,0,0,0,0,0,0],"split_type":[0,0,0,0,0,0,0,0,0,0,0,0,0,0,0,0,0,0,0,0,0,0,0,0,0,0,0,0,0,0,0],